digraph Tree {
node [shape=box, style="filled, rounded", color="black", fontname=helvetica] ;
edge [fontname=helvetica] ;
0 [label=<Sp. Attack &le; 61.5<br/>gini = 0.923<br/>samples = 600<br/>value = [52, 20, 20, 33, 17, 22, 37, 4, 24, 55, 24, 18<br/>81, 25, 41, 32, 15, 80]<br/>class = Normal>, fillcolor="#8139e500"] ;
1 [label=<Defense &le; 107.5<br/>gini = 0.896<br/>samples = 271<br/>value = [37, 8, 8, 7, 7, 17, 6, 1, 10, 15, 17, 6, 60<br/>14, 4, 18, 6, 30]<br/>class = Normal>, fillcolor="#8139e519"] ;
0 -> 1 [labeldistance=2.5, labelangle=45, headlabel="True"] ;
2 [label=<HP &le; 77.5<br/>gini = 0.883<br/>samples = 244<br/>value = [36, 7, 8, 7, 7, 17, 6, 1, 6, 13, 12, 5, 60<br/>13, 4, 10, 3, 29]<br/>class = Normal>, fillcolor="#8139e51d"] ;
1 -> 2 ;
3 [label=<Attack &le; 35.5<br/>gini = 0.893<br/>samples = 208<br/>value = [35, 6, 8, 7, 6, 14, 5, 1, 5, 13, 9, 4, 42, 11<br/>3, 9, 3, 27]<br/>class = Normal>, fillcolor="#8139e50a"] ;
2 -> 3 ;
4 [label=<Attack &le; 21.0<br/>gini = 0.766<br/>samples = 29<br/>value = [12, 0, 0, 1, 2, 1, 0, 1, 1, 2, 0, 0, 2, 0<br/>1, 0, 0, 6]<br/>class = Bug>, fillcolor="#e5813943"] ;
3 -> 4 ;
5 [label=<Speed &le; 30.0<br/>gini = 0.5<br/>samples = 6<br/>value = [1, 0, 0, 0, 1, 0, 0, 0, 0, 0, 0, 0, 0, 0, 0<br/>0, 0, 4]<br/>class = Water>, fillcolor="#e5473999"] ;
4 -> 5 ;
6 [label=<gini = 0.0<br/>samples = 1<br/>value = [0, 0, 0, 0, 1, 0, 0, 0, 0, 0, 0, 0, 0, 0, 0<br/>0, 0, 0]<br/>class = Fairy>, fillcolor="#64e539ff"] ;
5 -> 6 ;
7 [label=<Sp. Defense &le; 67.5<br/>gini = 0.32<br/>samples = 5<br/>value = [1, 0, 0, 0, 0, 0, 0, 0, 0, 0, 0, 0, 0, 0, 0<br/>0, 0, 4]<br/>class = Water>, fillcolor="#e54739bf"] ;
5 -> 7 ;
8 [label=<gini = 0.0<br/>samples = 3<br/>value = [0, 0, 0, 0, 0, 0, 0, 0, 0, 0, 0, 0, 0, 0, 0<br/>0, 0, 3]<br/>class = Water>, fillcolor="#e54739ff"] ;
7 -> 8 ;
9 [label=<Sp. Defense &le; 100.0<br/>gini = 0.5<br/>samples = 2<br/>value = [1, 0, 0, 0, 0, 0, 0, 0, 0, 0, 0, 0, 0, 0, 0<br/>0, 0, 1]<br/>class = Bug>, fillcolor="#e5813900"] ;
7 -> 9 ;
10 [label=<gini = 0.0<br/>samples = 1<br/>value = [1, 0, 0, 0, 0, 0, 0, 0, 0, 0, 0, 0, 0, 0, 0<br/>0, 0, 0]<br/>class = Bug>, fillcolor="#e58139ff"] ;
9 -> 10 ;
11 [label=<gini = 0.0<br/>samples = 1<br/>value = [0, 0, 0, 0, 0, 0, 0, 0, 0, 0, 0, 0, 0, 0, 0<br/>0, 0, 1]<br/>class = Water>, fillcolor="#e54739ff"] ;
9 -> 11 ;
12 [label=<Sp. Attack &le; 29.5<br/>gini = 0.737<br/>samples = 23<br/>value = [11, 0, 0, 1, 1, 1, 0, 1, 1, 2, 0, 0, 2, 0<br/>1, 0, 0, 2]<br/>class = Bug>, fillcolor="#e581396d"] ;
4 -> 12 ;
13 [label=<gini = 0.0<br/>samples = 8<br/>value = [8, 0, 0, 0, 0, 0, 0, 0, 0, 0, 0, 0, 0, 0, 0<br/>0, 0, 0]<br/>class = Bug>, fillcolor="#e58139ff"] ;
12 -> 13 ;
14 [label=<Speed &le; 62.5<br/>gini = 0.88<br/>samples = 15<br/>value = [3, 0, 0, 1, 1, 1, 0, 1, 1, 2, 0, 0, 2, 0, 1<br/>0, 0, 2]<br/>class = Bug>, fillcolor="#e5813914"] ;
12 -> 14 ;
15 [label=<Speed &le; 47.5<br/>gini = 0.86<br/>samples = 10<br/>value = [0, 0, 0, 0, 1, 1, 0, 1, 1, 2, 0, 0, 2, 0, 1<br/>0, 0, 1]<br/>class = Grass>, fillcolor="#399de500"] ;
14 -> 15 ;
16 [label=<Speed &le; 22.5<br/>gini = 0.833<br/>samples = 6<br/>value = [0, 0, 0, 0, 1, 1, 0, 0, 1, 1, 0, 0, 0, 0, 1<br/>0, 0, 1]<br/>class = Fairy>, fillcolor="#64e53900"] ;
15 -> 16 ;
17 [label=<gini = 0.0<br/>samples = 1<br/>value = [0, 0, 0, 0, 1, 0, 0, 0, 0, 0, 0, 0, 0, 0, 0<br/>0, 0, 0]<br/>class = Fairy>, fillcolor="#64e539ff"] ;
16 -> 17 ;
18 [label=<Attack &le; 32.5<br/>gini = 0.8<br/>samples = 5<br/>value = [0, 0, 0, 0, 0, 1, 0, 0, 1, 1, 0, 0, 0, 0, 1<br/>0, 0, 1]<br/>class = Fighting>, fillcolor="#39e54700"] ;
16 -> 18 ;
19 [label=<Sp. Defense &le; 40.0<br/>gini = 0.75<br/>samples = 4<br/>value = [0, 0, 0, 0, 0, 0, 0, 0, 1, 1, 0, 0, 0, 0, 1<br/>0, 0, 1]<br/>class = Ghost>, fillcolor="#39d7e500"] ;
18 -> 19 ;
20 [label=<gini = 0.0<br/>samples = 1<br/>value = [0, 0, 0, 0, 0, 0, 0, 0, 0, 1, 0, 0, 0, 0, 0<br/>0, 0, 0]<br/>class = Grass>, fillcolor="#399de5ff"] ;
19 -> 20 ;
21 [label=<Sp. Defense &le; 57.5<br/>gini = 0.667<br/>samples = 3<br/>value = [0, 0, 0, 0, 0, 0, 0, 0, 1, 0, 0, 0, 0, 0, 1<br/>0, 0, 1]<br/>class = Ghost>, fillcolor="#39d7e500"] ;
19 -> 21 ;
22 [label=<gini = 0.0<br/>samples = 1<br/>value = [0, 0, 0, 0, 0, 0, 0, 0, 0, 0, 0, 0, 0, 0, 0<br/>0, 0, 1]<br/>class = Water>, fillcolor="#e54739ff"] ;
21 -> 22 ;
23 [label=<HP &le; 41.5<br/>gini = 0.5<br/>samples = 2<br/>value = [0, 0, 0, 0, 0, 0, 0, 0, 1, 0, 0, 0, 0, 0, 1<br/>0, 0, 0]<br/>class = Ghost>, fillcolor="#39d7e500"] ;
21 -> 23 ;
24 [label=<gini = 0.0<br/>samples = 1<br/>value = [0, 0, 0, 0, 0, 0, 0, 0, 1, 0, 0, 0, 0, 0, 0<br/>0, 0, 0]<br/>class = Ghost>, fillcolor="#39d7e5ff"] ;
23 -> 24 ;
25 [label=<gini = 0.0<br/>samples = 1<br/>value = [0, 0, 0, 0, 0, 0, 0, 0, 0, 0, 0, 0, 0, 0, 1<br/>0, 0, 0]<br/>class = Psychic>, fillcolor="#e539d7ff"] ;
23 -> 25 ;
26 [label=<gini = 0.0<br/>samples = 1<br/>value = [0, 0, 0, 0, 0, 1, 0, 0, 0, 0, 0, 0, 0, 0, 0<br/>0, 0, 0]<br/>class = Fighting>, fillcolor="#39e547ff"] ;
18 -> 26 ;
27 [label=<Sp. Attack &le; 40.5<br/>gini = 0.625<br/>samples = 4<br/>value = [0, 0, 0, 0, 0, 0, 0, 1, 0, 1, 0, 0, 2, 0, 0<br/>0, 0, 0]<br/>class = Normal>, fillcolor="#8139e555"] ;
15 -> 27 ;
28 [label=<gini = 0.0<br/>samples = 2<br/>value = [0, 0, 0, 0, 0, 0, 0, 0, 0, 0, 0, 0, 2, 0, 0<br/>0, 0, 0]<br/>class = Normal>, fillcolor="#8139e5ff"] ;
27 -> 28 ;
29 [label=<Sp. Attack &le; 47.5<br/>gini = 0.5<br/>samples = 2<br/>value = [0, 0, 0, 0, 0, 0, 0, 1, 0, 1, 0, 0, 0, 0, 0<br/>0, 0, 0]<br/>class = Flying>, fillcolor="#39e5ba00"] ;
27 -> 29 ;
30 [label=<gini = 0.0<br/>samples = 1<br/>value = [0, 0, 0, 0, 0, 0, 0, 1, 0, 0, 0, 0, 0, 0, 0<br/>0, 0, 0]<br/>class = Flying>, fillcolor="#39e5baff"] ;
29 -> 30 ;
31 [label=<gini = 0.0<br/>samples = 1<br/>value = [0, 0, 0, 0, 0, 0, 0, 0, 0, 1, 0, 0, 0, 0, 0<br/>0, 0, 0]<br/>class = Grass>, fillcolor="#399de5ff"] ;
29 -> 31 ;
32 [label=<Speed &le; 91.0<br/>gini = 0.56<br/>samples = 5<br/>value = [3, 0, 0, 1, 0, 0, 0, 0, 0, 0, 0, 0, 0, 0, 0<br/>0, 0, 1]<br/>class = Bug>, fillcolor="#e581397f"] ;
14 -> 32 ;
33 [label=<gini = 0.0<br/>samples = 3<br/>value = [3, 0, 0, 0, 0, 0, 0, 0, 0, 0, 0, 0, 0, 0, 0<br/>0, 0, 0]<br/>class = Bug>, fillcolor="#e58139ff"] ;
32 -> 33 ;
34 [label=<Speed &le; 98.5<br/>gini = 0.5<br/>samples = 2<br/>value = [0, 0, 0, 1, 0, 0, 0, 0, 0, 0, 0, 0, 0, 0, 0<br/>0, 0, 1]<br/>class = Electric>, fillcolor="#9de53900"] ;
32 -> 34 ;
35 [label=<gini = 0.0<br/>samples = 1<br/>value = [0, 0, 0, 0, 0, 0, 0, 0, 0, 0, 0, 0, 0, 0, 0<br/>0, 0, 1]<br/>class = Water>, fillcolor="#e54739ff"] ;
34 -> 35 ;
36 [label=<gini = 0.0<br/>samples = 1<br/>value = [0, 0, 0, 1, 0, 0, 0, 0, 0, 0, 0, 0, 0, 0, 0<br/>0, 0, 0]<br/>class = Electric>, fillcolor="#9de539ff"] ;
34 -> 36 ;
37 [label=<Defense &le; 66.5<br/>gini = 0.895<br/>samples = 179<br/>value = [23, 6, 8, 6, 4, 13, 5, 0, 4, 11, 9, 4, 40, 11<br/>2, 9, 3, 21]<br/>class = Normal>, fillcolor="#8139e51c"] ;
3 -> 37 ;
38 [label=<Sp. Attack &le; 42.5<br/>gini = 0.868<br/>samples = 127<br/>value = [11, 4, 5, 5, 4, 10, 5, 0, 0, 7, 7, 3, 37, 8<br/>2, 3, 0, 16]<br/>class = Normal>, fillcolor="#8139e530"] ;
37 -> 38 ;
39 [label=<Attack &le; 61.5<br/>gini = 0.797<br/>samples = 57<br/>value = [4, 1, 3, 2, 1, 7, 1, 0, 0, 1, 4, 1, 23, 5<br/>0, 2, 0, 2]<br/>class = Normal>, fillcolor="#8139e552"] ;
38 -> 39 ;
40 [label=<Sp. Defense &le; 52.0<br/>gini = 0.637<br/>samples = 33<br/>value = [3, 0, 0, 1, 0, 2, 0, 0, 0, 1, 1, 1, 19, 4<br/>0, 0, 0, 1]<br/>class = Normal>, fillcolor="#8139e584"] ;
39 -> 40 ;
41 [label=<HP &le; 25.0<br/>gini = 0.538<br/>samples = 27<br/>value = [2, 0, 0, 1, 0, 1, 0, 0, 0, 0, 1, 1, 18, 2<br/>0, 0, 0, 1]<br/>class = Normal>, fillcolor="#8139e5a3"] ;
40 -> 41 ;
42 [label=<Attack &le; 47.5<br/>gini = 0.5<br/>samples = 2<br/>value = [0, 0, 0, 1, 0, 0, 0, 0, 0, 0, 1, 0, 0, 0, 0<br/>0, 0, 0]<br/>class = Electric>, fillcolor="#9de53900"] ;
41 -> 42 ;
43 [label=<gini = 0.0<br/>samples = 1<br/>value = [0, 0, 0, 1, 0, 0, 0, 0, 0, 0, 0, 0, 0, 0, 0<br/>0, 0, 0]<br/>class = Electric>, fillcolor="#9de539ff"] ;
42 -> 43 ;
44 [label=<gini = 0.0<br/>samples = 1<br/>value = [0, 0, 0, 0, 0, 0, 0, 0, 0, 0, 1, 0, 0, 0, 0<br/>0, 0, 0]<br/>class = Ground>, fillcolor="#3964e5ff"] ;
42 -> 44 ;
45 [label=<Sp. Attack &le; 22.5<br/>gini = 0.464<br/>samples = 25<br/>value = [2, 0, 0, 0, 0, 1, 0, 0, 0, 0, 0, 1, 18, 2<br/>0, 0, 0, 1]<br/>class = Normal>, fillcolor="#8139e5b1"] ;
41 -> 45 ;
46 [label=<gini = 0.0<br/>samples = 1<br/>value = [0, 0, 0, 0, 0, 1, 0, 0, 0, 0, 0, 0, 0, 0, 0<br/>0, 0, 0]<br/>class = Fighting>, fillcolor="#39e547ff"] ;
45 -> 46 ;
47 [label=<Sp. Defense &le; 27.5<br/>gini = 0.42<br/>samples = 24<br/>value = [2, 0, 0, 0, 0, 0, 0, 0, 0, 0, 0, 1, 18, 2<br/>0, 0, 0, 1]<br/>class = Normal>, fillcolor="#8139e5b9"] ;
45 -> 47 ;
48 [label=<gini = 0.0<br/>samples = 1<br/>value = [0, 0, 0, 0, 0, 0, 0, 0, 0, 0, 0, 0, 0, 0, 0<br/>0, 0, 1]<br/>class = Water>, fillcolor="#e54739ff"] ;
47 -> 48 ;
49 [label=<Speed &le; 58.5<br/>gini = 0.371<br/>samples = 23<br/>value = [2, 0, 0, 0, 0, 0, 0, 0, 0, 0, 0, 1, 18, 2<br/>0, 0, 0, 0]<br/>class = Normal>, fillcolor="#8139e5c2"] ;
47 -> 49 ;
50 [label=<Sp. Attack &le; 38.0<br/>gini = 0.541<br/>samples = 14<br/>value = [2, 0, 0, 0, 0, 0, 0, 0, 0, 0, 0, 1, 9, 2, 0<br/>0, 0, 0]<br/>class = Normal>, fillcolor="#8139e595"] ;
49 -> 50 ;
51 [label=<Sp. Attack &le; 31.0<br/>gini = 0.417<br/>samples = 12<br/>value = [1, 0, 0, 0, 0, 0, 0, 0, 0, 0, 0, 1, 9, 1, 0<br/>0, 0, 0]<br/>class = Normal>, fillcolor="#8139e5b9"] ;
50 -> 51 ;
52 [label=<HP &le; 35.0<br/>gini = 0.75<br/>samples = 4<br/>value = [1, 0, 0, 0, 0, 0, 0, 0, 0, 0, 0, 1, 1, 1, 0<br/>0, 0, 0]<br/>class = Bug>, fillcolor="#e5813900"] ;
51 -> 52 ;
53 [label=<gini = 0.0<br/>samples = 1<br/>value = [1, 0, 0, 0, 0, 0, 0, 0, 0, 0, 0, 0, 0, 0, 0<br/>0, 0, 0]<br/>class = Bug>, fillcolor="#e58139ff"] ;
52 -> 53 ;
54 [label=<Sp. Defense &le; 35.0<br/>gini = 0.667<br/>samples = 3<br/>value = [0, 0, 0, 0, 0, 0, 0, 0, 0, 0, 0, 1, 1, 1, 0<br/>0, 0, 0]<br/>class = Ice>, fillcolor="#4739e500"] ;
52 -> 54 ;
55 [label=<gini = 0.0<br/>samples = 1<br/>value = [0, 0, 0, 0, 0, 0, 0, 0, 0, 0, 0, 1, 0, 0, 0<br/>0, 0, 0]<br/>class = Ice>, fillcolor="#4739e5ff"] ;
54 -> 55 ;
56 [label=<Sp. Attack &le; 27.5<br/>gini = 0.5<br/>samples = 2<br/>value = [0, 0, 0, 0, 0, 0, 0, 0, 0, 0, 0, 0, 1, 1, 0<br/>0, 0, 0]<br/>class = Normal>, fillcolor="#8139e500"] ;
54 -> 56 ;
57 [label=<gini = 0.0<br/>samples = 1<br/>value = [0, 0, 0, 0, 0, 0, 0, 0, 0, 0, 0, 0, 1, 0, 0<br/>0, 0, 0]<br/>class = Normal>, fillcolor="#8139e5ff"] ;
56 -> 57 ;
58 [label=<gini = 0.0<br/>samples = 1<br/>value = [0, 0, 0, 0, 0, 0, 0, 0, 0, 0, 0, 0, 0, 1, 0<br/>0, 0, 0]<br/>class = Poison>, fillcolor="#ba39e5ff"] ;
56 -> 58 ;
59 [label=<gini = 0.0<br/>samples = 8<br/>value = [0, 0, 0, 0, 0, 0, 0, 0, 0, 0, 0, 0, 8, 0, 0<br/>0, 0, 0]<br/>class = Normal>, fillcolor="#8139e5ff"] ;
51 -> 59 ;
60 [label=<Attack &le; 58.5<br/>gini = 0.5<br/>samples = 2<br/>value = [1, 0, 0, 0, 0, 0, 0, 0, 0, 0, 0, 0, 0, 1, 0<br/>0, 0, 0]<br/>class = Bug>, fillcolor="#e5813900"] ;
50 -> 60 ;
61 [label=<gini = 0.0<br/>samples = 1<br/>value = [0, 0, 0, 0, 0, 0, 0, 0, 0, 0, 0, 0, 0, 1, 0<br/>0, 0, 0]<br/>class = Poison>, fillcolor="#ba39e5ff"] ;
60 -> 61 ;
62 [label=<gini = 0.0<br/>samples = 1<br/>value = [1, 0, 0, 0, 0, 0, 0, 0, 0, 0, 0, 0, 0, 0, 0<br/>0, 0, 0]<br/>class = Bug>, fillcolor="#e58139ff"] ;
60 -> 62 ;
63 [label=<gini = 0.0<br/>samples = 9<br/>value = [0, 0, 0, 0, 0, 0, 0, 0, 0, 0, 0, 0, 9, 0, 0<br/>0, 0, 0]<br/>class = Normal>, fillcolor="#8139e5ff"] ;
49 -> 63 ;
64 [label=<Attack &le; 45.0<br/>gini = 0.778<br/>samples = 6<br/>value = [1, 0, 0, 0, 0, 1, 0, 0, 0, 1, 0, 0, 1, 2, 0<br/>0, 0, 0]<br/>class = Poison>, fillcolor="#ba39e533"] ;
40 -> 64 ;
65 [label=<HP &le; 37.5<br/>gini = 0.667<br/>samples = 3<br/>value = [0, 0, 0, 0, 0, 1, 0, 0, 0, 1, 0, 0, 1, 0, 0<br/>0, 0, 0]<br/>class = Fighting>, fillcolor="#39e54700"] ;
64 -> 65 ;
66 [label=<gini = 0.0<br/>samples = 1<br/>value = [0, 0, 0, 0, 0, 1, 0, 0, 0, 0, 0, 0, 0, 0, 0<br/>0, 0, 0]<br/>class = Fighting>, fillcolor="#39e547ff"] ;
65 -> 66 ;
67 [label=<Sp. Defense &le; 67.5<br/>gini = 0.5<br/>samples = 2<br/>value = [0, 0, 0, 0, 0, 0, 0, 0, 0, 1, 0, 0, 1, 0, 0<br/>0, 0, 0]<br/>class = Grass>, fillcolor="#399de500"] ;
65 -> 67 ;
68 [label=<gini = 0.0<br/>samples = 1<br/>value = [0, 0, 0, 0, 0, 0, 0, 0, 0, 1, 0, 0, 0, 0, 0<br/>0, 0, 0]<br/>class = Grass>, fillcolor="#399de5ff"] ;
67 -> 68 ;
69 [label=<gini = 0.0<br/>samples = 1<br/>value = [0, 0, 0, 0, 0, 0, 0, 0, 0, 0, 0, 0, 1, 0, 0<br/>0, 0, 0]<br/>class = Normal>, fillcolor="#8139e5ff"] ;
67 -> 69 ;
70 [label=<Speed &le; 50.0<br/>gini = 0.444<br/>samples = 3<br/>value = [1, 0, 0, 0, 0, 0, 0, 0, 0, 0, 0, 0, 0, 2, 0<br/>0, 0, 0]<br/>class = Poison>, fillcolor="#ba39e57f"] ;
64 -> 70 ;
71 [label=<gini = 0.0<br/>samples = 1<br/>value = [1, 0, 0, 0, 0, 0, 0, 0, 0, 0, 0, 0, 0, 0, 0<br/>0, 0, 0]<br/>class = Bug>, fillcolor="#e58139ff"] ;
70 -> 71 ;
72 [label=<gini = 0.0<br/>samples = 2<br/>value = [0, 0, 0, 0, 0, 0, 0, 0, 0, 0, 0, 0, 0, 2, 0<br/>0, 0, 0]<br/>class = Poison>, fillcolor="#ba39e5ff"] ;
70 -> 72 ;
73 [label=<Sp. Attack &le; 36.0<br/>gini = 0.878<br/>samples = 24<br/>value = [1, 1, 3, 1, 1, 5, 1, 0, 0, 0, 3, 0, 4, 1, 0<br/>2, 0, 1]<br/>class = Fighting>, fillcolor="#39e5470d"] ;
39 -> 73 ;
74 [label=<Defense &le; 57.5<br/>gini = 0.818<br/>samples = 15<br/>value = [1, 1, 1, 0, 0, 5, 1, 0, 0, 0, 3, 0, 1, 0, 0<br/>1, 0, 1]<br/>class = Fighting>, fillcolor="#39e5472a"] ;
73 -> 74 ;
75 [label=<HP &le; 37.5<br/>gini = 0.769<br/>samples = 13<br/>value = [1, 1, 0, 0, 0, 5, 1, 0, 0, 0, 3, 0, 1, 0, 0<br/>1, 0, 0]<br/>class = Fighting>, fillcolor="#39e54733"] ;
74 -> 75 ;
76 [label=<HP &le; 18.0<br/>gini = 0.5<br/>samples = 2<br/>value = [1, 0, 0, 0, 0, 0, 0, 0, 0, 0, 0, 0, 1, 0, 0<br/>0, 0, 0]<br/>class = Bug>, fillcolor="#e5813900"] ;
75 -> 76 ;
77 [label=<gini = 0.0<br/>samples = 1<br/>value = [1, 0, 0, 0, 0, 0, 0, 0, 0, 0, 0, 0, 0, 0, 0<br/>0, 0, 0]<br/>class = Bug>, fillcolor="#e58139ff"] ;
76 -> 77 ;
78 [label=<gini = 0.0<br/>samples = 1<br/>value = [0, 0, 0, 0, 0, 0, 0, 0, 0, 0, 0, 0, 1, 0, 0<br/>0, 0, 0]<br/>class = Normal>, fillcolor="#8139e5ff"] ;
76 -> 78 ;
79 [label=<Sp. Attack &le; 20.0<br/>gini = 0.694<br/>samples = 11<br/>value = [0, 1, 0, 0, 0, 5, 1, 0, 0, 0, 3, 0, 0, 0, 0<br/>1, 0, 0]<br/>class = Fighting>, fillcolor="#39e54740"] ;
75 -> 79 ;
80 [label=<gini = 0.0<br/>samples = 1<br/>value = [0, 0, 0, 0, 0, 0, 1, 0, 0, 0, 0, 0, 0, 0, 0<br/>0, 0, 0]<br/>class = Fire>, fillcolor="#39e581ff"] ;
79 -> 80 ;
81 [label=<Sp. Defense &le; 32.5<br/>gini = 0.64<br/>samples = 10<br/>value = [0, 1, 0, 0, 0, 5, 0, 0, 0, 0, 3, 0, 0, 0, 0<br/>1, 0, 0]<br/>class = Fighting>, fillcolor="#39e54749"] ;
79 -> 81 ;
82 [label=<gini = 0.0<br/>samples = 1<br/>value = [0, 0, 0, 0, 0, 0, 0, 0, 0, 0, 0, 0, 0, 0, 0<br/>1, 0, 0]<br/>class = Rock>, fillcolor="#e5399dff"] ;
81 -> 82 ;
83 [label=<Speed &le; 101.0<br/>gini = 0.568<br/>samples = 9<br/>value = [0, 1, 0, 0, 0, 5, 0, 0, 0, 0, 3, 0, 0, 0, 0<br/>0, 0, 0]<br/>class = Fighting>, fillcolor="#39e54755"] ;
81 -> 83 ;
84 [label=<Attack &le; 77.0<br/>gini = 0.469<br/>samples = 8<br/>value = [0, 0, 0, 0, 0, 5, 0, 0, 0, 0, 3, 0, 0, 0, 0<br/>0, 0, 0]<br/>class = Fighting>, fillcolor="#39e54766"] ;
83 -> 84 ;
85 [label=<HP &le; 45.0<br/>gini = 0.444<br/>samples = 3<br/>value = [0, 0, 0, 0, 0, 1, 0, 0, 0, 0, 2, 0, 0, 0, 0<br/>0, 0, 0]<br/>class = Ground>, fillcolor="#3964e57f"] ;
84 -> 85 ;
86 [label=<gini = 0.0<br/>samples = 1<br/>value = [0, 0, 0, 0, 0, 1, 0, 0, 0, 0, 0, 0, 0, 0, 0<br/>0, 0, 0]<br/>class = Fighting>, fillcolor="#39e547ff"] ;
85 -> 86 ;
87 [label=<gini = 0.0<br/>samples = 2<br/>value = [0, 0, 0, 0, 0, 0, 0, 0, 0, 0, 2, 0, 0, 0, 0<br/>0, 0, 0]<br/>class = Ground>, fillcolor="#3964e5ff"] ;
85 -> 87 ;
88 [label=<Defense &le; 45.0<br/>gini = 0.32<br/>samples = 5<br/>value = [0, 0, 0, 0, 0, 4, 0, 0, 0, 0, 1, 0, 0, 0, 0<br/>0, 0, 0]<br/>class = Fighting>, fillcolor="#39e547bf"] ;
84 -> 88 ;
89 [label=<Speed &le; 69.0<br/>gini = 0.5<br/>samples = 2<br/>value = [0, 0, 0, 0, 0, 1, 0, 0, 0, 0, 1, 0, 0, 0, 0<br/>0, 0, 0]<br/>class = Fighting>, fillcolor="#39e54700"] ;
88 -> 89 ;
90 [label=<gini = 0.0<br/>samples = 1<br/>value = [0, 0, 0, 0, 0, 0, 0, 0, 0, 0, 1, 0, 0, 0, 0<br/>0, 0, 0]<br/>class = Ground>, fillcolor="#3964e5ff"] ;
89 -> 90 ;
91 [label=<gini = 0.0<br/>samples = 1<br/>value = [0, 0, 0, 0, 0, 1, 0, 0, 0, 0, 0, 0, 0, 0, 0<br/>0, 0, 0]<br/>class = Fighting>, fillcolor="#39e547ff"] ;
89 -> 91 ;
92 [label=<gini = 0.0<br/>samples = 3<br/>value = [0, 0, 0, 0, 0, 3, 0, 0, 0, 0, 0, 0, 0, 0, 0<br/>0, 0, 0]<br/>class = Fighting>, fillcolor="#39e547ff"] ;
88 -> 92 ;
93 [label=<gini = 0.0<br/>samples = 1<br/>value = [0, 1, 0, 0, 0, 0, 0, 0, 0, 0, 0, 0, 0, 0, 0<br/>0, 0, 0]<br/>class = Dark>, fillcolor="#e5ba39ff"] ;
83 -> 93 ;
94 [label=<Speed &le; 60.0<br/>gini = 0.5<br/>samples = 2<br/>value = [0, 0, 1, 0, 0, 0, 0, 0, 0, 0, 0, 0, 0, 0, 0<br/>0, 0, 1]<br/>class = Dragon>, fillcolor="#d7e53900"] ;
74 -> 94 ;
95 [label=<gini = 0.0<br/>samples = 1<br/>value = [0, 0, 1, 0, 0, 0, 0, 0, 0, 0, 0, 0, 0, 0, 0<br/>0, 0, 0]<br/>class = Dragon>, fillcolor="#d7e539ff"] ;
94 -> 95 ;
96 [label=<gini = 0.0<br/>samples = 1<br/>value = [0, 0, 0, 0, 0, 0, 0, 0, 0, 0, 0, 0, 0, 0, 0<br/>0, 0, 1]<br/>class = Water>, fillcolor="#e54739ff"] ;
94 -> 96 ;
97 [label=<Speed &le; 55.0<br/>gini = 0.79<br/>samples = 9<br/>value = [0, 0, 2, 1, 1, 0, 0, 0, 0, 0, 0, 0, 3, 1, 0<br/>1, 0, 0]<br/>class = Normal>, fillcolor="#8139e524"] ;
73 -> 97 ;
98 [label=<Attack &le; 67.5<br/>gini = 0.625<br/>samples = 4<br/>value = [0, 0, 2, 1, 1, 0, 0, 0, 0, 0, 0, 0, 0, 0, 0<br/>0, 0, 0]<br/>class = Dragon>, fillcolor="#d7e53955"] ;
97 -> 98 ;
99 [label=<gini = 0.0<br/>samples = 1<br/>value = [0, 0, 0, 1, 0, 0, 0, 0, 0, 0, 0, 0, 0, 0, 0<br/>0, 0, 0]<br/>class = Electric>, fillcolor="#9de539ff"] ;
98 -> 99 ;
100 [label=<HP &le; 59.0<br/>gini = 0.444<br/>samples = 3<br/>value = [0, 0, 2, 0, 1, 0, 0, 0, 0, 0, 0, 0, 0, 0, 0<br/>0, 0, 0]<br/>class = Dragon>, fillcolor="#d7e5397f"] ;
98 -> 100 ;
101 [label=<gini = 0.0<br/>samples = 2<br/>value = [0, 0, 2, 0, 0, 0, 0, 0, 0, 0, 0, 0, 0, 0, 0<br/>0, 0, 0]<br/>class = Dragon>, fillcolor="#d7e539ff"] ;
100 -> 101 ;
102 [label=<gini = 0.0<br/>samples = 1<br/>value = [0, 0, 0, 0, 1, 0, 0, 0, 0, 0, 0, 0, 0, 0, 0<br/>0, 0, 0]<br/>class = Fairy>, fillcolor="#64e539ff"] ;
100 -> 102 ;
103 [label=<Attack &le; 66.5<br/>gini = 0.56<br/>samples = 5<br/>value = [0, 0, 0, 0, 0, 0, 0, 0, 0, 0, 0, 0, 3, 1, 0<br/>1, 0, 0]<br/>class = Normal>, fillcolor="#8139e57f"] ;
97 -> 103 ;
104 [label=<gini = 0.0<br/>samples = 1<br/>value = [0, 0, 0, 0, 0, 0, 0, 0, 0, 0, 0, 0, 0, 1, 0<br/>0, 0, 0]<br/>class = Poison>, fillcolor="#ba39e5ff"] ;
103 -> 104 ;
105 [label=<Attack &le; 89.0<br/>gini = 0.375<br/>samples = 4<br/>value = [0, 0, 0, 0, 0, 0, 0, 0, 0, 0, 0, 0, 3, 0, 0<br/>1, 0, 0]<br/>class = Normal>, fillcolor="#8139e5aa"] ;
103 -> 105 ;
106 [label=<gini = 0.0<br/>samples = 3<br/>value = [0, 0, 0, 0, 0, 0, 0, 0, 0, 0, 0, 0, 3, 0, 0<br/>0, 0, 0]<br/>class = Normal>, fillcolor="#8139e5ff"] ;
105 -> 106 ;
107 [label=<gini = 0.0<br/>samples = 1<br/>value = [0, 0, 0, 0, 0, 0, 0, 0, 0, 0, 0, 0, 0, 0, 0<br/>1, 0, 0]<br/>class = Rock>, fillcolor="#e5399dff"] ;
105 -> 107 ;
108 [label=<Attack &le; 54.0<br/>gini = 0.886<br/>samples = 70<br/>value = [7, 3, 2, 3, 3, 3, 4, 0, 0, 6, 3, 2, 14, 3<br/>2, 1, 0, 14]<br/>class = Normal>, fillcolor="#8139e500"] ;
38 -> 108 ;
109 [label=<HP &le; 39.5<br/>gini = 0.818<br/>samples = 30<br/>value = [1, 1, 1, 0, 3, 0, 3, 0, 0, 3, 0, 2, 2, 1, 2<br/>0, 0, 11]<br/>class = Water>, fillcolor="#e547394c"] ;
108 -> 109 ;
110 [label=<gini = 0.0<br/>samples = 2<br/>value = [0, 0, 0, 0, 0, 0, 2, 0, 0, 0, 0, 0, 0, 0, 0<br/>0, 0, 0]<br/>class = Fire>, fillcolor="#39e581ff"] ;
109 -> 110 ;
111 [label=<Sp. Attack &le; 58.0<br/>gini = 0.801<br/>samples = 28<br/>value = [1, 1, 1, 0, 3, 0, 1, 0, 0, 3, 0, 2, 2, 1, 2<br/>0, 0, 11]<br/>class = Water>, fillcolor="#e5473952"] ;
109 -> 111 ;
112 [label=<Speed &le; 52.5<br/>gini = 0.798<br/>samples = 23<br/>value = [1, 1, 1, 0, 0, 0, 1, 0, 0, 3, 0, 2, 2, 1, 2<br/>0, 0, 9]<br/>class = Water>, fillcolor="#e547394d"] ;
111 -> 112 ;
113 [label=<Sp. Defense &le; 49.0<br/>gini = 0.84<br/>samples = 10<br/>value = [0, 0, 1, 0, 0, 0, 0, 0, 0, 1, 0, 2, 2, 1, 1<br/>0, 0, 2]<br/>class = Ice>, fillcolor="#4739e500"] ;
112 -> 113 ;
114 [label=<gini = 0.0<br/>samples = 2<br/>value = [0, 0, 0, 0, 0, 0, 0, 0, 0, 0, 0, 0, 2, 0, 0<br/>0, 0, 0]<br/>class = Normal>, fillcolor="#8139e5ff"] ;
113 -> 114 ;
115 [label=<Sp. Defense &le; 51.5<br/>gini = 0.812<br/>samples = 8<br/>value = [0, 0, 1, 0, 0, 0, 0, 0, 0, 1, 0, 2, 0, 1, 1<br/>0, 0, 2]<br/>class = Ice>, fillcolor="#4739e500"] ;
113 -> 115 ;
116 [label=<gini = 0.0<br/>samples = 2<br/>value = [0, 0, 0, 0, 0, 0, 0, 0, 0, 0, 0, 2, 0, 0, 0<br/>0, 0, 0]<br/>class = Ice>, fillcolor="#4739e5ff"] ;
115 -> 116 ;
117 [label=<Sp. Defense &le; 64.5<br/>gini = 0.778<br/>samples = 6<br/>value = [0, 0, 1, 0, 0, 0, 0, 0, 0, 1, 0, 0, 0, 1, 1<br/>0, 0, 2]<br/>class = Water>, fillcolor="#e5473933"] ;
115 -> 117 ;
118 [label=<Sp. Attack &le; 46.5<br/>gini = 0.444<br/>samples = 3<br/>value = [0, 0, 0, 0, 0, 0, 0, 0, 0, 0, 0, 0, 0, 1, 0<br/>0, 0, 2]<br/>class = Water>, fillcolor="#e547397f"] ;
117 -> 118 ;
119 [label=<gini = 0.0<br/>samples = 1<br/>value = [0, 0, 0, 0, 0, 0, 0, 0, 0, 0, 0, 0, 0, 1, 0<br/>0, 0, 0]<br/>class = Poison>, fillcolor="#ba39e5ff"] ;
118 -> 119 ;
120 [label=<gini = 0.0<br/>samples = 2<br/>value = [0, 0, 0, 0, 0, 0, 0, 0, 0, 0, 0, 0, 0, 0, 0<br/>0, 0, 2]<br/>class = Water>, fillcolor="#e54739ff"] ;
118 -> 120 ;
121 [label=<Sp. Defense &le; 70.0<br/>gini = 0.667<br/>samples = 3<br/>value = [0, 0, 1, 0, 0, 0, 0, 0, 0, 1, 0, 0, 0, 0, 1<br/>0, 0, 0]<br/>class = Dragon>, fillcolor="#d7e53900"] ;
117 -> 121 ;
122 [label=<gini = 0.0<br/>samples = 1<br/>value = [0, 0, 0, 0, 0, 0, 0, 0, 0, 1, 0, 0, 0, 0, 0<br/>0, 0, 0]<br/>class = Grass>, fillcolor="#399de5ff"] ;
121 -> 122 ;
123 [label=<Speed &le; 41.0<br/>gini = 0.5<br/>samples = 2<br/>value = [0, 0, 1, 0, 0, 0, 0, 0, 0, 0, 0, 0, 0, 0, 1<br/>0, 0, 0]<br/>class = Dragon>, fillcolor="#d7e53900"] ;
121 -> 123 ;
124 [label=<gini = 0.0<br/>samples = 1<br/>value = [0, 0, 1, 0, 0, 0, 0, 0, 0, 0, 0, 0, 0, 0, 0<br/>0, 0, 0]<br/>class = Dragon>, fillcolor="#d7e539ff"] ;
123 -> 124 ;
125 [label=<gini = 0.0<br/>samples = 1<br/>value = [0, 0, 0, 0, 0, 0, 0, 0, 0, 0, 0, 0, 0, 0, 1<br/>0, 0, 0]<br/>class = Psychic>, fillcolor="#e539d7ff"] ;
123 -> 125 ;
126 [label=<Speed &le; 71.0<br/>gini = 0.663<br/>samples = 13<br/>value = [1, 1, 0, 0, 0, 0, 1, 0, 0, 2, 0, 0, 0, 0, 1<br/>0, 0, 7]<br/>class = Water>, fillcolor="#e5473974"] ;
112 -> 126 ;
127 [label=<Sp. Attack &le; 56.5<br/>gini = 0.562<br/>samples = 11<br/>value = [1, 1, 0, 0, 0, 0, 1, 0, 0, 1, 0, 0, 0, 0, 0<br/>0, 0, 7]<br/>class = Water>, fillcolor="#e5473999"] ;
126 -> 127 ;
128 [label=<Sp. Defense &le; 38.5<br/>gini = 0.48<br/>samples = 10<br/>value = [0, 1, 0, 0, 0, 0, 1, 0, 0, 1, 0, 0, 0, 0, 0<br/>0, 0, 7]<br/>class = Water>, fillcolor="#e54739aa"] ;
127 -> 128 ;
129 [label=<gini = 0.0<br/>samples = 1<br/>value = [0, 1, 0, 0, 0, 0, 0, 0, 0, 0, 0, 0, 0, 0, 0<br/>0, 0, 0]<br/>class = Dark>, fillcolor="#e5ba39ff"] ;
128 -> 129 ;
130 [label=<Attack &le; 51.5<br/>gini = 0.37<br/>samples = 9<br/>value = [0, 0, 0, 0, 0, 0, 1, 0, 0, 1, 0, 0, 0, 0, 0<br/>0, 0, 7]<br/>class = Water>, fillcolor="#e54739bf"] ;
128 -> 130 ;
131 [label=<gini = 0.0<br/>samples = 6<br/>value = [0, 0, 0, 0, 0, 0, 0, 0, 0, 0, 0, 0, 0, 0, 0<br/>0, 0, 6]<br/>class = Water>, fillcolor="#e54739ff"] ;
130 -> 131 ;
132 [label=<gini = 0.667<br/>samples = 3<br/>value = [0, 0, 0, 0, 0, 0, 1, 0, 0, 1, 0, 0, 0, 0, 0<br/>0, 0, 1]<br/>class = Fire>, fillcolor="#39e58100"] ;
130 -> 132 ;
133 [label=<gini = 0.0<br/>samples = 1<br/>value = [1, 0, 0, 0, 0, 0, 0, 0, 0, 0, 0, 0, 0, 0, 0<br/>0, 0, 0]<br/>class = Bug>, fillcolor="#e58139ff"] ;
127 -> 133 ;
134 [label=<Defense &le; 46.5<br/>gini = 0.5<br/>samples = 2<br/>value = [0, 0, 0, 0, 0, 0, 0, 0, 0, 1, 0, 0, 0, 0, 1<br/>0, 0, 0]<br/>class = Grass>, fillcolor="#399de500"] ;
126 -> 134 ;
135 [label=<gini = 0.0<br/>samples = 1<br/>value = [0, 0, 0, 0, 0, 0, 0, 0, 0, 0, 0, 0, 0, 0, 1<br/>0, 0, 0]<br/>class = Psychic>, fillcolor="#e539d7ff"] ;
134 -> 135 ;
136 [label=<gini = 0.0<br/>samples = 1<br/>value = [0, 0, 0, 0, 0, 0, 0, 0, 0, 1, 0, 0, 0, 0, 0<br/>0, 0, 0]<br/>class = Grass>, fillcolor="#399de5ff"] ;
134 -> 136 ;
137 [label=<Attack &le; 49.0<br/>gini = 0.48<br/>samples = 5<br/>value = [0, 0, 0, 0, 3, 0, 0, 0, 0, 0, 0, 0, 0, 0, 0<br/>0, 0, 2]<br/>class = Fairy>, fillcolor="#64e53955"] ;
111 -> 137 ;
138 [label=<gini = 0.0<br/>samples = 3<br/>value = [0, 0, 0, 0, 3, 0, 0, 0, 0, 0, 0, 0, 0, 0, 0<br/>0, 0, 0]<br/>class = Fairy>, fillcolor="#64e539ff"] ;
137 -> 138 ;
139 [label=<gini = 0.0<br/>samples = 2<br/>value = [0, 0, 0, 0, 0, 0, 0, 0, 0, 0, 0, 0, 0, 0, 0<br/>0, 0, 2]<br/>class = Water>, fillcolor="#e54739ff"] ;
137 -> 139 ;
140 [label=<Defense &le; 58.5<br/>gini = 0.852<br/>samples = 40<br/>value = [6, 2, 1, 3, 0, 3, 1, 0, 0, 3, 3, 0, 12, 2<br/>0, 1, 0, 3]<br/>class = Normal>, fillcolor="#8139e52d"] ;
108 -> 140 ;
141 [label=<Sp. Defense &le; 49.5<br/>gini = 0.873<br/>samples = 26<br/>value = [6, 1, 0, 3, 0, 1, 1, 0, 0, 2, 3, 0, 4, 2, 0<br/>1, 0, 2]<br/>class = Bug>, fillcolor="#e5813917"] ;
140 -> 141 ;
142 [label=<Attack &le; 60.5<br/>gini = 0.75<br/>samples = 8<br/>value = [0, 0, 0, 3, 0, 0, 0, 0, 0, 1, 2, 0, 0, 1, 0<br/>0, 0, 1]<br/>class = Electric>, fillcolor="#9de5392a"] ;
141 -> 142 ;
143 [label=<gini = 0.0<br/>samples = 2<br/>value = [0, 0, 0, 2, 0, 0, 0, 0, 0, 0, 0, 0, 0, 0, 0<br/>0, 0, 0]<br/>class = Electric>, fillcolor="#9de539ff"] ;
142 -> 143 ;
144 [label=<Sp. Attack &le; 52.5<br/>gini = 0.778<br/>samples = 6<br/>value = [0, 0, 0, 1, 0, 0, 0, 0, 0, 1, 2, 0, 0, 1, 0<br/>0, 0, 1]<br/>class = Ground>, fillcolor="#3964e533"] ;
142 -> 144 ;
145 [label=<gini = 0.0<br/>samples = 2<br/>value = [0, 0, 0, 0, 0, 0, 0, 0, 0, 0, 2, 0, 0, 0, 0<br/>0, 0, 0]<br/>class = Ground>, fillcolor="#3964e5ff"] ;
144 -> 145 ;
146 [label=<Defense &le; 37.5<br/>gini = 0.75<br/>samples = 4<br/>value = [0, 0, 0, 1, 0, 0, 0, 0, 0, 1, 0, 0, 0, 1, 0<br/>0, 0, 1]<br/>class = Electric>, fillcolor="#9de53900"] ;
144 -> 146 ;
147 [label=<gini = 0.0<br/>samples = 1<br/>value = [0, 0, 0, 0, 0, 0, 0, 0, 0, 0, 0, 0, 0, 0, 0<br/>0, 0, 1]<br/>class = Water>, fillcolor="#e54739ff"] ;
146 -> 147 ;
148 [label=<Speed &le; 55.0<br/>gini = 0.667<br/>samples = 3<br/>value = [0, 0, 0, 1, 0, 0, 0, 0, 0, 1, 0, 0, 0, 1, 0<br/>0, 0, 0]<br/>class = Electric>, fillcolor="#9de53900"] ;
146 -> 148 ;
149 [label=<gini = 0.0<br/>samples = 1<br/>value = [0, 0, 0, 0, 0, 0, 0, 0, 0, 0, 0, 0, 0, 1, 0<br/>0, 0, 0]<br/>class = Poison>, fillcolor="#ba39e5ff"] ;
148 -> 149 ;
150 [label=<HP &le; 65.0<br/>gini = 0.5<br/>samples = 2<br/>value = [0, 0, 0, 1, 0, 0, 0, 0, 0, 1, 0, 0, 0, 0, 0<br/>0, 0, 0]<br/>class = Electric>, fillcolor="#9de53900"] ;
148 -> 150 ;
151 [label=<gini = 0.0<br/>samples = 1<br/>value = [0, 0, 0, 1, 0, 0, 0, 0, 0, 0, 0, 0, 0, 0, 0<br/>0, 0, 0]<br/>class = Electric>, fillcolor="#9de539ff"] ;
150 -> 151 ;
152 [label=<gini = 0.0<br/>samples = 1<br/>value = [0, 0, 0, 0, 0, 0, 0, 0, 0, 1, 0, 0, 0, 0, 0<br/>0, 0, 0]<br/>class = Grass>, fillcolor="#399de5ff"] ;
150 -> 152 ;
153 [label=<Attack &le; 68.0<br/>gini = 0.815<br/>samples = 18<br/>value = [6, 1, 0, 0, 0, 1, 1, 0, 0, 1, 1, 0, 4, 1, 0<br/>1, 0, 1]<br/>class = Bug>, fillcolor="#e5813924"] ;
141 -> 153 ;
154 [label=<Speed &le; 48.0<br/>gini = 0.667<br/>samples = 6<br/>value = [0, 1, 0, 0, 0, 0, 0, 0, 0, 1, 0, 0, 3, 0, 0<br/>1, 0, 0]<br/>class = Normal>, fillcolor="#8139e566"] ;
153 -> 154 ;
155 [label=<Defense &le; 47.5<br/>gini = 0.667<br/>samples = 3<br/>value = [0, 1, 0, 0, 0, 0, 0, 0, 0, 1, 0, 0, 0, 0, 0<br/>1, 0, 0]<br/>class = Dark>, fillcolor="#e5ba3900"] ;
154 -> 155 ;
156 [label=<gini = 0.0<br/>samples = 1<br/>value = [0, 0, 0, 0, 0, 0, 0, 0, 0, 1, 0, 0, 0, 0, 0<br/>0, 0, 0]<br/>class = Grass>, fillcolor="#399de5ff"] ;
155 -> 156 ;
157 [label=<Speed &le; 39.5<br/>gini = 0.5<br/>samples = 2<br/>value = [0, 1, 0, 0, 0, 0, 0, 0, 0, 0, 0, 0, 0, 0, 0<br/>1, 0, 0]<br/>class = Dark>, fillcolor="#e5ba3900"] ;
155 -> 157 ;
158 [label=<gini = 0.0<br/>samples = 1<br/>value = [0, 1, 0, 0, 0, 0, 0, 0, 0, 0, 0, 0, 0, 0, 0<br/>0, 0, 0]<br/>class = Dark>, fillcolor="#e5ba39ff"] ;
157 -> 158 ;
159 [label=<gini = 0.0<br/>samples = 1<br/>value = [0, 0, 0, 0, 0, 0, 0, 0, 0, 0, 0, 0, 0, 0, 0<br/>1, 0, 0]<br/>class = Rock>, fillcolor="#e5399dff"] ;
157 -> 159 ;
160 [label=<gini = 0.0<br/>samples = 3<br/>value = [0, 0, 0, 0, 0, 0, 0, 0, 0, 0, 0, 0, 3, 0, 0<br/>0, 0, 0]<br/>class = Normal>, fillcolor="#8139e5ff"] ;
154 -> 160 ;
161 [label=<Sp. Defense &le; 50.5<br/>gini = 0.708<br/>samples = 12<br/>value = [6, 0, 0, 0, 0, 1, 1, 0, 0, 0, 1, 0, 1, 1, 0<br/>0, 0, 1]<br/>class = Bug>, fillcolor="#e5813974"] ;
153 -> 161 ;
162 [label=<Sp. Attack &le; 52.5<br/>gini = 0.8<br/>samples = 5<br/>value = [1, 0, 0, 0, 0, 1, 0, 0, 0, 0, 1, 0, 1, 0, 0<br/>0, 0, 1]<br/>class = Bug>, fillcolor="#e5813900"] ;
161 -> 162 ;
163 [label=<Defense &le; 47.5<br/>gini = 0.75<br/>samples = 4<br/>value = [1, 0, 0, 0, 0, 0, 0, 0, 0, 0, 1, 0, 1, 0, 0<br/>0, 0, 1]<br/>class = Bug>, fillcolor="#e5813900"] ;
162 -> 163 ;
164 [label=<gini = 0.0<br/>samples = 1<br/>value = [1, 0, 0, 0, 0, 0, 0, 0, 0, 0, 0, 0, 0, 0, 0<br/>0, 0, 0]<br/>class = Bug>, fillcolor="#e58139ff"] ;
163 -> 164 ;
165 [label=<Speed &le; 55.0<br/>gini = 0.667<br/>samples = 3<br/>value = [0, 0, 0, 0, 0, 0, 0, 0, 0, 0, 1, 0, 1, 0, 0<br/>0, 0, 1]<br/>class = Ground>, fillcolor="#3964e500"] ;
163 -> 165 ;
166 [label=<HP &le; 55.0<br/>gini = 0.5<br/>samples = 2<br/>value = [0, 0, 0, 0, 0, 0, 0, 0, 0, 0, 0, 0, 1, 0, 0<br/>0, 0, 1]<br/>class = Normal>, fillcolor="#8139e500"] ;
165 -> 166 ;
167 [label=<gini = 0.0<br/>samples = 1<br/>value = [0, 0, 0, 0, 0, 0, 0, 0, 0, 0, 0, 0, 0, 0, 0<br/>0, 0, 1]<br/>class = Water>, fillcolor="#e54739ff"] ;
166 -> 167 ;
168 [label=<gini = 0.0<br/>samples = 1<br/>value = [0, 0, 0, 0, 0, 0, 0, 0, 0, 0, 0, 0, 1, 0, 0<br/>0, 0, 0]<br/>class = Normal>, fillcolor="#8139e5ff"] ;
166 -> 168 ;
169 [label=<gini = 0.0<br/>samples = 1<br/>value = [0, 0, 0, 0, 0, 0, 0, 0, 0, 0, 1, 0, 0, 0, 0<br/>0, 0, 0]<br/>class = Ground>, fillcolor="#3964e5ff"] ;
165 -> 169 ;
170 [label=<gini = 0.0<br/>samples = 1<br/>value = [0, 0, 0, 0, 0, 1, 0, 0, 0, 0, 0, 0, 0, 0, 0<br/>0, 0, 0]<br/>class = Fighting>, fillcolor="#39e547ff"] ;
162 -> 170 ;
171 [label=<Sp. Attack &le; 55.5<br/>gini = 0.449<br/>samples = 7<br/>value = [5, 0, 0, 0, 0, 0, 1, 0, 0, 0, 0, 0, 0, 1, 0<br/>0, 0, 0]<br/>class = Bug>, fillcolor="#e58139aa"] ;
161 -> 171 ;
172 [label=<Defense &le; 56.0<br/>gini = 0.278<br/>samples = 6<br/>value = [5, 0, 0, 0, 0, 0, 0, 0, 0, 0, 0, 0, 0, 1, 0<br/>0, 0, 0]<br/>class = Bug>, fillcolor="#e58139cc"] ;
171 -> 172 ;
173 [label=<gini = 0.0<br/>samples = 5<br/>value = [5, 0, 0, 0, 0, 0, 0, 0, 0, 0, 0, 0, 0, 0, 0<br/>0, 0, 0]<br/>class = Bug>, fillcolor="#e58139ff"] ;
172 -> 173 ;
174 [label=<gini = 0.0<br/>samples = 1<br/>value = [0, 0, 0, 0, 0, 0, 0, 0, 0, 0, 0, 0, 0, 1, 0<br/>0, 0, 0]<br/>class = Poison>, fillcolor="#ba39e5ff"] ;
172 -> 174 ;
175 [label=<gini = 0.0<br/>samples = 1<br/>value = [0, 0, 0, 0, 0, 0, 1, 0, 0, 0, 0, 0, 0, 0, 0<br/>0, 0, 0]<br/>class = Fire>, fillcolor="#39e581ff"] ;
171 -> 175 ;
176 [label=<Speed &le; 51.5<br/>gini = 0.633<br/>samples = 14<br/>value = [0, 1, 1, 0, 0, 2, 0, 0, 0, 1, 0, 0, 8, 0, 0<br/>0, 0, 1]<br/>class = Normal>, fillcolor="#8139e57f"] ;
140 -> 176 ;
177 [label=<Defense &le; 63.0<br/>gini = 0.667<br/>samples = 3<br/>value = [0, 0, 0, 0, 0, 1, 0, 0, 0, 1, 0, 0, 0, 0, 0<br/>0, 0, 1]<br/>class = Fighting>, fillcolor="#39e54700"] ;
176 -> 177 ;
178 [label=<gini = 0.0<br/>samples = 1<br/>value = [0, 0, 0, 0, 0, 1, 0, 0, 0, 0, 0, 0, 0, 0, 0<br/>0, 0, 0]<br/>class = Fighting>, fillcolor="#39e547ff"] ;
177 -> 178 ;
179 [label=<Attack &le; 74.0<br/>gini = 0.5<br/>samples = 2<br/>value = [0, 0, 0, 0, 0, 0, 0, 0, 0, 1, 0, 0, 0, 0, 0<br/>0, 0, 1]<br/>class = Grass>, fillcolor="#399de500"] ;
177 -> 179 ;
180 [label=<gini = 0.0<br/>samples = 1<br/>value = [0, 0, 0, 0, 0, 0, 0, 0, 0, 1, 0, 0, 0, 0, 0<br/>0, 0, 0]<br/>class = Grass>, fillcolor="#399de5ff"] ;
179 -> 180 ;
181 [label=<gini = 0.0<br/>samples = 1<br/>value = [0, 0, 0, 0, 0, 0, 0, 0, 0, 0, 0, 0, 0, 0, 0<br/>0, 0, 1]<br/>class = Water>, fillcolor="#e54739ff"] ;
179 -> 181 ;
182 [label=<Attack &le; 117.5<br/>gini = 0.446<br/>samples = 11<br/>value = [0, 1, 1, 0, 0, 1, 0, 0, 0, 0, 0, 0, 8, 0, 0<br/>0, 0, 0]<br/>class = Normal>, fillcolor="#8139e5b3"] ;
176 -> 182 ;
183 [label=<Sp. Defense &le; 68.0<br/>gini = 0.34<br/>samples = 10<br/>value = [0, 0, 1, 0, 0, 1, 0, 0, 0, 0, 0, 0, 8, 0, 0<br/>0, 0, 0]<br/>class = Normal>, fillcolor="#8139e5c6"] ;
182 -> 183 ;
184 [label=<Sp. Attack &le; 52.5<br/>gini = 0.219<br/>samples = 8<br/>value = [0, 0, 1, 0, 0, 0, 0, 0, 0, 0, 0, 0, 7, 0, 0<br/>0, 0, 0]<br/>class = Normal>, fillcolor="#8139e5db"] ;
183 -> 184 ;
185 [label=<Defense &le; 63.5<br/>gini = 0.444<br/>samples = 3<br/>value = [0, 0, 1, 0, 0, 0, 0, 0, 0, 0, 0, 0, 2, 0, 0<br/>0, 0, 0]<br/>class = Normal>, fillcolor="#8139e57f"] ;
184 -> 185 ;
186 [label=<gini = 0.0<br/>samples = 2<br/>value = [0, 0, 0, 0, 0, 0, 0, 0, 0, 0, 0, 0, 2, 0, 0<br/>0, 0, 0]<br/>class = Normal>, fillcolor="#8139e5ff"] ;
185 -> 186 ;
187 [label=<gini = 0.0<br/>samples = 1<br/>value = [0, 0, 1, 0, 0, 0, 0, 0, 0, 0, 0, 0, 0, 0, 0<br/>0, 0, 0]<br/>class = Dragon>, fillcolor="#d7e539ff"] ;
185 -> 187 ;
188 [label=<gini = 0.0<br/>samples = 5<br/>value = [0, 0, 0, 0, 0, 0, 0, 0, 0, 0, 0, 0, 5, 0, 0<br/>0, 0, 0]<br/>class = Normal>, fillcolor="#8139e5ff"] ;
184 -> 188 ;
189 [label=<Sp. Attack &le; 55.0<br/>gini = 0.5<br/>samples = 2<br/>value = [0, 0, 0, 0, 0, 1, 0, 0, 0, 0, 0, 0, 1, 0, 0<br/>0, 0, 0]<br/>class = Fighting>, fillcolor="#39e54700"] ;
183 -> 189 ;
190 [label=<gini = 0.0<br/>samples = 1<br/>value = [0, 0, 0, 0, 0, 0, 0, 0, 0, 0, 0, 0, 1, 0, 0<br/>0, 0, 0]<br/>class = Normal>, fillcolor="#8139e5ff"] ;
189 -> 190 ;
191 [label=<gini = 0.0<br/>samples = 1<br/>value = [0, 0, 0, 0, 0, 1, 0, 0, 0, 0, 0, 0, 0, 0, 0<br/>0, 0, 0]<br/>class = Fighting>, fillcolor="#39e547ff"] ;
189 -> 191 ;
192 [label=<gini = 0.0<br/>samples = 1<br/>value = [0, 1, 0, 0, 0, 0, 0, 0, 0, 0, 0, 0, 0, 0, 0<br/>0, 0, 0]<br/>class = Dark>, fillcolor="#e5ba39ff"] ;
182 -> 192 ;
193 [label=<Sp. Defense &le; 64.0<br/>gini = 0.892<br/>samples = 52<br/>value = [12, 2, 3, 1, 0, 3, 0, 0, 4, 4, 2, 1, 3, 3<br/>0, 6, 3, 5]<br/>class = Bug>, fillcolor="#e5813921"] ;
37 -> 193 ;
194 [label=<HP &le; 59.5<br/>gini = 0.891<br/>samples = 30<br/>value = [2, 1, 2, 0, 0, 0, 0, 0, 4, 3, 2, 1, 0, 3, 0<br/>5, 3, 4]<br/>class = Rock>, fillcolor="#e5399d0a"] ;
193 -> 194 ;
195 [label=<Attack &le; 79.0<br/>gini = 0.845<br/>samples = 20<br/>value = [1, 1, 0, 0, 0, 0, 0, 0, 4, 0, 1, 1, 0, 2, 0<br/>5, 3, 2]<br/>class = Rock>, fillcolor="#e5399d10"] ;
194 -> 195 ;
196 [label=<Defense &le; 82.5<br/>gini = 0.837<br/>samples = 14<br/>value = [1, 0, 0, 0, 0, 0, 0, 0, 4, 0, 1, 1, 0, 2, 0<br/>1, 2, 2]<br/>class = Ghost>, fillcolor="#39d7e52a"] ;
195 -> 196 ;
197 [label=<Attack &le; 60.5<br/>gini = 0.571<br/>samples = 7<br/>value = [0, 0, 0, 0, 0, 0, 0, 0, 4, 0, 0, 0, 0, 0, 0<br/>1, 2, 0]<br/>class = Ghost>, fillcolor="#39d7e566"] ;
196 -> 197 ;
198 [label=<Defense &le; 68.5<br/>gini = 0.444<br/>samples = 3<br/>value = [0, 0, 0, 0, 0, 0, 0, 0, 0, 0, 0, 0, 0, 0, 0<br/>1, 2, 0]<br/>class = Steel>, fillcolor="#e539647f"] ;
197 -> 198 ;
199 [label=<gini = 0.0<br/>samples = 1<br/>value = [0, 0, 0, 0, 0, 0, 0, 0, 0, 0, 0, 0, 0, 0, 0<br/>1, 0, 0]<br/>class = Rock>, fillcolor="#e5399dff"] ;
198 -> 199 ;
200 [label=<gini = 0.0<br/>samples = 2<br/>value = [0, 0, 0, 0, 0, 0, 0, 0, 0, 0, 0, 0, 0, 0, 0<br/>0, 2, 0]<br/>class = Steel>, fillcolor="#e53964ff"] ;
198 -> 200 ;
201 [label=<gini = 0.0<br/>samples = 4<br/>value = [0, 0, 0, 0, 0, 0, 0, 0, 4, 0, 0, 0, 0, 0, 0<br/>0, 0, 0]<br/>class = Ghost>, fillcolor="#39d7e5ff"] ;
197 -> 201 ;
202 [label=<Defense &le; 97.5<br/>gini = 0.776<br/>samples = 7<br/>value = [1, 0, 0, 0, 0, 0, 0, 0, 0, 0, 1, 1, 0, 2, 0<br/>0, 0, 2]<br/>class = Poison>, fillcolor="#ba39e500"] ;
196 -> 202 ;
203 [label=<Sp. Defense &le; 40.0<br/>gini = 0.72<br/>samples = 5<br/>value = [1, 0, 0, 0, 0, 0, 0, 0, 0, 0, 1, 1, 0, 2, 0<br/>0, 0, 0]<br/>class = Poison>, fillcolor="#ba39e540"] ;
202 -> 203 ;
204 [label=<Sp. Attack &le; 25.0<br/>gini = 0.667<br/>samples = 3<br/>value = [1, 0, 0, 0, 0, 0, 0, 0, 0, 0, 1, 1, 0, 0, 0<br/>0, 0, 0]<br/>class = Bug>, fillcolor="#e5813900"] ;
203 -> 204 ;
205 [label=<gini = 0.0<br/>samples = 1<br/>value = [0, 0, 0, 0, 0, 0, 0, 0, 0, 0, 1, 0, 0, 0, 0<br/>0, 0, 0]<br/>class = Ground>, fillcolor="#3964e5ff"] ;
204 -> 205 ;
206 [label=<Attack &le; 57.0<br/>gini = 0.5<br/>samples = 2<br/>value = [1, 0, 0, 0, 0, 0, 0, 0, 0, 0, 0, 1, 0, 0, 0<br/>0, 0, 0]<br/>class = Bug>, fillcolor="#e5813900"] ;
204 -> 206 ;
207 [label=<gini = 0.0<br/>samples = 1<br/>value = [1, 0, 0, 0, 0, 0, 0, 0, 0, 0, 0, 0, 0, 0, 0<br/>0, 0, 0]<br/>class = Bug>, fillcolor="#e58139ff"] ;
206 -> 207 ;
208 [label=<gini = 0.0<br/>samples = 1<br/>value = [0, 0, 0, 0, 0, 0, 0, 0, 0, 0, 0, 1, 0, 0, 0<br/>0, 0, 0]<br/>class = Ice>, fillcolor="#4739e5ff"] ;
206 -> 208 ;
209 [label=<gini = 0.0<br/>samples = 2<br/>value = [0, 0, 0, 0, 0, 0, 0, 0, 0, 0, 0, 0, 0, 2, 0<br/>0, 0, 0]<br/>class = Poison>, fillcolor="#ba39e5ff"] ;
203 -> 209 ;
210 [label=<gini = 0.0<br/>samples = 2<br/>value = [0, 0, 0, 0, 0, 0, 0, 0, 0, 0, 0, 0, 0, 0, 0<br/>0, 0, 2]<br/>class = Water>, fillcolor="#e54739ff"] ;
202 -> 210 ;
211 [label=<Speed &le; 57.5<br/>gini = 0.5<br/>samples = 6<br/>value = [0, 1, 0, 0, 0, 0, 0, 0, 0, 0, 0, 0, 0, 0, 0<br/>4, 1, 0]<br/>class = Rock>, fillcolor="#e5399d99"] ;
195 -> 211 ;
212 [label=<Defense &le; 97.5<br/>gini = 0.32<br/>samples = 5<br/>value = [0, 0, 0, 0, 0, 0, 0, 0, 0, 0, 0, 0, 0, 0, 0<br/>4, 1, 0]<br/>class = Rock>, fillcolor="#e5399dbf"] ;
211 -> 212 ;
213 [label=<gini = 0.0<br/>samples = 3<br/>value = [0, 0, 0, 0, 0, 0, 0, 0, 0, 0, 0, 0, 0, 0, 0<br/>3, 0, 0]<br/>class = Rock>, fillcolor="#e5399dff"] ;
212 -> 213 ;
214 [label=<HP &le; 42.5<br/>gini = 0.5<br/>samples = 2<br/>value = [0, 0, 0, 0, 0, 0, 0, 0, 0, 0, 0, 0, 0, 0, 0<br/>1, 1, 0]<br/>class = Rock>, fillcolor="#e5399d00"] ;
212 -> 214 ;
215 [label=<gini = 0.0<br/>samples = 1<br/>value = [0, 0, 0, 0, 0, 0, 0, 0, 0, 0, 0, 0, 0, 0, 0<br/>1, 0, 0]<br/>class = Rock>, fillcolor="#e5399dff"] ;
214 -> 215 ;
216 [label=<gini = 0.0<br/>samples = 1<br/>value = [0, 0, 0, 0, 0, 0, 0, 0, 0, 0, 0, 0, 0, 0, 0<br/>0, 1, 0]<br/>class = Steel>, fillcolor="#e53964ff"] ;
214 -> 216 ;
217 [label=<gini = 0.0<br/>samples = 1<br/>value = [0, 1, 0, 0, 0, 0, 0, 0, 0, 0, 0, 0, 0, 0, 0<br/>0, 0, 0]<br/>class = Dark>, fillcolor="#e5ba39ff"] ;
211 -> 217 ;
218 [label=<HP &le; 63.0<br/>gini = 0.8<br/>samples = 10<br/>value = [1, 0, 2, 0, 0, 0, 0, 0, 0, 3, 1, 0, 0, 1, 0<br/>0, 0, 2]<br/>class = Grass>, fillcolor="#399de520"] ;
194 -> 218 ;
219 [label=<gini = 0.0<br/>samples = 3<br/>value = [0, 0, 0, 0, 0, 0, 0, 0, 0, 3, 0, 0, 0, 0, 0<br/>0, 0, 0]<br/>class = Grass>, fillcolor="#399de5ff"] ;
218 -> 219 ;
220 [label=<Sp. Defense &le; 52.5<br/>gini = 0.776<br/>samples = 7<br/>value = [1, 0, 2, 0, 0, 0, 0, 0, 0, 0, 1, 0, 0, 1, 0<br/>0, 0, 2]<br/>class = Dragon>, fillcolor="#d7e53900"] ;
218 -> 220 ;
221 [label=<Sp. Attack &le; 39.0<br/>gini = 0.444<br/>samples = 3<br/>value = [0, 0, 2, 0, 0, 0, 0, 0, 0, 0, 1, 0, 0, 0, 0<br/>0, 0, 0]<br/>class = Dragon>, fillcolor="#d7e5397f"] ;
220 -> 221 ;
222 [label=<gini = 0.0<br/>samples = 1<br/>value = [0, 0, 0, 0, 0, 0, 0, 0, 0, 0, 1, 0, 0, 0, 0<br/>0, 0, 0]<br/>class = Ground>, fillcolor="#3964e5ff"] ;
221 -> 222 ;
223 [label=<gini = 0.0<br/>samples = 2<br/>value = [0, 0, 2, 0, 0, 0, 0, 0, 0, 0, 0, 0, 0, 0, 0<br/>0, 0, 0]<br/>class = Dragon>, fillcolor="#d7e539ff"] ;
221 -> 223 ;
224 [label=<HP &le; 67.5<br/>gini = 0.625<br/>samples = 4<br/>value = [1, 0, 0, 0, 0, 0, 0, 0, 0, 0, 0, 0, 0, 1, 0<br/>0, 0, 2]<br/>class = Water>, fillcolor="#e5473955"] ;
220 -> 224 ;
225 [label=<gini = 0.0<br/>samples = 2<br/>value = [0, 0, 0, 0, 0, 0, 0, 0, 0, 0, 0, 0, 0, 0, 0<br/>0, 0, 2]<br/>class = Water>, fillcolor="#e54739ff"] ;
224 -> 225 ;
226 [label=<Attack &le; 76.0<br/>gini = 0.5<br/>samples = 2<br/>value = [1, 0, 0, 0, 0, 0, 0, 0, 0, 0, 0, 0, 0, 1, 0<br/>0, 0, 0]<br/>class = Bug>, fillcolor="#e5813900"] ;
224 -> 226 ;
227 [label=<gini = 0.0<br/>samples = 1<br/>value = [0, 0, 0, 0, 0, 0, 0, 0, 0, 0, 0, 0, 0, 1, 0<br/>0, 0, 0]<br/>class = Poison>, fillcolor="#ba39e5ff"] ;
226 -> 227 ;
228 [label=<gini = 0.0<br/>samples = 1<br/>value = [1, 0, 0, 0, 0, 0, 0, 0, 0, 0, 0, 0, 0, 0, 0<br/>0, 0, 0]<br/>class = Bug>, fillcolor="#e58139ff"] ;
226 -> 228 ;
229 [label=<Defense &le; 79.5<br/>gini = 0.744<br/>samples = 22<br/>value = [10, 1, 1, 1, 0, 3, 0, 0, 0, 1, 0, 0, 3, 0<br/>0, 1, 0, 1]<br/>class = Bug>, fillcolor="#e581395e"] ;
193 -> 229 ;
230 [label=<Defense &le; 72.5<br/>gini = 0.84<br/>samples = 10<br/>value = [1, 1, 0, 1, 0, 3, 0, 0, 0, 1, 0, 0, 1, 0, 0<br/>1, 0, 1]<br/>class = Fighting>, fillcolor="#39e54739"] ;
229 -> 230 ;
231 [label=<Speed &le; 44.0<br/>gini = 0.8<br/>samples = 5<br/>value = [1, 1, 0, 1, 0, 0, 0, 0, 0, 0, 0, 0, 1, 0, 0<br/>0, 0, 1]<br/>class = Bug>, fillcolor="#e5813900"] ;
230 -> 231 ;
232 [label=<gini = 0.0<br/>samples = 1<br/>value = [0, 0, 0, 0, 0, 0, 0, 0, 0, 0, 0, 0, 1, 0, 0<br/>0, 0, 0]<br/>class = Normal>, fillcolor="#8139e5ff"] ;
231 -> 232 ;
233 [label=<HP &le; 55.0<br/>gini = 0.75<br/>samples = 4<br/>value = [1, 1, 0, 1, 0, 0, 0, 0, 0, 0, 0, 0, 0, 0, 0<br/>0, 0, 1]<br/>class = Bug>, fillcolor="#e5813900"] ;
231 -> 233 ;
234 [label=<gini = 0.0<br/>samples = 1<br/>value = [0, 1, 0, 0, 0, 0, 0, 0, 0, 0, 0, 0, 0, 0, 0<br/>0, 0, 0]<br/>class = Dark>, fillcolor="#e5ba39ff"] ;
233 -> 234 ;
235 [label=<Sp. Attack &le; 47.5<br/>gini = 0.667<br/>samples = 3<br/>value = [1, 0, 0, 1, 0, 0, 0, 0, 0, 0, 0, 0, 0, 0, 0<br/>0, 0, 1]<br/>class = Bug>, fillcolor="#e5813900"] ;
233 -> 235 ;
236 [label=<gini = 0.0<br/>samples = 1<br/>value = [0, 0, 0, 1, 0, 0, 0, 0, 0, 0, 0, 0, 0, 0, 0<br/>0, 0, 0]<br/>class = Electric>, fillcolor="#9de539ff"] ;
235 -> 236 ;
237 [label=<Sp. Defense &le; 80.0<br/>gini = 0.5<br/>samples = 2<br/>value = [1, 0, 0, 0, 0, 0, 0, 0, 0, 0, 0, 0, 0, 0, 0<br/>0, 0, 1]<br/>class = Bug>, fillcolor="#e5813900"] ;
235 -> 237 ;
238 [label=<gini = 0.0<br/>samples = 1<br/>value = [0, 0, 0, 0, 0, 0, 0, 0, 0, 0, 0, 0, 0, 0, 0<br/>0, 0, 1]<br/>class = Water>, fillcolor="#e54739ff"] ;
237 -> 238 ;
239 [label=<gini = 0.0<br/>samples = 1<br/>value = [1, 0, 0, 0, 0, 0, 0, 0, 0, 0, 0, 0, 0, 0, 0<br/>0, 0, 0]<br/>class = Bug>, fillcolor="#e58139ff"] ;
237 -> 239 ;
240 [label=<Attack &le; 50.5<br/>gini = 0.56<br/>samples = 5<br/>value = [0, 0, 0, 0, 0, 3, 0, 0, 0, 1, 0, 0, 0, 0, 0<br/>1, 0, 0]<br/>class = Fighting>, fillcolor="#39e5477f"] ;
230 -> 240 ;
241 [label=<gini = 0.0<br/>samples = 1<br/>value = [0, 0, 0, 0, 0, 0, 0, 0, 0, 0, 0, 0, 0, 0, 0<br/>1, 0, 0]<br/>class = Rock>, fillcolor="#e5399dff"] ;
240 -> 241 ;
242 [label=<Sp. Attack &le; 47.5<br/>gini = 0.375<br/>samples = 4<br/>value = [0, 0, 0, 0, 0, 3, 0, 0, 0, 1, 0, 0, 0, 0, 0<br/>0, 0, 0]<br/>class = Fighting>, fillcolor="#39e547aa"] ;
240 -> 242 ;
243 [label=<gini = 0.0<br/>samples = 2<br/>value = [0, 0, 0, 0, 0, 2, 0, 0, 0, 0, 0, 0, 0, 0, 0<br/>0, 0, 0]<br/>class = Fighting>, fillcolor="#39e547ff"] ;
242 -> 243 ;
244 [label=<Speed &le; 81.5<br/>gini = 0.5<br/>samples = 2<br/>value = [0, 0, 0, 0, 0, 1, 0, 0, 0, 1, 0, 0, 0, 0, 0<br/>0, 0, 0]<br/>class = Fighting>, fillcolor="#39e54700"] ;
242 -> 244 ;
245 [label=<gini = 0.0<br/>samples = 1<br/>value = [0, 0, 0, 0, 0, 1, 0, 0, 0, 0, 0, 0, 0, 0, 0<br/>0, 0, 0]<br/>class = Fighting>, fillcolor="#39e547ff"] ;
244 -> 245 ;
246 [label=<gini = 0.0<br/>samples = 1<br/>value = [0, 0, 0, 0, 0, 0, 0, 0, 0, 1, 0, 0, 0, 0, 0<br/>0, 0, 0]<br/>class = Grass>, fillcolor="#399de5ff"] ;
244 -> 246 ;
247 [label=<HP &le; 72.5<br/>gini = 0.403<br/>samples = 12<br/>value = [9, 0, 1, 0, 0, 0, 0, 0, 0, 0, 0, 0, 2, 0, 0<br/>0, 0, 0]<br/>class = Bug>, fillcolor="#e58139b2"] ;
229 -> 247 ;
248 [label=<Sp. Defense &le; 90.5<br/>gini = 0.18<br/>samples = 10<br/>value = [9, 0, 0, 0, 0, 0, 0, 0, 0, 0, 0, 0, 1, 0, 0<br/>0, 0, 0]<br/>class = Bug>, fillcolor="#e58139e3"] ;
247 -> 248 ;
249 [label=<gini = 0.0<br/>samples = 8<br/>value = [8, 0, 0, 0, 0, 0, 0, 0, 0, 0, 0, 0, 0, 0, 0<br/>0, 0, 0]<br/>class = Bug>, fillcolor="#e58139ff"] ;
248 -> 249 ;
250 [label=<Defense &le; 94.5<br/>gini = 0.5<br/>samples = 2<br/>value = [1, 0, 0, 0, 0, 0, 0, 0, 0, 0, 0, 0, 1, 0, 0<br/>0, 0, 0]<br/>class = Bug>, fillcolor="#e5813900"] ;
248 -> 250 ;
251 [label=<gini = 0.0<br/>samples = 1<br/>value = [0, 0, 0, 0, 0, 0, 0, 0, 0, 0, 0, 0, 1, 0, 0<br/>0, 0, 0]<br/>class = Normal>, fillcolor="#8139e5ff"] ;
250 -> 251 ;
252 [label=<gini = 0.0<br/>samples = 1<br/>value = [1, 0, 0, 0, 0, 0, 0, 0, 0, 0, 0, 0, 0, 0, 0<br/>0, 0, 0]<br/>class = Bug>, fillcolor="#e58139ff"] ;
250 -> 252 ;
253 [label=<Speed &le; 103.5<br/>gini = 0.5<br/>samples = 2<br/>value = [0, 0, 1, 0, 0, 0, 0, 0, 0, 0, 0, 0, 1, 0, 0<br/>0, 0, 0]<br/>class = Dragon>, fillcolor="#d7e53900"] ;
247 -> 253 ;
254 [label=<gini = 0.0<br/>samples = 1<br/>value = [0, 0, 1, 0, 0, 0, 0, 0, 0, 0, 0, 0, 0, 0, 0<br/>0, 0, 0]<br/>class = Dragon>, fillcolor="#d7e539ff"] ;
253 -> 254 ;
255 [label=<gini = 0.0<br/>samples = 1<br/>value = [0, 0, 0, 0, 0, 0, 0, 0, 0, 0, 0, 0, 1, 0, 0<br/>0, 0, 0]<br/>class = Normal>, fillcolor="#8139e5ff"] ;
253 -> 255 ;
256 [label=<Attack &le; 123.5<br/>gini = 0.724<br/>samples = 36<br/>value = [1, 1, 0, 0, 1, 3, 1, 0, 1, 0, 3, 1, 18, 2<br/>1, 1, 0, 2]<br/>class = Normal>, fillcolor="#8139e574"] ;
2 -> 256 ;
257 [label=<Sp. Defense &le; 52.5<br/>gini = 0.622<br/>samples = 30<br/>value = [0, 1, 0, 0, 1, 2, 0, 0, 1, 0, 1, 1, 18, 2<br/>1, 1, 0, 1]<br/>class = Normal>, fillcolor="#8139e592"] ;
256 -> 257 ;
258 [label=<Speed &le; 21.5<br/>gini = 0.816<br/>samples = 7<br/>value = [0, 0, 0, 0, 0, 0, 0, 0, 1, 0, 1, 0, 2, 1, 1<br/>0, 0, 1]<br/>class = Normal>, fillcolor="#8139e52a"] ;
257 -> 258 ;
259 [label=<gini = 0.0<br/>samples = 2<br/>value = [0, 0, 0, 0, 0, 0, 0, 0, 0, 0, 0, 0, 2, 0, 0<br/>0, 0, 0]<br/>class = Normal>, fillcolor="#8139e5ff"] ;
258 -> 259 ;
260 [label=<Speed &le; 24.0<br/>gini = 0.8<br/>samples = 5<br/>value = [0, 0, 0, 0, 0, 0, 0, 0, 1, 0, 1, 0, 0, 1, 1<br/>0, 0, 1]<br/>class = Ghost>, fillcolor="#39d7e500"] ;
258 -> 260 ;
261 [label=<gini = 0.0<br/>samples = 1<br/>value = [0, 0, 0, 0, 0, 0, 0, 0, 0, 0, 0, 0, 0, 0, 1<br/>0, 0, 0]<br/>class = Psychic>, fillcolor="#e539d7ff"] ;
260 -> 261 ;
262 [label=<Sp. Attack &le; 50.0<br/>gini = 0.75<br/>samples = 4<br/>value = [0, 0, 0, 0, 0, 0, 0, 0, 1, 0, 1, 0, 0, 1, 0<br/>0, 0, 1]<br/>class = Ghost>, fillcolor="#39d7e500"] ;
260 -> 262 ;
263 [label=<Sp. Defense &le; 42.5<br/>gini = 0.667<br/>samples = 3<br/>value = [0, 0, 0, 0, 0, 0, 0, 0, 0, 0, 1, 0, 0, 1, 0<br/>0, 0, 1]<br/>class = Ground>, fillcolor="#3964e500"] ;
262 -> 263 ;
264 [label=<gini = 0.0<br/>samples = 1<br/>value = [0, 0, 0, 0, 0, 0, 0, 0, 0, 0, 1, 0, 0, 0, 0<br/>0, 0, 0]<br/>class = Ground>, fillcolor="#3964e5ff"] ;
263 -> 264 ;
265 [label=<Defense &le; 65.0<br/>gini = 0.5<br/>samples = 2<br/>value = [0, 0, 0, 0, 0, 0, 0, 0, 0, 0, 0, 0, 0, 1, 0<br/>0, 0, 1]<br/>class = Poison>, fillcolor="#ba39e500"] ;
263 -> 265 ;
266 [label=<gini = 0.0<br/>samples = 1<br/>value = [0, 0, 0, 0, 0, 0, 0, 0, 0, 0, 0, 0, 0, 1, 0<br/>0, 0, 0]<br/>class = Poison>, fillcolor="#ba39e5ff"] ;
265 -> 266 ;
267 [label=<gini = 0.0<br/>samples = 1<br/>value = [0, 0, 0, 0, 0, 0, 0, 0, 0, 0, 0, 0, 0, 0, 0<br/>0, 0, 1]<br/>class = Water>, fillcolor="#e54739ff"] ;
265 -> 267 ;
268 [label=<gini = 0.0<br/>samples = 1<br/>value = [0, 0, 0, 0, 0, 0, 0, 0, 1, 0, 0, 0, 0, 0, 0<br/>0, 0, 0]<br/>class = Ghost>, fillcolor="#39d7e5ff"] ;
262 -> 268 ;
269 [label=<Attack &le; 90.0<br/>gini = 0.499<br/>samples = 23<br/>value = [0, 1, 0, 0, 1, 2, 0, 0, 0, 0, 0, 1, 16, 1<br/>0, 1, 0, 0]<br/>class = Normal>, fillcolor="#8139e5aa"] ;
257 -> 269 ;
270 [label=<Defense &le; 95.5<br/>gini = 0.153<br/>samples = 12<br/>value = [0, 1, 0, 0, 0, 0, 0, 0, 0, 0, 0, 0, 11, 0<br/>0, 0, 0, 0]<br/>class = Normal>, fillcolor="#8139e5e8"] ;
269 -> 270 ;
271 [label=<gini = 0.0<br/>samples = 10<br/>value = [0, 0, 0, 0, 0, 0, 0, 0, 0, 0, 0, 0, 10, 0<br/>0, 0, 0, 0]<br/>class = Normal>, fillcolor="#8139e5ff"] ;
270 -> 271 ;
272 [label=<Speed &le; 90.0<br/>gini = 0.5<br/>samples = 2<br/>value = [0, 1, 0, 0, 0, 0, 0, 0, 0, 0, 0, 0, 1, 0, 0<br/>0, 0, 0]<br/>class = Dark>, fillcolor="#e5ba3900"] ;
270 -> 272 ;
273 [label=<gini = 0.0<br/>samples = 1<br/>value = [0, 1, 0, 0, 0, 0, 0, 0, 0, 0, 0, 0, 0, 0, 0<br/>0, 0, 0]<br/>class = Dark>, fillcolor="#e5ba39ff"] ;
272 -> 273 ;
274 [label=<gini = 0.0<br/>samples = 1<br/>value = [0, 0, 0, 0, 0, 0, 0, 0, 0, 0, 0, 0, 1, 0, 0<br/>0, 0, 0]<br/>class = Normal>, fillcolor="#8139e5ff"] ;
272 -> 274 ;
275 [label=<Speed &le; 52.5<br/>gini = 0.727<br/>samples = 11<br/>value = [0, 0, 0, 0, 1, 2, 0, 0, 0, 0, 0, 1, 5, 1, 0<br/>1, 0, 0]<br/>class = Normal>, fillcolor="#8139e555"] ;
269 -> 275 ;
276 [label=<Sp. Attack &le; 50.0<br/>gini = 0.625<br/>samples = 4<br/>value = [0, 0, 0, 0, 1, 2, 0, 0, 0, 0, 0, 1, 0, 0, 0<br/>0, 0, 0]<br/>class = Fighting>, fillcolor="#39e54755"] ;
275 -> 276 ;
277 [label=<gini = 0.0<br/>samples = 2<br/>value = [0, 0, 0, 0, 0, 2, 0, 0, 0, 0, 0, 0, 0, 0, 0<br/>0, 0, 0]<br/>class = Fighting>, fillcolor="#39e547ff"] ;
276 -> 277 ;
278 [label=<Defense &le; 77.5<br/>gini = 0.5<br/>samples = 2<br/>value = [0, 0, 0, 0, 1, 0, 0, 0, 0, 0, 0, 1, 0, 0, 0<br/>0, 0, 0]<br/>class = Fairy>, fillcolor="#64e53900"] ;
276 -> 278 ;
279 [label=<gini = 0.0<br/>samples = 1<br/>value = [0, 0, 0, 0, 1, 0, 0, 0, 0, 0, 0, 0, 0, 0, 0<br/>0, 0, 0]<br/>class = Fairy>, fillcolor="#64e539ff"] ;
278 -> 279 ;
280 [label=<gini = 0.0<br/>samples = 1<br/>value = [0, 0, 0, 0, 0, 0, 0, 0, 0, 0, 0, 1, 0, 0, 0<br/>0, 0, 0]<br/>class = Ice>, fillcolor="#4739e5ff"] ;
278 -> 280 ;
281 [label=<Defense &le; 67.5<br/>gini = 0.449<br/>samples = 7<br/>value = [0, 0, 0, 0, 0, 0, 0, 0, 0, 0, 0, 0, 5, 1, 0<br/>1, 0, 0]<br/>class = Normal>, fillcolor="#8139e5aa"] ;
275 -> 281 ;
282 [label=<gini = 0.0<br/>samples = 1<br/>value = [0, 0, 0, 0, 0, 0, 0, 0, 0, 0, 0, 0, 0, 0, 0<br/>1, 0, 0]<br/>class = Rock>, fillcolor="#e5399dff"] ;
281 -> 282 ;
283 [label=<Attack &le; 97.5<br/>gini = 0.278<br/>samples = 6<br/>value = [0, 0, 0, 0, 0, 0, 0, 0, 0, 0, 0, 0, 5, 1, 0<br/>0, 0, 0]<br/>class = Normal>, fillcolor="#8139e5cc"] ;
281 -> 283 ;
284 [label=<gini = 0.0<br/>samples = 1<br/>value = [0, 0, 0, 0, 0, 0, 0, 0, 0, 0, 0, 0, 0, 1, 0<br/>0, 0, 0]<br/>class = Poison>, fillcolor="#ba39e5ff"] ;
283 -> 284 ;
285 [label=<gini = 0.0<br/>samples = 5<br/>value = [0, 0, 0, 0, 0, 0, 0, 0, 0, 0, 0, 0, 5, 0, 0<br/>0, 0, 0]<br/>class = Normal>, fillcolor="#8139e5ff"] ;
283 -> 285 ;
286 [label=<Sp. Attack &le; 45.0<br/>gini = 0.778<br/>samples = 6<br/>value = [1, 0, 0, 0, 0, 1, 1, 0, 0, 0, 2, 0, 0, 0, 0<br/>0, 0, 1]<br/>class = Ground>, fillcolor="#3964e533"] ;
256 -> 286 ;
287 [label=<Defense &le; 65.0<br/>gini = 0.5<br/>samples = 2<br/>value = [1, 0, 0, 0, 0, 0, 1, 0, 0, 0, 0, 0, 0, 0, 0<br/>0, 0, 0]<br/>class = Bug>, fillcolor="#e5813900"] ;
286 -> 287 ;
288 [label=<gini = 0.0<br/>samples = 1<br/>value = [0, 0, 0, 0, 0, 0, 1, 0, 0, 0, 0, 0, 0, 0, 0<br/>0, 0, 0]<br/>class = Fire>, fillcolor="#39e581ff"] ;
287 -> 288 ;
289 [label=<gini = 0.0<br/>samples = 1<br/>value = [1, 0, 0, 0, 0, 0, 0, 0, 0, 0, 0, 0, 0, 0, 0<br/>0, 0, 0]<br/>class = Bug>, fillcolor="#e58139ff"] ;
287 -> 289 ;
290 [label=<Sp. Defense &le; 90.0<br/>gini = 0.625<br/>samples = 4<br/>value = [0, 0, 0, 0, 0, 1, 0, 0, 0, 0, 2, 0, 0, 0, 0<br/>0, 0, 1]<br/>class = Ground>, fillcolor="#3964e555"] ;
286 -> 290 ;
291 [label=<Attack &le; 137.5<br/>gini = 0.444<br/>samples = 3<br/>value = [0, 0, 0, 0, 0, 1, 0, 0, 0, 0, 2, 0, 0, 0, 0<br/>0, 0, 0]<br/>class = Ground>, fillcolor="#3964e57f"] ;
290 -> 291 ;
292 [label=<gini = 0.0<br/>samples = 2<br/>value = [0, 0, 0, 0, 0, 0, 0, 0, 0, 0, 2, 0, 0, 0, 0<br/>0, 0, 0]<br/>class = Ground>, fillcolor="#3964e5ff"] ;
291 -> 292 ;
293 [label=<gini = 0.0<br/>samples = 1<br/>value = [0, 0, 0, 0, 0, 1, 0, 0, 0, 0, 0, 0, 0, 0, 0<br/>0, 0, 0]<br/>class = Fighting>, fillcolor="#39e547ff"] ;
291 -> 293 ;
294 [label=<gini = 0.0<br/>samples = 1<br/>value = [0, 0, 0, 0, 0, 0, 0, 0, 0, 0, 0, 0, 0, 0, 0<br/>0, 0, 1]<br/>class = Water>, fillcolor="#e54739ff"] ;
290 -> 294 ;
295 [label=<Attack &le; 61.0<br/>gini = 0.831<br/>samples = 27<br/>value = [1, 1, 0, 0, 0, 0, 0, 0, 4, 2, 5, 1, 0, 1, 0<br/>8, 3, 1]<br/>class = Rock>, fillcolor="#e5399d23"] ;
1 -> 295 ;
296 [label=<HP &le; 25.0<br/>gini = 0.449<br/>samples = 7<br/>value = [1, 0, 0, 0, 0, 0, 0, 0, 0, 0, 0, 0, 0, 0, 0<br/>5, 1, 0]<br/>class = Rock>, fillcolor="#e5399daa"] ;
295 -> 296 ;
297 [label=<gini = 0.0<br/>samples = 1<br/>value = [1, 0, 0, 0, 0, 0, 0, 0, 0, 0, 0, 0, 0, 0, 0<br/>0, 0, 0]<br/>class = Bug>, fillcolor="#e58139ff"] ;
296 -> 297 ;
298 [label=<HP &le; 55.0<br/>gini = 0.278<br/>samples = 6<br/>value = [0, 0, 0, 0, 0, 0, 0, 0, 0, 0, 0, 0, 0, 0, 0<br/>5, 1, 0]<br/>class = Rock>, fillcolor="#e5399dcc"] ;
296 -> 298 ;
299 [label=<gini = 0.0<br/>samples = 4<br/>value = [0, 0, 0, 0, 0, 0, 0, 0, 0, 0, 0, 0, 0, 0, 0<br/>4, 0, 0]<br/>class = Rock>, fillcolor="#e5399dff"] ;
298 -> 299 ;
300 [label=<Attack &le; 51.0<br/>gini = 0.5<br/>samples = 2<br/>value = [0, 0, 0, 0, 0, 0, 0, 0, 0, 0, 0, 0, 0, 0, 0<br/>1, 1, 0]<br/>class = Rock>, fillcolor="#e5399d00"] ;
298 -> 300 ;
301 [label=<gini = 0.0<br/>samples = 1<br/>value = [0, 0, 0, 0, 0, 0, 0, 0, 0, 0, 0, 0, 0, 0, 0<br/>0, 1, 0]<br/>class = Steel>, fillcolor="#e53964ff"] ;
300 -> 301 ;
302 [label=<gini = 0.0<br/>samples = 1<br/>value = [0, 0, 0, 0, 0, 0, 0, 0, 0, 0, 0, 0, 0, 0, 0<br/>1, 0, 0]<br/>class = Rock>, fillcolor="#e5399dff"] ;
300 -> 302 ;
303 [label=<Defense &le; 135.5<br/>gini = 0.845<br/>samples = 20<br/>value = [0, 1, 0, 0, 0, 0, 0, 0, 4, 2, 5, 1, 0, 1, 0<br/>3, 2, 1]<br/>class = Ground>, fillcolor="#3964e510"] ;
295 -> 303 ;
304 [label=<HP &le; 87.5<br/>gini = 0.803<br/>samples = 17<br/>value = [0, 1, 0, 0, 0, 0, 0, 0, 4, 2, 5, 0, 0, 1, 0<br/>3, 0, 1]<br/>class = Ground>, fillcolor="#3964e514"] ;
303 -> 304 ;
305 [label=<Defense &le; 118.5<br/>gini = 0.816<br/>samples = 14<br/>value = [0, 1, 0, 0, 0, 0, 0, 0, 4, 2, 2, 0, 0, 1, 0<br/>3, 0, 1]<br/>class = Ghost>, fillcolor="#39d7e517"] ;
304 -> 305 ;
306 [label=<Speed &le; 40.0<br/>gini = 0.776<br/>samples = 7<br/>value = [0, 1, 0, 0, 0, 0, 0, 0, 0, 0, 2, 0, 0, 1, 0<br/>2, 0, 1]<br/>class = Ground>, fillcolor="#3964e500"] ;
305 -> 306 ;
307 [label=<gini = 0.0<br/>samples = 2<br/>value = [0, 0, 0, 0, 0, 0, 0, 0, 0, 0, 0, 0, 0, 0, 0<br/>2, 0, 0]<br/>class = Rock>, fillcolor="#e5399dff"] ;
306 -> 307 ;
308 [label=<Defense &le; 112.5<br/>gini = 0.72<br/>samples = 5<br/>value = [0, 1, 0, 0, 0, 0, 0, 0, 0, 0, 2, 0, 0, 1, 0<br/>0, 0, 1]<br/>class = Ground>, fillcolor="#3964e540"] ;
306 -> 308 ;
309 [label=<Speed &le; 80.0<br/>gini = 0.444<br/>samples = 3<br/>value = [0, 0, 0, 0, 0, 0, 0, 0, 0, 0, 2, 0, 0, 1, 0<br/>0, 0, 0]<br/>class = Ground>, fillcolor="#3964e57f"] ;
308 -> 309 ;
310 [label=<gini = 0.0<br/>samples = 2<br/>value = [0, 0, 0, 0, 0, 0, 0, 0, 0, 0, 2, 0, 0, 0, 0<br/>0, 0, 0]<br/>class = Ground>, fillcolor="#3964e5ff"] ;
309 -> 310 ;
311 [label=<gini = 0.0<br/>samples = 1<br/>value = [0, 0, 0, 0, 0, 0, 0, 0, 0, 0, 0, 0, 0, 1, 0<br/>0, 0, 0]<br/>class = Poison>, fillcolor="#ba39e5ff"] ;
309 -> 311 ;
312 [label=<Sp. Attack &le; 47.5<br/>gini = 0.5<br/>samples = 2<br/>value = [0, 1, 0, 0, 0, 0, 0, 0, 0, 0, 0, 0, 0, 0, 0<br/>0, 0, 1]<br/>class = Dark>, fillcolor="#e5ba3900"] ;
308 -> 312 ;
313 [label=<gini = 0.0<br/>samples = 1<br/>value = [0, 1, 0, 0, 0, 0, 0, 0, 0, 0, 0, 0, 0, 0, 0<br/>0, 0, 0]<br/>class = Dark>, fillcolor="#e5ba39ff"] ;
312 -> 313 ;
314 [label=<gini = 0.0<br/>samples = 1<br/>value = [0, 0, 0, 0, 0, 0, 0, 0, 0, 0, 0, 0, 0, 0, 0<br/>0, 0, 1]<br/>class = Water>, fillcolor="#e54739ff"] ;
312 -> 314 ;
315 [label=<Attack &le; 92.0<br/>gini = 0.571<br/>samples = 7<br/>value = [0, 0, 0, 0, 0, 0, 0, 0, 4, 2, 0, 0, 0, 0, 0<br/>1, 0, 0]<br/>class = Ghost>, fillcolor="#39d7e566"] ;
305 -> 315 ;
316 [label=<gini = 0.0<br/>samples = 3<br/>value = [0, 0, 0, 0, 0, 0, 0, 0, 3, 0, 0, 0, 0, 0, 0<br/>0, 0, 0]<br/>class = Ghost>, fillcolor="#39d7e5ff"] ;
315 -> 316 ;
317 [label=<HP &le; 79.5<br/>gini = 0.625<br/>samples = 4<br/>value = [0, 0, 0, 0, 0, 0, 0, 0, 1, 2, 0, 0, 0, 0, 0<br/>1, 0, 0]<br/>class = Grass>, fillcolor="#399de555"] ;
315 -> 317 ;
318 [label=<gini = 0.0<br/>samples = 2<br/>value = [0, 0, 0, 0, 0, 0, 0, 0, 0, 2, 0, 0, 0, 0, 0<br/>0, 0, 0]<br/>class = Grass>, fillcolor="#399de5ff"] ;
317 -> 318 ;
319 [label=<Attack &le; 117.5<br/>gini = 0.5<br/>samples = 2<br/>value = [0, 0, 0, 0, 0, 0, 0, 0, 1, 0, 0, 0, 0, 0, 0<br/>1, 0, 0]<br/>class = Ghost>, fillcolor="#39d7e500"] ;
317 -> 319 ;
320 [label=<gini = 0.0<br/>samples = 1<br/>value = [0, 0, 0, 0, 0, 0, 0, 0, 1, 0, 0, 0, 0, 0, 0<br/>0, 0, 0]<br/>class = Ghost>, fillcolor="#39d7e5ff"] ;
319 -> 320 ;
321 [label=<gini = 0.0<br/>samples = 1<br/>value = [0, 0, 0, 0, 0, 0, 0, 0, 0, 0, 0, 0, 0, 0, 0<br/>1, 0, 0]<br/>class = Rock>, fillcolor="#e5399dff"] ;
319 -> 321 ;
322 [label=<gini = 0.0<br/>samples = 3<br/>value = [0, 0, 0, 0, 0, 0, 0, 0, 0, 0, 3, 0, 0, 0, 0<br/>0, 0, 0]<br/>class = Ground>, fillcolor="#3964e5ff"] ;
304 -> 322 ;
323 [label=<Sp. Defense &le; 47.5<br/>gini = 0.444<br/>samples = 3<br/>value = [0, 0, 0, 0, 0, 0, 0, 0, 0, 0, 0, 1, 0, 0, 0<br/>0, 2, 0]<br/>class = Steel>, fillcolor="#e539647f"] ;
303 -> 323 ;
324 [label=<gini = 0.0<br/>samples = 1<br/>value = [0, 0, 0, 0, 0, 0, 0, 0, 0, 0, 0, 1, 0, 0, 0<br/>0, 0, 0]<br/>class = Ice>, fillcolor="#4739e5ff"] ;
323 -> 324 ;
325 [label=<gini = 0.0<br/>samples = 2<br/>value = [0, 0, 0, 0, 0, 0, 0, 0, 0, 0, 0, 0, 0, 0, 0<br/>0, 2, 0]<br/>class = Steel>, fillcolor="#e53964ff"] ;
323 -> 325 ;
326 [label=<Attack &le; 111.0<br/>gini = 0.917<br/>samples = 329<br/>value = [15, 12, 12, 26, 10, 5, 31, 3, 14, 40, 7, 12, 21<br/>11, 37, 14, 9, 50]<br/>class = Water>, fillcolor="#e5473909"] ;
0 -> 326 [labeldistance=2.5, labelangle=-45, headlabel="False"] ;
327 [label=<Attack &le; 58.5<br/>gini = 0.905<br/>samples = 278<br/>value = [14, 10, 6, 23, 9, 2, 27, 2, 12, 39, 2, 11, 15<br/>11, 34, 7, 6, 48]<br/>class = Water>, fillcolor="#e547390a"] ;
326 -> 327 ;
328 [label=<Sp. Attack &le; 80.5<br/>gini = 0.858<br/>samples = 60<br/>value = [3, 0, 0, 6, 4, 0, 5, 0, 4, 6, 0, 4, 1, 0<br/>17, 2, 0, 8]<br/>class = Psychic>, fillcolor="#e539d72c"] ;
327 -> 328 ;
329 [label=<Attack &le; 32.5<br/>gini = 0.843<br/>samples = 33<br/>value = [1, 0, 0, 2, 3, 0, 4, 0, 0, 5, 0, 1, 1, 0, 7<br/>1, 0, 8]<br/>class = Water>, fillcolor="#e547390a"] ;
328 -> 329 ;
330 [label=<gini = 0.0<br/>samples = 4<br/>value = [0, 0, 0, 0, 0, 0, 0, 0, 0, 0, 0, 0, 0, 0, 4<br/>0, 0, 0]<br/>class = Psychic>, fillcolor="#e539d7ff"] ;
329 -> 330 ;
331 [label=<HP &le; 47.5<br/>gini = 0.844<br/>samples = 29<br/>value = [1, 0, 0, 2, 3, 0, 4, 0, 0, 5, 0, 1, 1, 0, 3<br/>1, 0, 8]<br/>class = Water>, fillcolor="#e5473920"] ;
329 -> 331 ;
332 [label=<HP &le; 34.0<br/>gini = 0.736<br/>samples = 12<br/>value = [0, 0, 0, 0, 0, 0, 2, 0, 0, 5, 0, 1, 0, 0, 2<br/>0, 0, 2]<br/>class = Grass>, fillcolor="#399de54c"] ;
331 -> 332 ;
333 [label=<gini = 0.0<br/>samples = 2<br/>value = [0, 0, 0, 0, 0, 0, 0, 0, 0, 0, 0, 0, 0, 0, 0<br/>0, 0, 2]<br/>class = Water>, fillcolor="#e54739ff"] ;
332 -> 333 ;
334 [label=<HP &le; 42.5<br/>gini = 0.66<br/>samples = 10<br/>value = [0, 0, 0, 0, 0, 0, 2, 0, 0, 5, 0, 1, 0, 0, 2<br/>0, 0, 0]<br/>class = Grass>, fillcolor="#399de560"] ;
332 -> 334 ;
335 [label=<Defense &le; 37.5<br/>gini = 0.64<br/>samples = 5<br/>value = [0, 0, 0, 0, 0, 0, 2, 0, 0, 1, 0, 0, 0, 0, 2<br/>0, 0, 0]<br/>class = Fire>, fillcolor="#39e58100"] ;
334 -> 335 ;
336 [label=<HP &le; 39.0<br/>gini = 0.5<br/>samples = 2<br/>value = [0, 0, 0, 0, 0, 0, 0, 0, 0, 1, 0, 0, 0, 0, 1<br/>0, 0, 0]<br/>class = Grass>, fillcolor="#399de500"] ;
335 -> 336 ;
337 [label=<gini = 0.0<br/>samples = 1<br/>value = [0, 0, 0, 0, 0, 0, 0, 0, 0, 0, 0, 0, 0, 0, 1<br/>0, 0, 0]<br/>class = Psychic>, fillcolor="#e539d7ff"] ;
336 -> 337 ;
338 [label=<gini = 0.0<br/>samples = 1<br/>value = [0, 0, 0, 0, 0, 0, 0, 0, 0, 1, 0, 0, 0, 0, 0<br/>0, 0, 0]<br/>class = Grass>, fillcolor="#399de5ff"] ;
336 -> 338 ;
339 [label=<Speed &le; 65.0<br/>gini = 0.444<br/>samples = 3<br/>value = [0, 0, 0, 0, 0, 0, 2, 0, 0, 0, 0, 0, 0, 0, 1<br/>0, 0, 0]<br/>class = Fire>, fillcolor="#39e5817f"] ;
335 -> 339 ;
340 [label=<gini = 0.0<br/>samples = 2<br/>value = [0, 0, 0, 0, 0, 0, 2, 0, 0, 0, 0, 0, 0, 0, 0<br/>0, 0, 0]<br/>class = Fire>, fillcolor="#39e581ff"] ;
339 -> 340 ;
341 [label=<gini = 0.0<br/>samples = 1<br/>value = [0, 0, 0, 0, 0, 0, 0, 0, 0, 0, 0, 0, 0, 0, 1<br/>0, 0, 0]<br/>class = Psychic>, fillcolor="#e539d7ff"] ;
339 -> 341 ;
342 [label=<Attack &le; 52.5<br/>gini = 0.32<br/>samples = 5<br/>value = [0, 0, 0, 0, 0, 0, 0, 0, 0, 4, 0, 1, 0, 0, 0<br/>0, 0, 0]<br/>class = Grass>, fillcolor="#399de5bf"] ;
334 -> 342 ;
343 [label=<gini = 0.0<br/>samples = 4<br/>value = [0, 0, 0, 0, 0, 0, 0, 0, 0, 4, 0, 0, 0, 0, 0<br/>0, 0, 0]<br/>class = Grass>, fillcolor="#399de5ff"] ;
342 -> 343 ;
344 [label=<gini = 0.0<br/>samples = 1<br/>value = [0, 0, 0, 0, 0, 0, 0, 0, 0, 0, 0, 1, 0, 0, 0<br/>0, 0, 0]<br/>class = Ice>, fillcolor="#4739e5ff"] ;
342 -> 344 ;
345 [label=<Sp. Attack &le; 69.0<br/>gini = 0.803<br/>samples = 17<br/>value = [1, 0, 0, 2, 3, 0, 2, 0, 0, 0, 0, 0, 1, 0, 1<br/>1, 0, 6]<br/>class = Water>, fillcolor="#e5473937"] ;
331 -> 345 ;
346 [label=<Speed &le; 29.0<br/>gini = 0.32<br/>samples = 5<br/>value = [0, 0, 0, 0, 1, 0, 0, 0, 0, 0, 0, 0, 0, 0, 0<br/>0, 0, 4]<br/>class = Water>, fillcolor="#e54739bf"] ;
345 -> 346 ;
347 [label=<gini = 0.0<br/>samples = 1<br/>value = [0, 0, 0, 0, 1, 0, 0, 0, 0, 0, 0, 0, 0, 0, 0<br/>0, 0, 0]<br/>class = Fairy>, fillcolor="#64e539ff"] ;
346 -> 347 ;
348 [label=<gini = 0.0<br/>samples = 4<br/>value = [0, 0, 0, 0, 0, 0, 0, 0, 0, 0, 0, 0, 0, 0, 0<br/>0, 0, 4]<br/>class = Water>, fillcolor="#e54739ff"] ;
346 -> 348 ;
349 [label=<HP &le; 57.5<br/>gini = 0.861<br/>samples = 12<br/>value = [1, 0, 0, 2, 2, 0, 2, 0, 0, 0, 0, 0, 1, 0, 1<br/>1, 0, 2]<br/>class = Electric>, fillcolor="#9de53900"] ;
345 -> 349 ;
350 [label=<Attack &le; 47.5<br/>gini = 0.444<br/>samples = 3<br/>value = [0, 0, 0, 0, 2, 0, 1, 0, 0, 0, 0, 0, 0, 0, 0<br/>0, 0, 0]<br/>class = Fairy>, fillcolor="#64e5397f"] ;
349 -> 350 ;
351 [label=<gini = 0.0<br/>samples = 2<br/>value = [0, 0, 0, 0, 2, 0, 0, 0, 0, 0, 0, 0, 0, 0, 0<br/>0, 0, 0]<br/>class = Fairy>, fillcolor="#64e539ff"] ;
350 -> 351 ;
352 [label=<gini = 0.0<br/>samples = 1<br/>value = [0, 0, 0, 0, 0, 0, 1, 0, 0, 0, 0, 0, 0, 0, 0<br/>0, 0, 0]<br/>class = Fire>, fillcolor="#39e581ff"] ;
350 -> 352 ;
353 [label=<Sp. Attack &le; 75.5<br/>gini = 0.84<br/>samples = 9<br/>value = [1, 0, 0, 2, 0, 0, 1, 0, 0, 0, 0, 0, 1, 0, 1<br/>1, 0, 2]<br/>class = Electric>, fillcolor="#9de53900"] ;
349 -> 353 ;
354 [label=<Speed &le; 47.5<br/>gini = 0.75<br/>samples = 4<br/>value = [1, 0, 0, 0, 0, 0, 1, 0, 0, 0, 0, 0, 0, 0, 1<br/>1, 0, 0]<br/>class = Bug>, fillcolor="#e5813900"] ;
353 -> 354 ;
355 [label=<gini = 0.0<br/>samples = 1<br/>value = [0, 0, 0, 0, 0, 0, 0, 0, 0, 0, 0, 0, 0, 0, 0<br/>1, 0, 0]<br/>class = Rock>, fillcolor="#e5399dff"] ;
354 -> 355 ;
356 [label=<Speed &le; 63.5<br/>gini = 0.667<br/>samples = 3<br/>value = [1, 0, 0, 0, 0, 0, 1, 0, 0, 0, 0, 0, 0, 0, 1<br/>0, 0, 0]<br/>class = Bug>, fillcolor="#e5813900"] ;
354 -> 356 ;
357 [label=<gini = 0.0<br/>samples = 1<br/>value = [0, 0, 0, 0, 0, 0, 0, 0, 0, 0, 0, 0, 0, 0, 1<br/>0, 0, 0]<br/>class = Psychic>, fillcolor="#e539d7ff"] ;
356 -> 357 ;
358 [label=<Sp. Defense &le; 64.5<br/>gini = 0.5<br/>samples = 2<br/>value = [1, 0, 0, 0, 0, 0, 1, 0, 0, 0, 0, 0, 0, 0, 0<br/>0, 0, 0]<br/>class = Bug>, fillcolor="#e5813900"] ;
356 -> 358 ;
359 [label=<gini = 0.0<br/>samples = 1<br/>value = [0, 0, 0, 0, 0, 0, 1, 0, 0, 0, 0, 0, 0, 0, 0<br/>0, 0, 0]<br/>class = Fire>, fillcolor="#39e581ff"] ;
358 -> 359 ;
360 [label=<gini = 0.0<br/>samples = 1<br/>value = [1, 0, 0, 0, 0, 0, 0, 0, 0, 0, 0, 0, 0, 0, 0<br/>0, 0, 0]<br/>class = Bug>, fillcolor="#e58139ff"] ;
358 -> 360 ;
361 [label=<Defense &le; 52.5<br/>gini = 0.64<br/>samples = 5<br/>value = [0, 0, 0, 2, 0, 0, 0, 0, 0, 0, 0, 0, 1, 0, 0<br/>0, 0, 2]<br/>class = Electric>, fillcolor="#9de53900"] ;
353 -> 361 ;
362 [label=<gini = 0.0<br/>samples = 1<br/>value = [0, 0, 0, 0, 0, 0, 0, 0, 0, 0, 0, 0, 1, 0, 0<br/>0, 0, 0]<br/>class = Normal>, fillcolor="#8139e5ff"] ;
361 -> 362 ;
363 [label=<Defense &le; 56.5<br/>gini = 0.5<br/>samples = 4<br/>value = [0, 0, 0, 2, 0, 0, 0, 0, 0, 0, 0, 0, 0, 0, 0<br/>0, 0, 2]<br/>class = Electric>, fillcolor="#9de53900"] ;
361 -> 363 ;
364 [label=<gini = 0.0<br/>samples = 1<br/>value = [0, 0, 0, 1, 0, 0, 0, 0, 0, 0, 0, 0, 0, 0, 0<br/>0, 0, 0]<br/>class = Electric>, fillcolor="#9de539ff"] ;
363 -> 364 ;
365 [label=<Speed &le; 105.0<br/>gini = 0.444<br/>samples = 3<br/>value = [0, 0, 0, 1, 0, 0, 0, 0, 0, 0, 0, 0, 0, 0, 0<br/>0, 0, 2]<br/>class = Water>, fillcolor="#e547397f"] ;
363 -> 365 ;
366 [label=<gini = 0.0<br/>samples = 2<br/>value = [0, 0, 0, 0, 0, 0, 0, 0, 0, 0, 0, 0, 0, 0, 0<br/>0, 0, 2]<br/>class = Water>, fillcolor="#e54739ff"] ;
365 -> 366 ;
367 [label=<gini = 0.0<br/>samples = 1<br/>value = [0, 0, 0, 1, 0, 0, 0, 0, 0, 0, 0, 0, 0, 0, 0<br/>0, 0, 0]<br/>class = Electric>, fillcolor="#9de539ff"] ;
365 -> 367 ;
368 [label=<Defense &le; 37.5<br/>gini = 0.796<br/>samples = 27<br/>value = [2, 0, 0, 4, 1, 0, 1, 0, 4, 1, 0, 3, 0, 0<br/>10, 1, 0, 0]<br/>class = Psychic>, fillcolor="#e539d743"] ;
328 -> 368 ;
369 [label=<HP &le; 42.5<br/>gini = 0.375<br/>samples = 4<br/>value = [0, 0, 0, 0, 0, 0, 0, 0, 0, 0, 0, 3, 0, 0, 1<br/>0, 0, 0]<br/>class = Ice>, fillcolor="#4739e5aa"] ;
368 -> 369 ;
370 [label=<gini = 0.0<br/>samples = 1<br/>value = [0, 0, 0, 0, 0, 0, 0, 0, 0, 0, 0, 0, 0, 0, 1<br/>0, 0, 0]<br/>class = Psychic>, fillcolor="#e539d7ff"] ;
369 -> 370 ;
371 [label=<gini = 0.0<br/>samples = 3<br/>value = [0, 0, 0, 0, 0, 0, 0, 0, 0, 0, 0, 3, 0, 0, 0<br/>0, 0, 0]<br/>class = Ice>, fillcolor="#4739e5ff"] ;
369 -> 371 ;
372 [label=<HP &le; 68.5<br/>gini = 0.771<br/>samples = 23<br/>value = [2, 0, 0, 4, 1, 0, 1, 0, 4, 1, 0, 0, 0, 0, 9<br/>1, 0, 0]<br/>class = Psychic>, fillcolor="#e539d743"] ;
368 -> 372 ;
373 [label=<Defense &le; 80.0<br/>gini = 0.773<br/>samples = 15<br/>value = [1, 0, 0, 4, 0, 0, 0, 0, 4, 1, 0, 0, 0, 0, 4<br/>1, 0, 0]<br/>class = Electric>, fillcolor="#9de53900"] ;
372 -> 373 ;
374 [label=<Sp. Attack &le; 120.0<br/>gini = 0.694<br/>samples = 11<br/>value = [1, 0, 0, 4, 0, 0, 0, 0, 2, 0, 0, 0, 0, 0, 4<br/>0, 0, 0]<br/>class = Electric>, fillcolor="#9de53900"] ;
373 -> 374 ;
375 [label=<Speed &le; 92.5<br/>gini = 0.691<br/>samples = 9<br/>value = [1, 0, 0, 4, 0, 0, 0, 0, 2, 0, 0, 0, 0, 0, 2<br/>0, 0, 0]<br/>class = Electric>, fillcolor="#9de53949"] ;
374 -> 375 ;
376 [label=<Attack &le; 42.5<br/>gini = 0.72<br/>samples = 5<br/>value = [1, 0, 0, 1, 0, 0, 0, 0, 1, 0, 0, 0, 0, 0, 2<br/>0, 0, 0]<br/>class = Psychic>, fillcolor="#e539d740"] ;
375 -> 376 ;
377 [label=<Defense &le; 65.0<br/>gini = 0.5<br/>samples = 2<br/>value = [0, 0, 0, 1, 0, 0, 0, 0, 1, 0, 0, 0, 0, 0, 0<br/>0, 0, 0]<br/>class = Electric>, fillcolor="#9de53900"] ;
376 -> 377 ;
378 [label=<gini = 0.0<br/>samples = 1<br/>value = [0, 0, 0, 0, 0, 0, 0, 0, 1, 0, 0, 0, 0, 0, 0<br/>0, 0, 0]<br/>class = Ghost>, fillcolor="#39d7e5ff"] ;
377 -> 378 ;
379 [label=<gini = 0.0<br/>samples = 1<br/>value = [0, 0, 0, 1, 0, 0, 0, 0, 0, 0, 0, 0, 0, 0, 0<br/>0, 0, 0]<br/>class = Electric>, fillcolor="#9de539ff"] ;
377 -> 379 ;
380 [label=<HP &le; 57.5<br/>gini = 0.444<br/>samples = 3<br/>value = [1, 0, 0, 0, 0, 0, 0, 0, 0, 0, 0, 0, 0, 0, 2<br/>0, 0, 0]<br/>class = Psychic>, fillcolor="#e539d77f"] ;
376 -> 380 ;
381 [label=<gini = 0.0<br/>samples = 2<br/>value = [0, 0, 0, 0, 0, 0, 0, 0, 0, 0, 0, 0, 0, 0, 2<br/>0, 0, 0]<br/>class = Psychic>, fillcolor="#e539d7ff"] ;
380 -> 381 ;
382 [label=<gini = 0.0<br/>samples = 1<br/>value = [1, 0, 0, 0, 0, 0, 0, 0, 0, 0, 0, 0, 0, 0, 0<br/>0, 0, 0]<br/>class = Bug>, fillcolor="#e58139ff"] ;
380 -> 382 ;
383 [label=<Sp. Defense &le; 61.0<br/>gini = 0.375<br/>samples = 4<br/>value = [0, 0, 0, 3, 0, 0, 0, 0, 1, 0, 0, 0, 0, 0, 0<br/>0, 0, 0]<br/>class = Electric>, fillcolor="#9de539aa"] ;
375 -> 383 ;
384 [label=<gini = 0.0<br/>samples = 1<br/>value = [0, 0, 0, 0, 0, 0, 0, 0, 1, 0, 0, 0, 0, 0, 0<br/>0, 0, 0]<br/>class = Ghost>, fillcolor="#39d7e5ff"] ;
383 -> 384 ;
385 [label=<gini = 0.0<br/>samples = 3<br/>value = [0, 0, 0, 3, 0, 0, 0, 0, 0, 0, 0, 0, 0, 0, 0<br/>0, 0, 0]<br/>class = Electric>, fillcolor="#9de539ff"] ;
383 -> 385 ;
386 [label=<gini = 0.0<br/>samples = 2<br/>value = [0, 0, 0, 0, 0, 0, 0, 0, 0, 0, 0, 0, 0, 0, 2<br/>0, 0, 0]<br/>class = Psychic>, fillcolor="#e539d7ff"] ;
374 -> 386 ;
387 [label=<Sp. Defense &le; 72.5<br/>gini = 0.625<br/>samples = 4<br/>value = [0, 0, 0, 0, 0, 0, 0, 0, 2, 1, 0, 0, 0, 0, 0<br/>1, 0, 0]<br/>class = Ghost>, fillcolor="#39d7e555"] ;
373 -> 387 ;
388 [label=<HP &le; 50.0<br/>gini = 0.5<br/>samples = 2<br/>value = [0, 0, 0, 0, 0, 0, 0, 0, 0, 1, 0, 0, 0, 0, 0<br/>1, 0, 0]<br/>class = Grass>, fillcolor="#399de500"] ;
387 -> 388 ;
389 [label=<gini = 0.0<br/>samples = 1<br/>value = [0, 0, 0, 0, 0, 0, 0, 0, 0, 0, 0, 0, 0, 0, 0<br/>1, 0, 0]<br/>class = Rock>, fillcolor="#e5399dff"] ;
388 -> 389 ;
390 [label=<gini = 0.0<br/>samples = 1<br/>value = [0, 0, 0, 0, 0, 0, 0, 0, 0, 1, 0, 0, 0, 0, 0<br/>0, 0, 0]<br/>class = Grass>, fillcolor="#399de5ff"] ;
388 -> 390 ;
391 [label=<gini = 0.0<br/>samples = 2<br/>value = [0, 0, 0, 0, 0, 0, 0, 0, 2, 0, 0, 0, 0, 0, 0<br/>0, 0, 0]<br/>class = Ghost>, fillcolor="#39d7e5ff"] ;
387 -> 391 ;
392 [label=<Sp. Attack &le; 113.5<br/>gini = 0.562<br/>samples = 8<br/>value = [1, 0, 0, 0, 1, 0, 1, 0, 0, 0, 0, 0, 0, 0, 5<br/>0, 0, 0]<br/>class = Psychic>, fillcolor="#e539d792"] ;
372 -> 392 ;
393 [label=<Defense &le; 57.5<br/>gini = 0.278<br/>samples = 6<br/>value = [1, 0, 0, 0, 0, 0, 0, 0, 0, 0, 0, 0, 0, 0, 5<br/>0, 0, 0]<br/>class = Psychic>, fillcolor="#e539d7cc"] ;
392 -> 393 ;
394 [label=<gini = 0.0<br/>samples = 1<br/>value = [1, 0, 0, 0, 0, 0, 0, 0, 0, 0, 0, 0, 0, 0, 0<br/>0, 0, 0]<br/>class = Bug>, fillcolor="#e58139ff"] ;
393 -> 394 ;
395 [label=<gini = 0.0<br/>samples = 5<br/>value = [0, 0, 0, 0, 0, 0, 0, 0, 0, 0, 0, 0, 0, 0, 5<br/>0, 0, 0]<br/>class = Psychic>, fillcolor="#e539d7ff"] ;
393 -> 395 ;
396 [label=<Speed &le; 67.5<br/>gini = 0.5<br/>samples = 2<br/>value = [0, 0, 0, 0, 1, 0, 1, 0, 0, 0, 0, 0, 0, 0, 0<br/>0, 0, 0]<br/>class = Fairy>, fillcolor="#64e53900"] ;
392 -> 396 ;
397 [label=<gini = 0.0<br/>samples = 1<br/>value = [0, 0, 0, 0, 0, 0, 1, 0, 0, 0, 0, 0, 0, 0, 0<br/>0, 0, 0]<br/>class = Fire>, fillcolor="#39e581ff"] ;
396 -> 397 ;
398 [label=<gini = 0.0<br/>samples = 1<br/>value = [0, 0, 0, 0, 1, 0, 0, 0, 0, 0, 0, 0, 0, 0, 0<br/>0, 0, 0]<br/>class = Fairy>, fillcolor="#64e539ff"] ;
396 -> 398 ;
399 [label=<HP &le; 93.5<br/>gini = 0.905<br/>samples = 218<br/>value = [11, 10, 6, 17, 5, 2, 22, 2, 8, 33, 2, 7, 14<br/>11, 17, 5, 6, 40]<br/>class = Water>, fillcolor="#e547390a"] ;
327 -> 399 ;
400 [label=<Sp. Defense &le; 110.5<br/>gini = 0.909<br/>samples = 175<br/>value = [11, 10, 5, 17, 2, 2, 22, 2, 6, 26, 2, 6, 9, 9<br/>11, 4, 5, 26]<br/>class = Grass>, fillcolor="#399de500"] ;
399 -> 400 ;
401 [label=<Sp. Defense &le; 106.5<br/>gini = 0.901<br/>samples = 162<br/>value = [11, 10, 2, 17, 1, 2, 22, 2, 6, 25, 1, 6, 9, 8<br/>6, 4, 4, 26]<br/>class = Water>, fillcolor="#e5473902"] ;
400 -> 401 ;
402 [label=<Sp. Attack &le; 64.0<br/>gini = 0.899<br/>samples = 156<br/>value = [11, 10, 2, 13, 1, 2, 22, 2, 5, 25, 1, 6, 9, 8<br/>6, 3, 4, 26]<br/>class = Water>, fillcolor="#e5473902"] ;
401 -> 402 ;
403 [label=<HP &le; 52.0<br/>gini = 0.375<br/>samples = 4<br/>value = [0, 0, 0, 0, 0, 0, 0, 0, 1, 3, 0, 0, 0, 0, 0<br/>0, 0, 0]<br/>class = Grass>, fillcolor="#399de5aa"] ;
402 -> 403 ;
404 [label=<gini = 0.0<br/>samples = 1<br/>value = [0, 0, 0, 0, 0, 0, 0, 0, 1, 0, 0, 0, 0, 0, 0<br/>0, 0, 0]<br/>class = Ghost>, fillcolor="#39d7e5ff"] ;
403 -> 404 ;
405 [label=<gini = 0.0<br/>samples = 3<br/>value = [0, 0, 0, 0, 0, 0, 0, 0, 0, 3, 0, 0, 0, 0, 0<br/>0, 0, 0]<br/>class = Grass>, fillcolor="#399de5ff"] ;
403 -> 405 ;
406 [label=<Sp. Attack &le; 103.5<br/>gini = 0.9<br/>samples = 152<br/>value = [11, 10, 2, 13, 1, 2, 22, 2, 4, 22, 1, 6, 9, 8<br/>6, 3, 4, 26]<br/>class = Water>, fillcolor="#e5473908"] ;
402 -> 406 ;
407 [label=<Defense &le; 62.5<br/>gini = 0.894<br/>samples = 110<br/>value = [10, 7, 2, 6, 1, 1, 12, 1, 2, 16, 1, 4, 7, 8<br/>3, 2, 4, 23]<br/>class = Water>, fillcolor="#e5473913"] ;
406 -> 407 ;
408 [label=<HP &le; 67.5<br/>gini = 0.872<br/>samples = 40<br/>value = [6, 4, 0, 4, 0, 0, 8, 0, 1, 4, 0, 0, 4, 1, 1<br/>1, 0, 6]<br/>class = Fire>, fillcolor="#39e5810f"] ;
407 -> 408 ;
409 [label=<Speed &le; 94.0<br/>gini = 0.829<br/>samples = 27<br/>value = [1, 4, 0, 4, 0, 0, 8, 0, 1, 4, 0, 0, 1, 0, 1<br/>0, 0, 3]<br/>class = Fire>, fillcolor="#39e5812c"] ;
408 -> 409 ;
410 [label=<Sp. Defense &le; 52.5<br/>gini = 0.753<br/>samples = 19<br/>value = [1, 3, 0, 0, 0, 0, 8, 0, 1, 3, 0, 0, 0, 0, 1<br/>0, 0, 2]<br/>class = Fire>, fillcolor="#39e58150"] ;
409 -> 410 ;
411 [label=<Speed &le; 62.5<br/>gini = 0.806<br/>samples = 12<br/>value = [1, 3, 0, 0, 0, 0, 2, 0, 0, 3, 0, 0, 0, 0, 1<br/>0, 0, 2]<br/>class = Dark>, fillcolor="#e5ba3900"] ;
410 -> 411 ;
412 [label=<Attack &le; 73.5<br/>gini = 0.611<br/>samples = 6<br/>value = [0, 0, 0, 0, 0, 0, 2, 0, 0, 3, 0, 0, 0, 0, 1<br/>0, 0, 0]<br/>class = Grass>, fillcolor="#399de540"] ;
411 -> 412 ;
413 [label=<HP &le; 51.5<br/>gini = 0.444<br/>samples = 3<br/>value = [0, 0, 0, 0, 0, 0, 2, 0, 0, 0, 0, 0, 0, 0, 1<br/>0, 0, 0]<br/>class = Fire>, fillcolor="#39e5817f"] ;
412 -> 413 ;
414 [label=<gini = 0.0<br/>samples = 1<br/>value = [0, 0, 0, 0, 0, 0, 0, 0, 0, 0, 0, 0, 0, 0, 1<br/>0, 0, 0]<br/>class = Psychic>, fillcolor="#e539d7ff"] ;
413 -> 414 ;
415 [label=<gini = 0.0<br/>samples = 2<br/>value = [0, 0, 0, 0, 0, 0, 2, 0, 0, 0, 0, 0, 0, 0, 0<br/>0, 0, 0]<br/>class = Fire>, fillcolor="#39e581ff"] ;
413 -> 415 ;
416 [label=<gini = 0.0<br/>samples = 3<br/>value = [0, 0, 0, 0, 0, 0, 0, 0, 0, 3, 0, 0, 0, 0, 0<br/>0, 0, 0]<br/>class = Grass>, fillcolor="#399de5ff"] ;
412 -> 416 ;
417 [label=<Sp. Defense &le; 37.5<br/>gini = 0.611<br/>samples = 6<br/>value = [1, 3, 0, 0, 0, 0, 0, 0, 0, 0, 0, 0, 0, 0, 0<br/>0, 0, 2]<br/>class = Dark>, fillcolor="#e5ba3940"] ;
411 -> 417 ;
418 [label=<gini = 0.0<br/>samples = 2<br/>value = [0, 0, 0, 0, 0, 0, 0, 0, 0, 0, 0, 0, 0, 0, 0<br/>0, 0, 2]<br/>class = Water>, fillcolor="#e54739ff"] ;
417 -> 418 ;
419 [label=<Defense &le; 46.0<br/>gini = 0.375<br/>samples = 4<br/>value = [1, 3, 0, 0, 0, 0, 0, 0, 0, 0, 0, 0, 0, 0, 0<br/>0, 0, 0]<br/>class = Dark>, fillcolor="#e5ba39aa"] ;
417 -> 419 ;
420 [label=<gini = 0.0<br/>samples = 3<br/>value = [0, 3, 0, 0, 0, 0, 0, 0, 0, 0, 0, 0, 0, 0, 0<br/>0, 0, 0]<br/>class = Dark>, fillcolor="#e5ba39ff"] ;
419 -> 420 ;
421 [label=<gini = 0.0<br/>samples = 1<br/>value = [1, 0, 0, 0, 0, 0, 0, 0, 0, 0, 0, 0, 0, 0, 0<br/>0, 0, 0]<br/>class = Bug>, fillcolor="#e58139ff"] ;
419 -> 421 ;
422 [label=<Attack &le; 62.0<br/>gini = 0.245<br/>samples = 7<br/>value = [0, 0, 0, 0, 0, 0, 6, 0, 1, 0, 0, 0, 0, 0, 0<br/>0, 0, 0]<br/>class = Fire>, fillcolor="#39e581d4"] ;
410 -> 422 ;
423 [label=<Defense &le; 59.0<br/>gini = 0.5<br/>samples = 2<br/>value = [0, 0, 0, 0, 0, 0, 1, 0, 1, 0, 0, 0, 0, 0, 0<br/>0, 0, 0]<br/>class = Fire>, fillcolor="#39e58100"] ;
422 -> 423 ;
424 [label=<gini = 0.0<br/>samples = 1<br/>value = [0, 0, 0, 0, 0, 0, 1, 0, 0, 0, 0, 0, 0, 0, 0<br/>0, 0, 0]<br/>class = Fire>, fillcolor="#39e581ff"] ;
423 -> 424 ;
425 [label=<gini = 0.0<br/>samples = 1<br/>value = [0, 0, 0, 0, 0, 0, 0, 0, 1, 0, 0, 0, 0, 0, 0<br/>0, 0, 0]<br/>class = Ghost>, fillcolor="#39d7e5ff"] ;
423 -> 425 ;
426 [label=<gini = 0.0<br/>samples = 5<br/>value = [0, 0, 0, 0, 0, 0, 5, 0, 0, 0, 0, 0, 0, 0, 0<br/>0, 0, 0]<br/>class = Fire>, fillcolor="#39e581ff"] ;
422 -> 426 ;
427 [label=<Sp. Defense &le; 52.5<br/>gini = 0.688<br/>samples = 8<br/>value = [0, 1, 0, 4, 0, 0, 0, 0, 0, 1, 0, 0, 1, 0, 0<br/>0, 0, 1]<br/>class = Electric>, fillcolor="#9de5396d"] ;
409 -> 427 ;
428 [label=<gini = 0.0<br/>samples = 1<br/>value = [0, 1, 0, 0, 0, 0, 0, 0, 0, 0, 0, 0, 0, 0, 0<br/>0, 0, 0]<br/>class = Dark>, fillcolor="#e5ba39ff"] ;
427 -> 428 ;
429 [label=<Attack &le; 72.5<br/>gini = 0.612<br/>samples = 7<br/>value = [0, 0, 0, 4, 0, 0, 0, 0, 0, 1, 0, 0, 1, 0, 0<br/>0, 0, 1]<br/>class = Electric>, fillcolor="#9de5397f"] ;
427 -> 429 ;
430 [label=<Sp. Defense &le; 55.5<br/>gini = 0.75<br/>samples = 4<br/>value = [0, 0, 0, 1, 0, 0, 0, 0, 0, 1, 0, 0, 1, 0, 0<br/>0, 0, 1]<br/>class = Electric>, fillcolor="#9de53900"] ;
429 -> 430 ;
431 [label=<gini = 0.0<br/>samples = 1<br/>value = [0, 0, 0, 1, 0, 0, 0, 0, 0, 0, 0, 0, 0, 0, 0<br/>0, 0, 0]<br/>class = Electric>, fillcolor="#9de539ff"] ;
430 -> 431 ;
432 [label=<Sp. Defense &le; 60.5<br/>gini = 0.667<br/>samples = 3<br/>value = [0, 0, 0, 0, 0, 0, 0, 0, 0, 1, 0, 0, 1, 0, 0<br/>0, 0, 1]<br/>class = Grass>, fillcolor="#399de500"] ;
430 -> 432 ;
433 [label=<gini = 0.0<br/>samples = 1<br/>value = [0, 0, 0, 0, 0, 0, 0, 0, 0, 0, 0, 0, 0, 0, 0<br/>0, 0, 1]<br/>class = Water>, fillcolor="#e54739ff"] ;
432 -> 433 ;
434 [label=<HP &le; 57.5<br/>gini = 0.5<br/>samples = 2<br/>value = [0, 0, 0, 0, 0, 0, 0, 0, 0, 1, 0, 0, 1, 0, 0<br/>0, 0, 0]<br/>class = Grass>, fillcolor="#399de500"] ;
432 -> 434 ;
435 [label=<gini = 0.0<br/>samples = 1<br/>value = [0, 0, 0, 0, 0, 0, 0, 0, 0, 1, 0, 0, 0, 0, 0<br/>0, 0, 0]<br/>class = Grass>, fillcolor="#399de5ff"] ;
434 -> 435 ;
436 [label=<gini = 0.0<br/>samples = 1<br/>value = [0, 0, 0, 0, 0, 0, 0, 0, 0, 0, 0, 0, 1, 0, 0<br/>0, 0, 0]<br/>class = Normal>, fillcolor="#8139e5ff"] ;
434 -> 436 ;
437 [label=<gini = 0.0<br/>samples = 3<br/>value = [0, 0, 0, 3, 0, 0, 0, 0, 0, 0, 0, 0, 0, 0, 0<br/>0, 0, 0]<br/>class = Electric>, fillcolor="#9de539ff"] ;
429 -> 437 ;
438 [label=<HP &le; 71.5<br/>gini = 0.734<br/>samples = 13<br/>value = [5, 0, 0, 0, 0, 0, 0, 0, 0, 0, 0, 0, 3, 1, 0<br/>1, 0, 3]<br/>class = Bug>, fillcolor="#e5813933"] ;
408 -> 438 ;
439 [label=<gini = 0.0<br/>samples = 4<br/>value = [4, 0, 0, 0, 0, 0, 0, 0, 0, 0, 0, 0, 0, 0, 0<br/>0, 0, 0]<br/>class = Bug>, fillcolor="#e58139ff"] ;
438 -> 439 ;
440 [label=<Sp. Attack &le; 96.0<br/>gini = 0.741<br/>samples = 9<br/>value = [1, 0, 0, 0, 0, 0, 0, 0, 0, 0, 0, 0, 3, 1, 0<br/>1, 0, 3]<br/>class = Normal>, fillcolor="#8139e500"] ;
438 -> 440 ;
441 [label=<Speed &le; 77.0<br/>gini = 0.612<br/>samples = 7<br/>value = [0, 0, 0, 0, 0, 0, 0, 0, 0, 0, 0, 0, 3, 0, 0<br/>1, 0, 3]<br/>class = Normal>, fillcolor="#8139e500"] ;
440 -> 441 ;
442 [label=<Sp. Defense &le; 61.5<br/>gini = 0.444<br/>samples = 3<br/>value = [0, 0, 0, 0, 0, 0, 0, 0, 0, 0, 0, 0, 0, 0, 0<br/>1, 0, 2]<br/>class = Water>, fillcolor="#e547397f"] ;
441 -> 442 ;
443 [label=<gini = 0.0<br/>samples = 2<br/>value = [0, 0, 0, 0, 0, 0, 0, 0, 0, 0, 0, 0, 0, 0, 0<br/>0, 0, 2]<br/>class = Water>, fillcolor="#e54739ff"] ;
442 -> 443 ;
444 [label=<gini = 0.0<br/>samples = 1<br/>value = [0, 0, 0, 0, 0, 0, 0, 0, 0, 0, 0, 0, 0, 0, 0<br/>1, 0, 0]<br/>class = Rock>, fillcolor="#e5399dff"] ;
442 -> 444 ;
445 [label=<HP &le; 80.5<br/>gini = 0.375<br/>samples = 4<br/>value = [0, 0, 0, 0, 0, 0, 0, 0, 0, 0, 0, 0, 3, 0, 0<br/>0, 0, 1]<br/>class = Normal>, fillcolor="#8139e5aa"] ;
441 -> 445 ;
446 [label=<gini = 0.0<br/>samples = 3<br/>value = [0, 0, 0, 0, 0, 0, 0, 0, 0, 0, 0, 0, 3, 0, 0<br/>0, 0, 0]<br/>class = Normal>, fillcolor="#8139e5ff"] ;
445 -> 446 ;
447 [label=<gini = 0.0<br/>samples = 1<br/>value = [0, 0, 0, 0, 0, 0, 0, 0, 0, 0, 0, 0, 0, 0, 0<br/>0, 0, 1]<br/>class = Water>, fillcolor="#e54739ff"] ;
445 -> 447 ;
448 [label=<Speed &le; 105.0<br/>gini = 0.5<br/>samples = 2<br/>value = [1, 0, 0, 0, 0, 0, 0, 0, 0, 0, 0, 0, 0, 1, 0<br/>0, 0, 0]<br/>class = Bug>, fillcolor="#e5813900"] ;
440 -> 448 ;
449 [label=<gini = 0.0<br/>samples = 1<br/>value = [0, 0, 0, 0, 0, 0, 0, 0, 0, 0, 0, 0, 0, 1, 0<br/>0, 0, 0]<br/>class = Poison>, fillcolor="#ba39e5ff"] ;
448 -> 449 ;
450 [label=<gini = 0.0<br/>samples = 1<br/>value = [1, 0, 0, 0, 0, 0, 0, 0, 0, 0, 0, 0, 0, 0, 0<br/>0, 0, 0]<br/>class = Bug>, fillcolor="#e58139ff"] ;
448 -> 450 ;
451 [label=<Sp. Defense &le; 59.0<br/>gini = 0.881<br/>samples = 70<br/>value = [4, 3, 2, 2, 1, 1, 4, 1, 1, 12, 1, 4, 3, 7<br/>2, 1, 4, 17]<br/>class = Water>, fillcolor="#e5473916"] ;
407 -> 451 ;
452 [label=<gini = 0.0<br/>samples = 3<br/>value = [0, 0, 0, 0, 0, 0, 0, 0, 0, 0, 0, 0, 0, 0, 0<br/>0, 0, 3]<br/>class = Water>, fillcolor="#e54739ff"] ;
451 -> 452 ;
453 [label=<Sp. Attack &le; 72.0<br/>gini = 0.891<br/>samples = 67<br/>value = [4, 3, 2, 2, 1, 1, 4, 1, 1, 12, 1, 4, 3, 7<br/>2, 1, 4, 14]<br/>class = Water>, fillcolor="#e5473909"] ;
451 -> 453 ;
454 [label=<Sp. Defense &le; 79.5<br/>gini = 0.87<br/>samples = 20<br/>value = [2, 3, 2, 0, 0, 0, 0, 0, 1, 0, 0, 0, 2, 3, 0<br/>1, 2, 4]<br/>class = Water>, fillcolor="#e547390f"] ;
453 -> 454 ;
455 [label=<Sp. Attack &le; 69.0<br/>gini = 0.765<br/>samples = 9<br/>value = [0, 3, 1, 0, 0, 0, 0, 0, 0, 0, 0, 0, 2, 2, 0<br/>1, 0, 0]<br/>class = Dark>, fillcolor="#e5ba3924"] ;
454 -> 455 ;
456 [label=<Speed &le; 76.5<br/>gini = 0.611<br/>samples = 6<br/>value = [0, 3, 0, 0, 0, 0, 0, 0, 0, 0, 0, 0, 0, 2, 0<br/>1, 0, 0]<br/>class = Dark>, fillcolor="#e5ba3940"] ;
455 -> 456 ;
457 [label=<HP &le; 71.0<br/>gini = 0.375<br/>samples = 4<br/>value = [0, 3, 0, 0, 0, 0, 0, 0, 0, 0, 0, 0, 0, 0, 0<br/>1, 0, 0]<br/>class = Dark>, fillcolor="#e5ba39aa"] ;
456 -> 457 ;
458 [label=<HP &le; 60.0<br/>gini = 0.5<br/>samples = 2<br/>value = [0, 1, 0, 0, 0, 0, 0, 0, 0, 0, 0, 0, 0, 0, 0<br/>1, 0, 0]<br/>class = Dark>, fillcolor="#e5ba3900"] ;
457 -> 458 ;
459 [label=<gini = 0.0<br/>samples = 1<br/>value = [0, 1, 0, 0, 0, 0, 0, 0, 0, 0, 0, 0, 0, 0, 0<br/>0, 0, 0]<br/>class = Dark>, fillcolor="#e5ba39ff"] ;
458 -> 459 ;
460 [label=<gini = 0.0<br/>samples = 1<br/>value = [0, 0, 0, 0, 0, 0, 0, 0, 0, 0, 0, 0, 0, 0, 0<br/>1, 0, 0]<br/>class = Rock>, fillcolor="#e5399dff"] ;
458 -> 460 ;
461 [label=<gini = 0.0<br/>samples = 2<br/>value = [0, 2, 0, 0, 0, 0, 0, 0, 0, 0, 0, 0, 0, 0, 0<br/>0, 0, 0]<br/>class = Dark>, fillcolor="#e5ba39ff"] ;
457 -> 461 ;
462 [label=<gini = 0.0<br/>samples = 2<br/>value = [0, 0, 0, 0, 0, 0, 0, 0, 0, 0, 0, 0, 0, 2, 0<br/>0, 0, 0]<br/>class = Poison>, fillcolor="#ba39e5ff"] ;
456 -> 462 ;
463 [label=<Attack &le; 82.0<br/>gini = 0.444<br/>samples = 3<br/>value = [0, 0, 1, 0, 0, 0, 0, 0, 0, 0, 0, 0, 2, 0, 0<br/>0, 0, 0]<br/>class = Normal>, fillcolor="#8139e57f"] ;
455 -> 463 ;
464 [label=<gini = 0.0<br/>samples = 2<br/>value = [0, 0, 0, 0, 0, 0, 0, 0, 0, 0, 0, 0, 2, 0, 0<br/>0, 0, 0]<br/>class = Normal>, fillcolor="#8139e5ff"] ;
463 -> 464 ;
465 [label=<gini = 0.0<br/>samples = 1<br/>value = [0, 0, 1, 0, 0, 0, 0, 0, 0, 0, 0, 0, 0, 0, 0<br/>0, 0, 0]<br/>class = Dragon>, fillcolor="#d7e539ff"] ;
463 -> 465 ;
466 [label=<Sp. Defense &le; 100.0<br/>gini = 0.777<br/>samples = 11<br/>value = [2, 0, 1, 0, 0, 0, 0, 0, 1, 0, 0, 0, 0, 1, 0<br/>0, 2, 4]<br/>class = Water>, fillcolor="#e5473939"] ;
454 -> 466 ;
467 [label=<Speed &le; 111.0<br/>gini = 0.74<br/>samples = 10<br/>value = [2, 0, 0, 0, 0, 0, 0, 0, 1, 0, 0, 0, 0, 1, 0<br/>0, 2, 4]<br/>class = Water>, fillcolor="#e5473940"] ;
466 -> 467 ;
468 [label=<Attack &le; 97.5<br/>gini = 0.691<br/>samples = 9<br/>value = [2, 0, 0, 0, 0, 0, 0, 0, 1, 0, 0, 0, 0, 0, 0<br/>0, 2, 4]<br/>class = Water>, fillcolor="#e5473949"] ;
467 -> 468 ;
469 [label=<Speed &le; 54.0<br/>gini = 0.5<br/>samples = 6<br/>value = [1, 0, 0, 0, 0, 0, 0, 0, 0, 0, 0, 0, 0, 0, 0<br/>0, 1, 4]<br/>class = Water>, fillcolor="#e5473999"] ;
468 -> 469 ;
470 [label=<Sp. Attack &le; 69.5<br/>gini = 0.5<br/>samples = 2<br/>value = [1, 0, 0, 0, 0, 0, 0, 0, 0, 0, 0, 0, 0, 0, 0<br/>0, 1, 0]<br/>class = Bug>, fillcolor="#e5813900"] ;
469 -> 470 ;
471 [label=<gini = 0.0<br/>samples = 1<br/>value = [1, 0, 0, 0, 0, 0, 0, 0, 0, 0, 0, 0, 0, 0, 0<br/>0, 0, 0]<br/>class = Bug>, fillcolor="#e58139ff"] ;
470 -> 471 ;
472 [label=<gini = 0.0<br/>samples = 1<br/>value = [0, 0, 0, 0, 0, 0, 0, 0, 0, 0, 0, 0, 0, 0, 0<br/>0, 1, 0]<br/>class = Steel>, fillcolor="#e53964ff"] ;
470 -> 472 ;
473 [label=<gini = 0.0<br/>samples = 4<br/>value = [0, 0, 0, 0, 0, 0, 0, 0, 0, 0, 0, 0, 0, 0, 0<br/>0, 0, 4]<br/>class = Water>, fillcolor="#e54739ff"] ;
469 -> 473 ;
474 [label=<Speed &le; 73.0<br/>gini = 0.667<br/>samples = 3<br/>value = [1, 0, 0, 0, 0, 0, 0, 0, 1, 0, 0, 0, 0, 0, 0<br/>0, 1, 0]<br/>class = Bug>, fillcolor="#e5813900"] ;
468 -> 474 ;
475 [label=<gini = 0.0<br/>samples = 1<br/>value = [0, 0, 0, 0, 0, 0, 0, 0, 1, 0, 0, 0, 0, 0, 0<br/>0, 0, 0]<br/>class = Ghost>, fillcolor="#39d7e5ff"] ;
474 -> 475 ;
476 [label=<Defense &le; 97.5<br/>gini = 0.5<br/>samples = 2<br/>value = [1, 0, 0, 0, 0, 0, 0, 0, 0, 0, 0, 0, 0, 0, 0<br/>0, 1, 0]<br/>class = Bug>, fillcolor="#e5813900"] ;
474 -> 476 ;
477 [label=<gini = 0.0<br/>samples = 1<br/>value = [1, 0, 0, 0, 0, 0, 0, 0, 0, 0, 0, 0, 0, 0, 0<br/>0, 0, 0]<br/>class = Bug>, fillcolor="#e58139ff"] ;
476 -> 477 ;
478 [label=<gini = 0.0<br/>samples = 1<br/>value = [0, 0, 0, 0, 0, 0, 0, 0, 0, 0, 0, 0, 0, 0, 0<br/>0, 1, 0]<br/>class = Steel>, fillcolor="#e53964ff"] ;
476 -> 478 ;
479 [label=<gini = 0.0<br/>samples = 1<br/>value = [0, 0, 0, 0, 0, 0, 0, 0, 0, 0, 0, 0, 0, 1, 0<br/>0, 0, 0]<br/>class = Poison>, fillcolor="#ba39e5ff"] ;
467 -> 479 ;
480 [label=<gini = 0.0<br/>samples = 1<br/>value = [0, 0, 1, 0, 0, 0, 0, 0, 0, 0, 0, 0, 0, 0, 0<br/>0, 0, 0]<br/>class = Dragon>, fillcolor="#d7e539ff"] ;
466 -> 480 ;
481 [label=<Sp. Attack &le; 81.5<br/>gini = 0.858<br/>samples = 47<br/>value = [2, 0, 0, 2, 1, 1, 4, 1, 0, 12, 1, 4, 1, 4<br/>2, 0, 2, 10]<br/>class = Grass>, fillcolor="#399de50e"] ;
453 -> 481 ;
482 [label=<Sp. Defense &le; 98.5<br/>gini = 0.858<br/>samples = 18<br/>value = [2, 0, 0, 2, 0, 1, 1, 0, 0, 4, 1, 4, 0, 1, 0<br/>0, 1, 1]<br/>class = Grass>, fillcolor="#399de500"] ;
481 -> 482 ;
483 [label=<Defense &le; 82.5<br/>gini = 0.836<br/>samples = 16<br/>value = [0, 0, 0, 2, 0, 1, 1, 0, 0, 4, 1, 4, 0, 1, 0<br/>0, 1, 1]<br/>class = Grass>, fillcolor="#399de500"] ;
482 -> 483 ;
484 [label=<Attack &le; 82.5<br/>gini = 0.793<br/>samples = 11<br/>value = [0, 0, 0, 2, 0, 1, 1, 0, 0, 1, 1, 4, 0, 0, 0<br/>0, 0, 1]<br/>class = Ice>, fillcolor="#4739e539"] ;
483 -> 484 ;
485 [label=<Defense &le; 64.0<br/>gini = 0.5<br/>samples = 6<br/>value = [0, 0, 0, 0, 0, 0, 0, 0, 0, 1, 0, 4, 0, 0, 0<br/>0, 0, 1]<br/>class = Ice>, fillcolor="#4739e599"] ;
484 -> 485 ;
486 [label=<gini = 0.0<br/>samples = 1<br/>value = [0, 0, 0, 0, 0, 0, 0, 0, 0, 1, 0, 0, 0, 0, 0<br/>0, 0, 0]<br/>class = Grass>, fillcolor="#399de5ff"] ;
485 -> 486 ;
487 [label=<Defense &le; 75.0<br/>gini = 0.32<br/>samples = 5<br/>value = [0, 0, 0, 0, 0, 0, 0, 0, 0, 0, 0, 4, 0, 0, 0<br/>0, 0, 1]<br/>class = Ice>, fillcolor="#4739e5bf"] ;
485 -> 487 ;
488 [label=<gini = 0.0<br/>samples = 3<br/>value = [0, 0, 0, 0, 0, 0, 0, 0, 0, 0, 0, 3, 0, 0, 0<br/>0, 0, 0]<br/>class = Ice>, fillcolor="#4739e5ff"] ;
487 -> 488 ;
489 [label=<gini = 0.5<br/>samples = 2<br/>value = [0, 0, 0, 0, 0, 0, 0, 0, 0, 0, 0, 1, 0, 0, 0<br/>0, 0, 1]<br/>class = Ice>, fillcolor="#4739e500"] ;
487 -> 489 ;
490 [label=<Defense &le; 72.5<br/>gini = 0.72<br/>samples = 5<br/>value = [0, 0, 0, 2, 0, 1, 1, 0, 0, 0, 1, 0, 0, 0, 0<br/>0, 0, 0]<br/>class = Electric>, fillcolor="#9de53940"] ;
484 -> 490 ;
491 [label=<Sp. Defense &le; 75.0<br/>gini = 0.444<br/>samples = 3<br/>value = [0, 0, 0, 2, 0, 0, 1, 0, 0, 0, 0, 0, 0, 0, 0<br/>0, 0, 0]<br/>class = Electric>, fillcolor="#9de5397f"] ;
490 -> 491 ;
492 [label=<gini = 0.0<br/>samples = 2<br/>value = [0, 0, 0, 2, 0, 0, 0, 0, 0, 0, 0, 0, 0, 0, 0<br/>0, 0, 0]<br/>class = Electric>, fillcolor="#9de539ff"] ;
491 -> 492 ;
493 [label=<gini = 0.0<br/>samples = 1<br/>value = [0, 0, 0, 0, 0, 0, 1, 0, 0, 0, 0, 0, 0, 0, 0<br/>0, 0, 0]<br/>class = Fire>, fillcolor="#39e581ff"] ;
491 -> 493 ;
494 [label=<Speed &le; 109.0<br/>gini = 0.5<br/>samples = 2<br/>value = [0, 0, 0, 0, 0, 1, 0, 0, 0, 0, 1, 0, 0, 0, 0<br/>0, 0, 0]<br/>class = Fighting>, fillcolor="#39e54700"] ;
490 -> 494 ;
495 [label=<gini = 0.0<br/>samples = 1<br/>value = [0, 0, 0, 0, 0, 0, 0, 0, 0, 0, 1, 0, 0, 0, 0<br/>0, 0, 0]<br/>class = Ground>, fillcolor="#3964e5ff"] ;
494 -> 495 ;
496 [label=<gini = 0.0<br/>samples = 1<br/>value = [0, 0, 0, 0, 0, 1, 0, 0, 0, 0, 0, 0, 0, 0, 0<br/>0, 0, 0]<br/>class = Fighting>, fillcolor="#39e547ff"] ;
494 -> 496 ;
497 [label=<HP &le; 58.5<br/>gini = 0.56<br/>samples = 5<br/>value = [0, 0, 0, 0, 0, 0, 0, 0, 0, 3, 0, 0, 0, 1, 0<br/>0, 1, 0]<br/>class = Grass>, fillcolor="#399de57f"] ;
483 -> 497 ;
498 [label=<gini = 0.0<br/>samples = 1<br/>value = [0, 0, 0, 0, 0, 0, 0, 0, 0, 0, 0, 0, 0, 0, 0<br/>0, 1, 0]<br/>class = Steel>, fillcolor="#e53964ff"] ;
497 -> 498 ;
499 [label=<HP &le; 89.0<br/>gini = 0.375<br/>samples = 4<br/>value = [0, 0, 0, 0, 0, 0, 0, 0, 0, 3, 0, 0, 0, 1, 0<br/>0, 0, 0]<br/>class = Grass>, fillcolor="#399de5aa"] ;
497 -> 499 ;
500 [label=<gini = 0.0<br/>samples = 3<br/>value = [0, 0, 0, 0, 0, 0, 0, 0, 0, 3, 0, 0, 0, 0, 0<br/>0, 0, 0]<br/>class = Grass>, fillcolor="#399de5ff"] ;
499 -> 500 ;
501 [label=<gini = 0.0<br/>samples = 1<br/>value = [0, 0, 0, 0, 0, 0, 0, 0, 0, 0, 0, 0, 0, 1, 0<br/>0, 0, 0]<br/>class = Poison>, fillcolor="#ba39e5ff"] ;
499 -> 501 ;
502 [label=<gini = 0.0<br/>samples = 2<br/>value = [2, 0, 0, 0, 0, 0, 0, 0, 0, 0, 0, 0, 0, 0, 0<br/>0, 0, 0]<br/>class = Bug>, fillcolor="#e58139ff"] ;
482 -> 502 ;
503 [label=<Attack &le; 67.5<br/>gini = 0.797<br/>samples = 29<br/>value = [0, 0, 0, 0, 1, 0, 3, 1, 0, 8, 0, 0, 1, 3, 2<br/>0, 1, 9]<br/>class = Water>, fillcolor="#e547390c"] ;
481 -> 503 ;
504 [label=<gini = 0.0<br/>samples = 2<br/>value = [0, 0, 0, 0, 0, 0, 0, 0, 0, 2, 0, 0, 0, 0, 0<br/>0, 0, 0]<br/>class = Grass>, fillcolor="#399de5ff"] ;
503 -> 504 ;
505 [label=<Speed &le; 122.5<br/>gini = 0.804<br/>samples = 27<br/>value = [0, 0, 0, 0, 1, 0, 3, 1, 0, 6, 0, 0, 1, 3, 2<br/>0, 1, 9]<br/>class = Water>, fillcolor="#e5473924"] ;
503 -> 505 ;
506 [label=<Attack &le; 77.5<br/>gini = 0.778<br/>samples = 25<br/>value = [0, 0, 0, 0, 1, 0, 3, 0, 0, 6, 0, 0, 1, 3, 1<br/>0, 1, 9]<br/>class = Water>, fillcolor="#e5473928"] ;
505 -> 506 ;
507 [label=<Sp. Defense &le; 77.5<br/>gini = 0.375<br/>samples = 4<br/>value = [0, 0, 0, 0, 0, 0, 0, 0, 0, 0, 0, 0, 0, 0, 1<br/>0, 0, 3]<br/>class = Water>, fillcolor="#e54739aa"] ;
506 -> 507 ;
508 [label=<gini = 0.0<br/>samples = 1<br/>value = [0, 0, 0, 0, 0, 0, 0, 0, 0, 0, 0, 0, 0, 0, 1<br/>0, 0, 0]<br/>class = Psychic>, fillcolor="#e539d7ff"] ;
507 -> 508 ;
509 [label=<gini = 0.0<br/>samples = 3<br/>value = [0, 0, 0, 0, 0, 0, 0, 0, 0, 0, 0, 0, 0, 0, 0<br/>0, 0, 3]<br/>class = Water>, fillcolor="#e54739ff"] ;
507 -> 509 ;
510 [label=<HP &le; 79.5<br/>gini = 0.789<br/>samples = 21<br/>value = [0, 0, 0, 0, 1, 0, 3, 0, 0, 6, 0, 0, 1, 3, 0<br/>0, 1, 6]<br/>class = Grass>, fillcolor="#399de500"] ;
506 -> 510 ;
511 [label=<Attack &le; 81.5<br/>gini = 0.681<br/>samples = 12<br/>value = [0, 0, 0, 0, 0, 0, 2, 0, 0, 2, 0, 0, 1, 1, 0<br/>0, 0, 6]<br/>class = Water>, fillcolor="#e5473966"] ;
510 -> 511 ;
512 [label=<gini = 0.0<br/>samples = 1<br/>value = [0, 0, 0, 0, 0, 0, 0, 0, 0, 0, 0, 0, 1, 0, 0<br/>0, 0, 0]<br/>class = Normal>, fillcolor="#8139e5ff"] ;
511 -> 512 ;
513 [label=<Speed &le; 26.0<br/>gini = 0.628<br/>samples = 11<br/>value = [0, 0, 0, 0, 0, 0, 2, 0, 0, 2, 0, 0, 0, 1, 0<br/>0, 0, 6]<br/>class = Water>, fillcolor="#e5473971"] ;
511 -> 513 ;
514 [label=<gini = 0.0<br/>samples = 1<br/>value = [0, 0, 0, 0, 0, 0, 1, 0, 0, 0, 0, 0, 0, 0, 0<br/>0, 0, 0]<br/>class = Fire>, fillcolor="#39e581ff"] ;
513 -> 514 ;
515 [label=<Defense &le; 86.0<br/>gini = 0.58<br/>samples = 10<br/>value = [0, 0, 0, 0, 0, 0, 1, 0, 0, 2, 0, 0, 0, 1, 0<br/>0, 0, 6]<br/>class = Water>, fillcolor="#e547397f"] ;
513 -> 515 ;
516 [label=<Attack &le; 96.5<br/>gini = 0.611<br/>samples = 6<br/>value = [0, 0, 0, 0, 0, 0, 1, 0, 0, 2, 0, 0, 0, 0, 0<br/>0, 0, 3]<br/>class = Water>, fillcolor="#e5473940"] ;
515 -> 516 ;
517 [label=<gini = 0.0<br/>samples = 2<br/>value = [0, 0, 0, 0, 0, 0, 0, 0, 0, 0, 0, 0, 0, 0, 0<br/>0, 0, 2]<br/>class = Water>, fillcolor="#e54739ff"] ;
516 -> 517 ;
518 [label=<Sp. Defense &le; 67.5<br/>gini = 0.625<br/>samples = 4<br/>value = [0, 0, 0, 0, 0, 0, 1, 0, 0, 2, 0, 0, 0, 0, 0<br/>0, 0, 1]<br/>class = Grass>, fillcolor="#399de555"] ;
516 -> 518 ;
519 [label=<gini = 0.667<br/>samples = 3<br/>value = [0, 0, 0, 0, 0, 0, 1, 0, 0, 1, 0, 0, 0, 0, 0<br/>0, 0, 1]<br/>class = Fire>, fillcolor="#39e58100"] ;
518 -> 519 ;
520 [label=<gini = 0.0<br/>samples = 1<br/>value = [0, 0, 0, 0, 0, 0, 0, 0, 0, 1, 0, 0, 0, 0, 0<br/>0, 0, 0]<br/>class = Grass>, fillcolor="#399de5ff"] ;
518 -> 520 ;
521 [label=<Sp. Defense &le; 72.5<br/>gini = 0.375<br/>samples = 4<br/>value = [0, 0, 0, 0, 0, 0, 0, 0, 0, 0, 0, 0, 0, 1, 0<br/>0, 0, 3]<br/>class = Water>, fillcolor="#e54739aa"] ;
515 -> 521 ;
522 [label=<Speed &le; 46.0<br/>gini = 0.5<br/>samples = 2<br/>value = [0, 0, 0, 0, 0, 0, 0, 0, 0, 0, 0, 0, 0, 1, 0<br/>0, 0, 1]<br/>class = Poison>, fillcolor="#ba39e500"] ;
521 -> 522 ;
523 [label=<gini = 0.0<br/>samples = 1<br/>value = [0, 0, 0, 0, 0, 0, 0, 0, 0, 0, 0, 0, 0, 0, 0<br/>0, 0, 1]<br/>class = Water>, fillcolor="#e54739ff"] ;
522 -> 523 ;
524 [label=<gini = 0.0<br/>samples = 1<br/>value = [0, 0, 0, 0, 0, 0, 0, 0, 0, 0, 0, 0, 0, 1, 0<br/>0, 0, 0]<br/>class = Poison>, fillcolor="#ba39e5ff"] ;
522 -> 524 ;
525 [label=<gini = 0.0<br/>samples = 2<br/>value = [0, 0, 0, 0, 0, 0, 0, 0, 0, 0, 0, 0, 0, 0, 0<br/>0, 0, 2]<br/>class = Water>, fillcolor="#e54739ff"] ;
521 -> 525 ;
526 [label=<Speed &le; 82.5<br/>gini = 0.716<br/>samples = 9<br/>value = [0, 0, 0, 0, 1, 0, 1, 0, 0, 4, 0, 0, 0, 2, 0<br/>0, 1, 0]<br/>class = Grass>, fillcolor="#399de549"] ;
510 -> 526 ;
527 [label=<Attack &le; 81.0<br/>gini = 0.32<br/>samples = 5<br/>value = [0, 0, 0, 0, 1, 0, 0, 0, 0, 4, 0, 0, 0, 0, 0<br/>0, 0, 0]<br/>class = Grass>, fillcolor="#399de5bf"] ;
526 -> 527 ;
528 [label=<gini = 0.0<br/>samples = 1<br/>value = [0, 0, 0, 0, 1, 0, 0, 0, 0, 0, 0, 0, 0, 0, 0<br/>0, 0, 0]<br/>class = Fairy>, fillcolor="#64e539ff"] ;
527 -> 528 ;
529 [label=<gini = 0.0<br/>samples = 4<br/>value = [0, 0, 0, 0, 0, 0, 0, 0, 0, 4, 0, 0, 0, 0, 0<br/>0, 0, 0]<br/>class = Grass>, fillcolor="#399de5ff"] ;
527 -> 529 ;
530 [label=<Speed &le; 90.0<br/>gini = 0.625<br/>samples = 4<br/>value = [0, 0, 0, 0, 0, 0, 1, 0, 0, 0, 0, 0, 0, 2, 0<br/>0, 1, 0]<br/>class = Poison>, fillcolor="#ba39e555"] ;
526 -> 530 ;
531 [label=<gini = 0.0<br/>samples = 2<br/>value = [0, 0, 0, 0, 0, 0, 0, 0, 0, 0, 0, 0, 0, 2, 0<br/>0, 0, 0]<br/>class = Poison>, fillcolor="#ba39e5ff"] ;
530 -> 531 ;
532 [label=<Speed &le; 101.5<br/>gini = 0.5<br/>samples = 2<br/>value = [0, 0, 0, 0, 0, 0, 1, 0, 0, 0, 0, 0, 0, 0, 0<br/>0, 1, 0]<br/>class = Fire>, fillcolor="#39e58100"] ;
530 -> 532 ;
533 [label=<gini = 0.0<br/>samples = 1<br/>value = [0, 0, 0, 0, 0, 0, 1, 0, 0, 0, 0, 0, 0, 0, 0<br/>0, 0, 0]<br/>class = Fire>, fillcolor="#39e581ff"] ;
532 -> 533 ;
534 [label=<gini = 0.0<br/>samples = 1<br/>value = [0, 0, 0, 0, 0, 0, 0, 0, 0, 0, 0, 0, 0, 0, 0<br/>0, 1, 0]<br/>class = Steel>, fillcolor="#e53964ff"] ;
532 -> 534 ;
535 [label=<Sp. Attack &le; 96.0<br/>gini = 0.5<br/>samples = 2<br/>value = [0, 0, 0, 0, 0, 0, 0, 1, 0, 0, 0, 0, 0, 0, 1<br/>0, 0, 0]<br/>class = Flying>, fillcolor="#39e5ba00"] ;
505 -> 535 ;
536 [label=<gini = 0.0<br/>samples = 1<br/>value = [0, 0, 0, 0, 0, 0, 0, 0, 0, 0, 0, 0, 0, 0, 1<br/>0, 0, 0]<br/>class = Psychic>, fillcolor="#e539d7ff"] ;
535 -> 536 ;
537 [label=<gini = 0.0<br/>samples = 1<br/>value = [0, 0, 0, 0, 0, 0, 0, 1, 0, 0, 0, 0, 0, 0, 0<br/>0, 0, 0]<br/>class = Flying>, fillcolor="#39e5baff"] ;
535 -> 537 ;
538 [label=<Attack &le; 88.0<br/>gini = 0.871<br/>samples = 42<br/>value = [1, 3, 0, 7, 0, 1, 10, 1, 2, 6, 0, 2, 2, 0<br/>3, 1, 0, 3]<br/>class = Fire>, fillcolor="#39e58116"] ;
406 -> 538 ;
539 [label=<HP &le; 81.0<br/>gini = 0.856<br/>samples = 27<br/>value = [1, 0, 0, 6, 0, 0, 3, 0, 2, 6, 0, 1, 2, 0, 2<br/>1, 0, 3]<br/>class = Electric>, fillcolor="#9de53900"] ;
538 -> 539 ;
540 [label=<HP &le; 76.5<br/>gini = 0.803<br/>samples = 19<br/>value = [0, 0, 0, 4, 0, 0, 3, 0, 2, 6, 0, 1, 0, 0, 2<br/>1, 0, 0]<br/>class = Grass>, fillcolor="#399de522"] ;
539 -> 540 ;
541 [label=<Attack &le; 77.5<br/>gini = 0.782<br/>samples = 17<br/>value = [0, 0, 0, 4, 0, 0, 1, 0, 2, 6, 0, 1, 0, 0, 2<br/>1, 0, 0]<br/>class = Grass>, fillcolor="#399de527"] ;
540 -> 541 ;
542 [label=<Sp. Defense &le; 72.5<br/>gini = 0.816<br/>samples = 14<br/>value = [0, 0, 0, 4, 0, 0, 1, 0, 2, 3, 0, 1, 0, 0, 2<br/>1, 0, 0]<br/>class = Electric>, fillcolor="#9de53917"] ;
541 -> 542 ;
543 [label=<Speed &le; 62.5<br/>gini = 0.444<br/>samples = 3<br/>value = [0, 0, 0, 2, 0, 0, 0, 0, 0, 0, 0, 0, 0, 0, 0<br/>1, 0, 0]<br/>class = Electric>, fillcolor="#9de5397f"] ;
542 -> 543 ;
544 [label=<gini = 0.0<br/>samples = 1<br/>value = [0, 0, 0, 0, 0, 0, 0, 0, 0, 0, 0, 0, 0, 0, 0<br/>1, 0, 0]<br/>class = Rock>, fillcolor="#e5399dff"] ;
543 -> 544 ;
545 [label=<gini = 0.0<br/>samples = 2<br/>value = [0, 0, 0, 2, 0, 0, 0, 0, 0, 0, 0, 0, 0, 0, 0<br/>0, 0, 0]<br/>class = Electric>, fillcolor="#9de539ff"] ;
543 -> 545 ;
546 [label=<HP &le; 62.5<br/>gini = 0.81<br/>samples = 11<br/>value = [0, 0, 0, 2, 0, 0, 1, 0, 2, 3, 0, 1, 0, 0, 2<br/>0, 0, 0]<br/>class = Grass>, fillcolor="#399de51c"] ;
542 -> 546 ;
547 [label=<Attack &le; 67.5<br/>gini = 0.444<br/>samples = 3<br/>value = [0, 0, 0, 0, 0, 0, 0, 0, 2, 1, 0, 0, 0, 0, 0<br/>0, 0, 0]<br/>class = Ghost>, fillcolor="#39d7e57f"] ;
546 -> 547 ;
548 [label=<gini = 0.0<br/>samples = 2<br/>value = [0, 0, 0, 0, 0, 0, 0, 0, 2, 0, 0, 0, 0, 0, 0<br/>0, 0, 0]<br/>class = Ghost>, fillcolor="#39d7e5ff"] ;
547 -> 548 ;
549 [label=<gini = 0.0<br/>samples = 1<br/>value = [0, 0, 0, 0, 0, 0, 0, 0, 0, 1, 0, 0, 0, 0, 0<br/>0, 0, 0]<br/>class = Grass>, fillcolor="#399de5ff"] ;
547 -> 549 ;
550 [label=<Sp. Defense &le; 87.5<br/>gini = 0.781<br/>samples = 8<br/>value = [0, 0, 0, 2, 0, 0, 1, 0, 0, 2, 0, 1, 0, 0, 2<br/>0, 0, 0]<br/>class = Electric>, fillcolor="#9de53900"] ;
546 -> 550 ;
551 [label=<gini = 0.0<br/>samples = 2<br/>value = [0, 0, 0, 0, 0, 0, 0, 0, 0, 2, 0, 0, 0, 0, 0<br/>0, 0, 0]<br/>class = Grass>, fillcolor="#399de5ff"] ;
550 -> 551 ;
552 [label=<Sp. Defense &le; 97.5<br/>gini = 0.722<br/>samples = 6<br/>value = [0, 0, 0, 2, 0, 0, 1, 0, 0, 0, 0, 1, 0, 0, 2<br/>0, 0, 0]<br/>class = Electric>, fillcolor="#9de53900"] ;
550 -> 552 ;
553 [label=<Attack &le; 62.5<br/>gini = 0.64<br/>samples = 5<br/>value = [0, 0, 0, 2, 0, 0, 0, 0, 0, 0, 0, 1, 0, 0, 2<br/>0, 0, 0]<br/>class = Electric>, fillcolor="#9de53900"] ;
552 -> 553 ;
554 [label=<gini = 0.0<br/>samples = 1<br/>value = [0, 0, 0, 0, 0, 0, 0, 0, 0, 0, 0, 1, 0, 0, 0<br/>0, 0, 0]<br/>class = Ice>, fillcolor="#4739e5ff"] ;
553 -> 554 ;
555 [label=<Sp. Attack &le; 117.5<br/>gini = 0.5<br/>samples = 4<br/>value = [0, 0, 0, 2, 0, 0, 0, 0, 0, 0, 0, 0, 0, 0, 2<br/>0, 0, 0]<br/>class = Electric>, fillcolor="#9de53900"] ;
553 -> 555 ;
556 [label=<gini = 0.0<br/>samples = 1<br/>value = [0, 0, 0, 1, 0, 0, 0, 0, 0, 0, 0, 0, 0, 0, 0<br/>0, 0, 0]<br/>class = Electric>, fillcolor="#9de539ff"] ;
555 -> 556 ;
