digraph Tree {
node [shape=box, style="filled, rounded", color="black", fontname=helvetica] ;
edge [fontname=helvetica] ;
0 [label=<Sp. Attack &le; 61.5<br/>gini = 0.923<br/>samples = 600<br/>value = [47, 21, 21, 34, 12, 21, 37, 1, 27, 57, 28, 19<br/>72, 24, 42, 31, 19, 87]<br/>class = Water>, fillcolor="#e5473907"] ;
1 [label=<Defense &le; 84.5<br/>gini = 0.91<br/>samples = 289<br/>value = [36, 10, 9, 9, 6, 17, 7, 0, 12, 17, 19, 7, 51<br/>15, 5, 19, 13, 37]<br/>class = Normal>, fillcolor="#8139e50e"] ;
0 -> 1 [labeldistance=2.5, labelangle=45, headlabel="True"] ;
2 [label=<Sp. Attack &le; 29.5<br/>gini = 0.893<br/>samples = 218<br/>value = [27, 7, 6, 9, 6, 14, 7, 0, 6, 13, 12, 5, 48<br/>12, 5, 7, 2, 32]<br/>class = Normal>, fillcolor="#8139e516"] ;
1 -> 2 ;
3 [label=<HP &le; 52.5<br/>gini = 0.675<br/>samples = 20<br/>value = [10, 0, 0, 0, 0, 2, 0, 0, 0, 0, 0, 0, 4, 0<br/>1, 0, 0, 3]<br/>class = Bug>, fillcolor="#e5813960"] ;
2 -> 3 ;
4 [label=<Speed &le; 52.5<br/>gini = 0.439<br/>samples = 14<br/>value = [10, 0, 0, 0, 0, 0, 0, 0, 0, 0, 0, 0, 3, 0<br/>0, 0, 0, 1]<br/>class = Bug>, fillcolor="#e58139a2"] ;
3 -> 4 ;
5 [label=<Attack &le; 22.5<br/>gini = 0.165<br/>samples = 11<br/>value = [10, 0, 0, 0, 0, 0, 0, 0, 0, 0, 0, 0, 1, 0<br/>0, 0, 0, 0]<br/>class = Bug>, fillcolor="#e58139e6"] ;
4 -> 5 ;
6 [label=<Defense &le; 47.5<br/>gini = 0.5<br/>samples = 2<br/>value = [1, 0, 0, 0, 0, 0, 0, 0, 0, 0, 0, 0, 1, 0, 0<br/>0, 0, 0]<br/>class = Bug>, fillcolor="#e5813900"] ;
5 -> 6 ;
7 [label=<gini = 0.0<br/>samples = 1<br/>value = [0, 0, 0, 0, 0, 0, 0, 0, 0, 0, 0, 0, 1, 0, 0<br/>0, 0, 0]<br/>class = Normal>, fillcolor="#8139e5ff"] ;
6 -> 7 ;
8 [label=<gini = 0.0<br/>samples = 1<br/>value = [1, 0, 0, 0, 0, 0, 0, 0, 0, 0, 0, 0, 0, 0, 0<br/>0, 0, 0]<br/>class = Bug>, fillcolor="#e58139ff"] ;
6 -> 8 ;
9 [label=<gini = 0.0<br/>samples = 9<br/>value = [9, 0, 0, 0, 0, 0, 0, 0, 0, 0, 0, 0, 0, 0, 0<br/>0, 0, 0]<br/>class = Bug>, fillcolor="#e58139ff"] ;
5 -> 9 ;
10 [label=<Attack &le; 35.5<br/>gini = 0.444<br/>samples = 3<br/>value = [0, 0, 0, 0, 0, 0, 0, 0, 0, 0, 0, 0, 2, 0, 0<br/>0, 0, 1]<br/>class = Normal>, fillcolor="#8139e57f"] ;
4 -> 10 ;
11 [label=<gini = 0.0<br/>samples = 1<br/>value = [0, 0, 0, 0, 0, 0, 0, 0, 0, 0, 0, 0, 0, 0, 0<br/>0, 0, 1]<br/>class = Water>, fillcolor="#e54739ff"] ;
10 -> 11 ;
12 [label=<gini = 0.0<br/>samples = 2<br/>value = [0, 0, 0, 0, 0, 0, 0, 0, 0, 0, 0, 0, 2, 0, 0<br/>0, 0, 0]<br/>class = Normal>, fillcolor="#8139e5ff"] ;
10 -> 12 ;
13 [label=<HP &le; 71.0<br/>gini = 0.722<br/>samples = 6<br/>value = [0, 0, 0, 0, 0, 2, 0, 0, 0, 0, 0, 0, 1, 0, 1<br/>0, 0, 2]<br/>class = Fighting>, fillcolor="#39e54700"] ;
3 -> 13 ;
14 [label=<gini = 0.0<br/>samples = 2<br/>value = [0, 0, 0, 0, 0, 0, 0, 0, 0, 0, 0, 0, 0, 0, 0<br/>0, 0, 2]<br/>class = Water>, fillcolor="#e54739ff"] ;
13 -> 14 ;
15 [label=<Attack &le; 41.5<br/>gini = 0.625<br/>samples = 4<br/>value = [0, 0, 0, 0, 0, 2, 0, 0, 0, 0, 0, 0, 1, 0, 1<br/>0, 0, 0]<br/>class = Fighting>, fillcolor="#39e54755"] ;
13 -> 15 ;
16 [label=<HP &le; 97.5<br/>gini = 0.5<br/>samples = 2<br/>value = [0, 0, 0, 0, 0, 0, 0, 0, 0, 0, 0, 0, 1, 0, 1<br/>0, 0, 0]<br/>class = Normal>, fillcolor="#8139e500"] ;
15 -> 16 ;
17 [label=<gini = 0.0<br/>samples = 1<br/>value = [0, 0, 0, 0, 0, 0, 0, 0, 0, 0, 0, 0, 0, 0, 1<br/>0, 0, 0]<br/>class = Psychic>, fillcolor="#e539d7ff"] ;
16 -> 17 ;
18 [label=<gini = 0.0<br/>samples = 1<br/>value = [0, 0, 0, 0, 0, 0, 0, 0, 0, 0, 0, 0, 1, 0, 0<br/>0, 0, 0]<br/>class = Normal>, fillcolor="#8139e5ff"] ;
16 -> 18 ;
19 [label=<gini = 0.0<br/>samples = 2<br/>value = [0, 0, 0, 0, 0, 2, 0, 0, 0, 0, 0, 0, 0, 0, 0<br/>0, 0, 0]<br/>class = Fighting>, fillcolor="#39e547ff"] ;
15 -> 19 ;
20 [label=<Attack &le; 69.0<br/>gini = 0.897<br/>samples = 198<br/>value = [17, 7, 6, 9, 6, 12, 7, 0, 6, 13, 12, 5, 44<br/>12, 4, 7, 2, 29]<br/>class = Normal>, fillcolor="#8139e517"] ;
2 -> 20 ;
21 [label=<Sp. Defense &le; 39.5<br/>gini = 0.888<br/>samples = 121<br/>value = [6, 4, 1, 8, 5, 2, 5, 0, 5, 12, 3, 3, 26, 10<br/>4, 3, 2, 22]<br/>class = Normal>, fillcolor="#8139e50a"] ;
20 -> 21 ;
22 [label=<Sp. Attack &le; 53.0<br/>gini = 0.708<br/>samples = 24<br/>value = [0, 2, 0, 3, 0, 1, 0, 0, 0, 2, 0, 1, 12, 0<br/>1, 0, 0, 2]<br/>class = Normal>, fillcolor="#8139e56d"] ;
21 -> 22 ;
23 [label=<HP &le; 36.5<br/>gini = 0.661<br/>samples = 22<br/>value = [0, 2, 0, 3, 0, 1, 0, 0, 0, 2, 0, 1, 12, 0<br/>1, 0, 0, 0]<br/>class = Normal>, fillcolor="#8139e579"] ;
22 -> 23 ;
24 [label=<Defense &le; 20.0<br/>gini = 0.8<br/>samples = 5<br/>value = [0, 1, 0, 1, 0, 1, 0, 0, 0, 1, 0, 0, 0, 0, 1<br/>0, 0, 0]<br/>class = Dark>, fillcolor="#e5ba3900"] ;
23 -> 24 ;
25 [label=<gini = 0.0<br/>samples = 1<br/>value = [0, 0, 0, 1, 0, 0, 0, 0, 0, 0, 0, 0, 0, 0, 0<br/>0, 0, 0]<br/>class = Electric>, fillcolor="#9de539ff"] ;
24 -> 25 ;
26 [label=<Speed &le; 32.5<br/>gini = 0.75<br/>samples = 4<br/>value = [0, 1, 0, 0, 0, 1, 0, 0, 0, 1, 0, 0, 0, 0, 1<br/>0, 0, 0]<br/>class = Dark>, fillcolor="#e5ba3900"] ;
24 -> 26 ;
27 [label=<gini = 0.0<br/>samples = 1<br/>value = [0, 0, 0, 0, 0, 0, 0, 0, 0, 1, 0, 0, 0, 0, 0<br/>0, 0, 0]<br/>class = Grass>, fillcolor="#399de5ff"] ;
26 -> 27 ;
28 [label=<Sp. Defense &le; 32.5<br/>gini = 0.667<br/>samples = 3<br/>value = [0, 1, 0, 0, 0, 1, 0, 0, 0, 0, 0, 0, 0, 0, 1<br/>0, 0, 0]<br/>class = Dark>, fillcolor="#e5ba3900"] ;
26 -> 28 ;
29 [label=<gini = 0.0<br/>samples = 1<br/>value = [0, 1, 0, 0, 0, 0, 0, 0, 0, 0, 0, 0, 0, 0, 0<br/>0, 0, 0]<br/>class = Dark>, fillcolor="#e5ba39ff"] ;
28 -> 29 ;
30 [label=<Speed &le; 37.5<br/>gini = 0.5<br/>samples = 2<br/>value = [0, 0, 0, 0, 0, 1, 0, 0, 0, 0, 0, 0, 0, 0, 1<br/>0, 0, 0]<br/>class = Fighting>, fillcolor="#39e54700"] ;
28 -> 30 ;
31 [label=<gini = 0.0<br/>samples = 1<br/>value = [0, 0, 0, 0, 0, 1, 0, 0, 0, 0, 0, 0, 0, 0, 0<br/>0, 0, 0]<br/>class = Fighting>, fillcolor="#39e547ff"] ;
30 -> 31 ;
32 [label=<gini = 0.0<br/>samples = 1<br/>value = [0, 0, 0, 0, 0, 0, 0, 0, 0, 0, 0, 0, 0, 0, 1<br/>0, 0, 0]<br/>class = Psychic>, fillcolor="#e539d7ff"] ;
30 -> 32 ;
33 [label=<Attack &le; 57.5<br/>gini = 0.478<br/>samples = 17<br/>value = [0, 1, 0, 2, 0, 0, 0, 0, 0, 1, 0, 1, 12, 0<br/>0, 0, 0, 0]<br/>class = Normal>, fillcolor="#8139e5aa"] ;
23 -> 33 ;
34 [label=<Defense &le; 47.5<br/>gini = 0.367<br/>samples = 14<br/>value = [0, 1, 0, 0, 0, 0, 0, 0, 0, 1, 0, 1, 11, 0<br/>0, 0, 0, 0]<br/>class = Normal>, fillcolor="#8139e5c4"] ;
33 -> 34 ;
35 [label=<Sp. Attack &le; 47.5<br/>gini = 0.272<br/>samples = 13<br/>value = [0, 1, 0, 0, 0, 0, 0, 0, 0, 0, 0, 1, 11, 0<br/>0, 0, 0, 0]<br/>class = Normal>, fillcolor="#8139e5d4"] ;
34 -> 35 ;
36 [label=<Sp. Attack &le; 31.0<br/>gini = 0.165<br/>samples = 11<br/>value = [0, 0, 0, 0, 0, 0, 0, 0, 0, 0, 0, 1, 10, 0<br/>0, 0, 0, 0]<br/>class = Normal>, fillcolor="#8139e5e6"] ;
35 -> 36 ;
37 [label=<Speed &le; 55.0<br/>gini = 0.444<br/>samples = 3<br/>value = [0, 0, 0, 0, 0, 0, 0, 0, 0, 0, 0, 1, 2, 0, 0<br/>0, 0, 0]<br/>class = Normal>, fillcolor="#8139e57f"] ;
36 -> 37 ;
38 [label=<gini = 0.0<br/>samples = 1<br/>value = [0, 0, 0, 0, 0, 0, 0, 0, 0, 0, 0, 1, 0, 0, 0<br/>0, 0, 0]<br/>class = Ice>, fillcolor="#4739e5ff"] ;
37 -> 38 ;
39 [label=<gini = 0.0<br/>samples = 2<br/>value = [0, 0, 0, 0, 0, 0, 0, 0, 0, 0, 0, 0, 2, 0, 0<br/>0, 0, 0]<br/>class = Normal>, fillcolor="#8139e5ff"] ;
37 -> 39 ;
40 [label=<gini = 0.0<br/>samples = 8<br/>value = [0, 0, 0, 0, 0, 0, 0, 0, 0, 0, 0, 0, 8, 0, 0<br/>0, 0, 0]<br/>class = Normal>, fillcolor="#8139e5ff"] ;
36 -> 40 ;
41 [label=<Sp. Defense &le; 30.0<br/>gini = 0.5<br/>samples = 2<br/>value = [0, 1, 0, 0, 0, 0, 0, 0, 0, 0, 0, 0, 1, 0, 0<br/>0, 0, 0]<br/>class = Dark>, fillcolor="#e5ba3900"] ;
35 -> 41 ;
42 [label=<gini = 0.0<br/>samples = 1<br/>value = [0, 0, 0, 0, 0, 0, 0, 0, 0, 0, 0, 0, 1, 0, 0<br/>0, 0, 0]<br/>class = Normal>, fillcolor="#8139e5ff"] ;
41 -> 42 ;
43 [label=<gini = 0.0<br/>samples = 1<br/>value = [0, 1, 0, 0, 0, 0, 0, 0, 0, 0, 0, 0, 0, 0, 0<br/>0, 0, 0]<br/>class = Dark>, fillcolor="#e5ba39ff"] ;
41 -> 43 ;
44 [label=<gini = 0.0<br/>samples = 1<br/>value = [0, 0, 0, 0, 0, 0, 0, 0, 0, 1, 0, 0, 0, 0, 0<br/>0, 0, 0]<br/>class = Grass>, fillcolor="#399de5ff"] ;
34 -> 44 ;
45 [label=<Defense &le; 47.0<br/>gini = 0.444<br/>samples = 3<br/>value = [0, 0, 0, 2, 0, 0, 0, 0, 0, 0, 0, 0, 1, 0, 0<br/>0, 0, 0]<br/>class = Electric>, fillcolor="#9de5397f"] ;
33 -> 45 ;
46 [label=<gini = 0.0<br/>samples = 2<br/>value = [0, 0, 0, 2, 0, 0, 0, 0, 0, 0, 0, 0, 0, 0, 0<br/>0, 0, 0]<br/>class = Electric>, fillcolor="#9de539ff"] ;
45 -> 46 ;
47 [label=<gini = 0.0<br/>samples = 1<br/>value = [0, 0, 0, 0, 0, 0, 0, 0, 0, 0, 0, 0, 1, 0, 0<br/>0, 0, 0]<br/>class = Normal>, fillcolor="#8139e5ff"] ;
45 -> 47 ;
48 [label=<gini = 0.0<br/>samples = 2<br/>value = [0, 0, 0, 0, 0, 0, 0, 0, 0, 0, 0, 0, 0, 0, 0<br/>0, 0, 2]<br/>class = Water>, fillcolor="#e54739ff"] ;
22 -> 48 ;
49 [label=<Attack &le; 65.5<br/>gini = 0.897<br/>samples = 97<br/>value = [6, 2, 1, 5, 5, 1, 5, 0, 5, 10, 3, 2, 14, 10<br/>3, 3, 2, 20]<br/>class = Water>, fillcolor="#e5473912"] ;
21 -> 49 ;
50 [label=<Sp. Attack &le; 43.5<br/>gini = 0.892<br/>samples = 91<br/>value = [6, 2, 1, 5, 5, 1, 5, 0, 1, 9, 3, 2, 14, 10<br/>3, 3, 2, 19]<br/>class = Water>, fillcolor="#e5473911"] ;
49 -> 50 ;
51 [label=<Attack &le; 41.5<br/>gini = 0.861<br/>samples = 32<br/>value = [5, 1, 0, 0, 1, 0, 0, 0, 0, 3, 3, 0, 6, 7, 1<br/>1, 1, 3]<br/>class = Poison>, fillcolor="#ba39e50a"] ;
50 -> 51 ;
52 [label=<Speed &le; 34.0<br/>gini = 0.805<br/>samples = 13<br/>value = [2, 0, 0, 0, 1, 0, 0, 0, 0, 3, 1, 0, 4, 0, 1<br/>0, 0, 1]<br/>class = Normal>, fillcolor="#8139e51a"] ;
51 -> 52 ;
53 [label=<Sp. Defense &le; 54.0<br/>gini = 0.667<br/>samples = 3<br/>value = [0, 0, 0, 0, 1, 0, 0, 0, 0, 0, 0, 0, 0, 0, 1<br/>0, 0, 1]<br/>class = Fairy>, fillcolor="#64e53900"] ;
52 -> 53 ;
54 [label=<gini = 0.0<br/>samples = 1<br/>value = [0, 0, 0, 0, 0, 0, 0, 0, 0, 0, 0, 0, 0, 0, 0<br/>0, 0, 1]<br/>class = Water>, fillcolor="#e54739ff"] ;
53 -> 54 ;
55 [label=<Attack &le; 26.5<br/>gini = 0.5<br/>samples = 2<br/>value = [0, 0, 0, 0, 1, 0, 0, 0, 0, 0, 0, 0, 0, 0, 1<br/>0, 0, 0]<br/>class = Fairy>, fillcolor="#64e53900"] ;
53 -> 55 ;
56 [label=<gini = 0.0<br/>samples = 1<br/>value = [0, 0, 0, 0, 1, 0, 0, 0, 0, 0, 0, 0, 0, 0, 0<br/>0, 0, 0]<br/>class = Fairy>, fillcolor="#64e539ff"] ;
55 -> 56 ;
57 [label=<gini = 0.0<br/>samples = 1<br/>value = [0, 0, 0, 0, 0, 0, 0, 0, 0, 0, 0, 0, 0, 0, 1<br/>0, 0, 0]<br/>class = Psychic>, fillcolor="#e539d7ff"] ;
55 -> 57 ;
58 [label=<HP &le; 42.5<br/>gini = 0.7<br/>samples = 10<br/>value = [2, 0, 0, 0, 0, 0, 0, 0, 0, 3, 1, 0, 4, 0, 0<br/>0, 0, 0]<br/>class = Normal>, fillcolor="#8139e524"] ;
52 -> 58 ;
59 [label=<Sp. Defense &le; 41.5<br/>gini = 0.722<br/>samples = 6<br/>value = [2, 0, 0, 0, 0, 0, 0, 0, 0, 2, 1, 0, 1, 0, 0<br/>0, 0, 0]<br/>class = Bug>, fillcolor="#e5813900"] ;
58 -> 59 ;
60 [label=<gini = 0.0<br/>samples = 1<br/>value = [0, 0, 0, 0, 0, 0, 0, 0, 0, 0, 0, 0, 1, 0, 0<br/>0, 0, 0]<br/>class = Normal>, fillcolor="#8139e5ff"] ;
59 -> 60 ;
61 [label=<Attack &le; 37.5<br/>gini = 0.64<br/>samples = 5<br/>value = [2, 0, 0, 0, 0, 0, 0, 0, 0, 2, 1, 0, 0, 0, 0<br/>0, 0, 0]<br/>class = Bug>, fillcolor="#e5813900"] ;
59 -> 61 ;
62 [label=<Sp. Attack &le; 32.5<br/>gini = 0.5<br/>samples = 4<br/>value = [2, 0, 0, 0, 0, 0, 0, 0, 0, 2, 0, 0, 0, 0, 0<br/>0, 0, 0]<br/>class = Bug>, fillcolor="#e5813900"] ;
61 -> 62 ;
63 [label=<gini = 0.0<br/>samples = 1<br/>value = [1, 0, 0, 0, 0, 0, 0, 0, 0, 0, 0, 0, 0, 0, 0<br/>0, 0, 0]<br/>class = Bug>, fillcolor="#e58139ff"] ;
62 -> 63 ;
64 [label=<Sp. Attack &le; 38.5<br/>gini = 0.444<br/>samples = 3<br/>value = [1, 0, 0, 0, 0, 0, 0, 0, 0, 2, 0, 0, 0, 0, 0<br/>0, 0, 0]<br/>class = Grass>, fillcolor="#399de57f"] ;
62 -> 64 ;
65 [label=<gini = 0.0<br/>samples = 2<br/>value = [0, 0, 0, 0, 0, 0, 0, 0, 0, 2, 0, 0, 0, 0, 0<br/>0, 0, 0]<br/>class = Grass>, fillcolor="#399de5ff"] ;
64 -> 65 ;
66 [label=<gini = 0.0<br/>samples = 1<br/>value = [1, 0, 0, 0, 0, 0, 0, 0, 0, 0, 0, 0, 0, 0, 0<br/>0, 0, 0]<br/>class = Bug>, fillcolor="#e58139ff"] ;
64 -> 66 ;
67 [label=<gini = 0.0<br/>samples = 1<br/>value = [0, 0, 0, 0, 0, 0, 0, 0, 0, 0, 1, 0, 0, 0, 0<br/>0, 0, 0]<br/>class = Ground>, fillcolor="#3964e5ff"] ;
61 -> 67 ;
68 [label=<Speed &le; 42.5<br/>gini = 0.375<br/>samples = 4<br/>value = [0, 0, 0, 0, 0, 0, 0, 0, 0, 1, 0, 0, 3, 0, 0<br/>0, 0, 0]<br/>class = Normal>, fillcolor="#8139e5aa"] ;
58 -> 68 ;
69 [label=<gini = 0.0<br/>samples = 1<br/>value = [0, 0, 0, 0, 0, 0, 0, 0, 0, 1, 0, 0, 0, 0, 0<br/>0, 0, 0]<br/>class = Grass>, fillcolor="#399de5ff"] ;
68 -> 69 ;
70 [label=<gini = 0.0<br/>samples = 3<br/>value = [0, 0, 0, 0, 0, 0, 0, 0, 0, 0, 0, 0, 3, 0, 0<br/>0, 0, 0]<br/>class = Normal>, fillcolor="#8139e5ff"] ;
68 -> 70 ;
71 [label=<Defense &le; 63.5<br/>gini = 0.798<br/>samples = 19<br/>value = [3, 1, 0, 0, 0, 0, 0, 0, 0, 0, 2, 0, 2, 7, 0<br/>1, 1, 2]<br/>class = Poison>, fillcolor="#ba39e540"] ;
51 -> 71 ;
72 [label=<Speed &le; 82.0<br/>gini = 0.72<br/>samples = 15<br/>value = [2, 1, 0, 0, 0, 0, 0, 0, 0, 0, 2, 0, 2, 7, 0<br/>0, 0, 1]<br/>class = Poison>, fillcolor="#ba39e562"] ;
71 -> 72 ;
73 [label=<Speed &le; 47.5<br/>gini = 0.611<br/>samples = 12<br/>value = [2, 1, 0, 0, 0, 0, 0, 0, 0, 0, 1, 0, 1, 7, 0<br/>0, 0, 0]<br/>class = Poison>, fillcolor="#ba39e580"] ;
72 -> 73 ;
74 [label=<Attack &le; 50.5<br/>gini = 0.776<br/>samples = 7<br/>value = [2, 1, 0, 0, 0, 0, 0, 0, 0, 0, 1, 0, 1, 2, 0<br/>0, 0, 0]<br/>class = Bug>, fillcolor="#e5813900"] ;
73 -> 74 ;
75 [label=<Speed &le; 35.5<br/>gini = 0.444<br/>samples = 3<br/>value = [0, 0, 0, 0, 0, 0, 0, 0, 0, 0, 0, 0, 1, 2, 0<br/>0, 0, 0]<br/>class = Poison>, fillcolor="#ba39e57f"] ;
74 -> 75 ;
76 [label=<gini = 0.0<br/>samples = 1<br/>value = [0, 0, 0, 0, 0, 0, 0, 0, 0, 0, 0, 0, 1, 0, 0<br/>0, 0, 0]<br/>class = Normal>, fillcolor="#8139e5ff"] ;
75 -> 76 ;
77 [label=<gini = 0.0<br/>samples = 2<br/>value = [0, 0, 0, 0, 0, 0, 0, 0, 0, 0, 0, 0, 0, 2, 0<br/>0, 0, 0]<br/>class = Poison>, fillcolor="#ba39e5ff"] ;
75 -> 77 ;
78 [label=<Defense &le; 51.5<br/>gini = 0.625<br/>samples = 4<br/>value = [2, 1, 0, 0, 0, 0, 0, 0, 0, 0, 1, 0, 0, 0, 0<br/>0, 0, 0]<br/>class = Bug>, fillcolor="#e5813955"] ;
74 -> 78 ;
79 [label=<gini = 0.0<br/>samples = 2<br/>value = [2, 0, 0, 0, 0, 0, 0, 0, 0, 0, 0, 0, 0, 0, 0<br/>0, 0, 0]<br/>class = Bug>, fillcolor="#e58139ff"] ;
78 -> 79 ;
80 [label=<Sp. Defense &le; 43.0<br/>gini = 0.5<br/>samples = 2<br/>value = [0, 1, 0, 0, 0, 0, 0, 0, 0, 0, 1, 0, 0, 0, 0<br/>0, 0, 0]<br/>class = Dark>, fillcolor="#e5ba3900"] ;
78 -> 80 ;
81 [label=<gini = 0.0<br/>samples = 1<br/>value = [0, 0, 0, 0, 0, 0, 0, 0, 0, 0, 1, 0, 0, 0, 0<br/>0, 0, 0]<br/>class = Ground>, fillcolor="#3964e5ff"] ;
80 -> 81 ;
82 [label=<gini = 0.0<br/>samples = 1<br/>value = [0, 1, 0, 0, 0, 0, 0, 0, 0, 0, 0, 0, 0, 0, 0<br/>0, 0, 0]<br/>class = Dark>, fillcolor="#e5ba39ff"] ;
80 -> 82 ;
83 [label=<gini = 0.0<br/>samples = 5<br/>value = [0, 0, 0, 0, 0, 0, 0, 0, 0, 0, 0, 0, 0, 5, 0<br/>0, 0, 0]<br/>class = Poison>, fillcolor="#ba39e5ff"] ;
73 -> 83 ;
84 [label=<Speed &le; 92.5<br/>gini = 0.667<br/>samples = 3<br/>value = [0, 0, 0, 0, 0, 0, 0, 0, 0, 0, 1, 0, 1, 0, 0<br/>0, 0, 1]<br/>class = Ground>, fillcolor="#3964e500"] ;
72 -> 84 ;
85 [label=<Defense &le; 37.5<br/>gini = 0.5<br/>samples = 2<br/>value = [0, 0, 0, 0, 0, 0, 0, 0, 0, 0, 0, 0, 1, 0, 0<br/>0, 0, 1]<br/>class = Normal>, fillcolor="#8139e500"] ;
84 -> 85 ;
86 [label=<gini = 0.0<br/>samples = 1<br/>value = [0, 0, 0, 0, 0, 0, 0, 0, 0, 0, 0, 0, 1, 0, 0<br/>0, 0, 0]<br/>class = Normal>, fillcolor="#8139e5ff"] ;
85 -> 86 ;
87 [label=<gini = 0.0<br/>samples = 1<br/>value = [0, 0, 0, 0, 0, 0, 0, 0, 0, 0, 0, 0, 0, 0, 0<br/>0, 0, 1]<br/>class = Water>, fillcolor="#e54739ff"] ;
85 -> 87 ;
88 [label=<gini = 0.0<br/>samples = 1<br/>value = [0, 0, 0, 0, 0, 0, 0, 0, 0, 0, 1, 0, 0, 0, 0<br/>0, 0, 0]<br/>class = Ground>, fillcolor="#3964e5ff"] ;
84 -> 88 ;
89 [label=<Speed &le; 22.5<br/>gini = 0.75<br/>samples = 4<br/>value = [1, 0, 0, 0, 0, 0, 0, 0, 0, 0, 0, 0, 0, 0, 0<br/>1, 1, 1]<br/>class = Bug>, fillcolor="#e5813900"] ;
71 -> 89 ;
90 [label=<gini = 0.0<br/>samples = 1<br/>value = [0, 0, 0, 0, 0, 0, 0, 0, 0, 0, 0, 0, 0, 0, 0<br/>0, 0, 1]<br/>class = Water>, fillcolor="#e54739ff"] ;
89 -> 90 ;
91 [label=<Speed &le; 36.0<br/>gini = 0.667<br/>samples = 3<br/>value = [1, 0, 0, 0, 0, 0, 0, 0, 0, 0, 0, 0, 0, 0, 0<br/>1, 1, 0]<br/>class = Bug>, fillcolor="#e5813900"] ;
89 -> 91 ;
92 [label=<gini = 0.0<br/>samples = 1<br/>value = [0, 0, 0, 0, 0, 0, 0, 0, 0, 0, 0, 0, 0, 0, 0<br/>0, 1, 0]<br/>class = Steel>, fillcolor="#e53964ff"] ;
91 -> 92 ;
93 [label=<Defense &le; 68.5<br/>gini = 0.5<br/>samples = 2<br/>value = [1, 0, 0, 0, 0, 0, 0, 0, 0, 0, 0, 0, 0, 0, 0<br/>1, 0, 0]<br/>class = Bug>, fillcolor="#e5813900"] ;
91 -> 93 ;
94 [label=<gini = 0.0<br/>samples = 1<br/>value = [0, 0, 0, 0, 0, 0, 0, 0, 0, 0, 0, 0, 0, 0, 0<br/>1, 0, 0]<br/>class = Rock>, fillcolor="#e5399dff"] ;
93 -> 94 ;
95 [label=<gini = 0.0<br/>samples = 1<br/>value = [1, 0, 0, 0, 0, 0, 0, 0, 0, 0, 0, 0, 0, 0, 0<br/>0, 0, 0]<br/>class = Bug>, fillcolor="#e58139ff"] ;
93 -> 95 ;
96 [label=<Attack &le; 54.0<br/>gini = 0.871<br/>samples = 59<br/>value = [1, 1, 1, 5, 4, 1, 5, 0, 1, 6, 0, 2, 8, 3, 2<br/>2, 1, 16]<br/>class = Water>, fillcolor="#e5473928"] ;
50 -> 96 ;
97 [label=<Speed &le; 83.5<br/>gini = 0.806<br/>samples = 36<br/>value = [1, 0, 1, 3, 4, 0, 3, 0, 1, 3, 0, 2, 1, 0, 2<br/>1, 0, 14]<br/>class = Water>, fillcolor="#e5473950"] ;
96 -> 97 ;
98 [label=<HP &le; 39.5<br/>gini = 0.789<br/>samples = 34<br/>value = [1, 0, 1, 1, 4, 0, 3, 0, 1, 3, 0, 2, 1, 0, 2<br/>1, 0, 14]<br/>class = Water>, fillcolor="#e5473955"] ;
97 -> 98 ;
99 [label=<gini = 0.0<br/>samples = 2<br/>value = [0, 0, 0, 0, 0, 0, 2, 0, 0, 0, 0, 0, 0, 0, 0<br/>0, 0, 0]<br/>class = Fire>, fillcolor="#39e581ff"] ;
98 -> 99 ;
100 [label=<Defense &le; 34.5<br/>gini = 0.77<br/>samples = 32<br/>value = [1, 0, 1, 1, 4, 0, 1, 0, 1, 3, 0, 2, 1, 0, 2<br/>1, 0, 14]<br/>class = Water>, fillcolor="#e547395b"] ;
98 -> 100 ;
101 [label=<HP &le; 42.0<br/>gini = 0.75<br/>samples = 4<br/>value = [1, 0, 0, 1, 1, 0, 0, 0, 1, 0, 0, 0, 0, 0, 0<br/>0, 0, 0]<br/>class = Bug>, fillcolor="#e5813900"] ;
100 -> 101 ;
102 [label=<gini = 0.0<br/>samples = 1<br/>value = [1, 0, 0, 0, 0, 0, 0, 0, 0, 0, 0, 0, 0, 0, 0<br/>0, 0, 0]<br/>class = Bug>, fillcolor="#e58139ff"] ;
101 -> 102 ;
103 [label=<Attack &le; 31.5<br/>gini = 0.667<br/>samples = 3<br/>value = [0, 0, 0, 1, 1, 0, 0, 0, 1, 0, 0, 0, 0, 0, 0<br/>0, 0, 0]<br/>class = Electric>, fillcolor="#9de53900"] ;
101 -> 103 ;
104 [label=<gini = 0.0<br/>samples = 1<br/>value = [0, 0, 0, 0, 1, 0, 0, 0, 0, 0, 0, 0, 0, 0, 0<br/>0, 0, 0]<br/>class = Fairy>, fillcolor="#64e539ff"] ;
103 -> 104 ;
105 [label=<Defense &le; 33.5<br/>gini = 0.5<br/>samples = 2<br/>value = [0, 0, 0, 1, 0, 0, 0, 0, 1, 0, 0, 0, 0, 0, 0<br/>0, 0, 0]<br/>class = Electric>, fillcolor="#9de53900"] ;
103 -> 105 ;
106 [label=<gini = 0.0<br/>samples = 1<br/>value = [0, 0, 0, 1, 0, 0, 0, 0, 0, 0, 0, 0, 0, 0, 0<br/>0, 0, 0]<br/>class = Electric>, fillcolor="#9de539ff"] ;
105 -> 106 ;
107 [label=<gini = 0.0<br/>samples = 1<br/>value = [0, 0, 0, 0, 0, 0, 0, 0, 1, 0, 0, 0, 0, 0, 0<br/>0, 0, 0]<br/>class = Ghost>, fillcolor="#39d7e5ff"] ;
105 -> 107 ;
108 [label=<Speed &le; 49.5<br/>gini = 0.712<br/>samples = 28<br/>value = [0, 0, 1, 0, 3, 0, 1, 0, 0, 3, 0, 2, 1, 0, 2<br/>1, 0, 14]<br/>class = Water>, fillcolor="#e5473970"] ;
100 -> 108 ;
109 [label=<Attack &le; 50.5<br/>gini = 0.827<br/>samples = 14<br/>value = [0, 0, 1, 0, 3, 0, 0, 0, 0, 2, 0, 1, 1, 0, 1<br/>1, 0, 4]<br/>class = Water>, fillcolor="#e5473917"] ;
108 -> 109 ;
110 [label=<Sp. Attack &le; 58.0<br/>gini = 0.847<br/>samples = 12<br/>value = [0, 0, 1, 0, 3, 0, 0, 0, 0, 2, 0, 1, 1, 0, 1<br/>1, 0, 2]<br/>class = Fairy>, fillcolor="#64e5391a"] ;
109 -> 110 ;
111 [label=<Sp. Defense &le; 64.5<br/>gini = 0.816<br/>samples = 7<br/>value = [0, 0, 1, 0, 0, 0, 0, 0, 0, 1, 0, 1, 1, 0, 1<br/>0, 0, 2]<br/>class = Water>, fillcolor="#e547392a"] ;
110 -> 111 ;
112 [label=<Sp. Defense &le; 56.0<br/>gini = 0.625<br/>samples = 4<br/>value = [0, 0, 0, 0, 0, 0, 0, 0, 0, 0, 0, 1, 1, 0, 0<br/>0, 0, 2]<br/>class = Water>, fillcolor="#e5473955"] ;
111 -> 112 ;
113 [label=<Speed &le; 36.5<br/>gini = 0.5<br/>samples = 2<br/>value = [0, 0, 0, 0, 0, 0, 0, 0, 0, 0, 0, 1, 1, 0, 0<br/>0, 0, 0]<br/>class = Ice>, fillcolor="#4739e500"] ;
112 -> 113 ;
114 [label=<gini = 0.0<br/>samples = 1<br/>value = [0, 0, 0, 0, 0, 0, 0, 0, 0, 0, 0, 1, 0, 0, 0<br/>0, 0, 0]<br/>class = Ice>, fillcolor="#4739e5ff"] ;
113 -> 114 ;
115 [label=<gini = 0.0<br/>samples = 1<br/>value = [0, 0, 0, 0, 0, 0, 0, 0, 0, 0, 0, 0, 1, 0, 0<br/>0, 0, 0]<br/>class = Normal>, fillcolor="#8139e5ff"] ;
113 -> 115 ;
116 [label=<gini = 0.0<br/>samples = 2<br/>value = [0, 0, 0, 0, 0, 0, 0, 0, 0, 0, 0, 0, 0, 0, 0<br/>0, 0, 2]<br/>class = Water>, fillcolor="#e54739ff"] ;
112 -> 116 ;
117 [label=<Sp. Attack &le; 52.0<br/>gini = 0.667<br/>samples = 3<br/>value = [0, 0, 1, 0, 0, 0, 0, 0, 0, 1, 0, 0, 0, 0, 1<br/>0, 0, 0]<br/>class = Dragon>, fillcolor="#d7e53900"] ;
111 -> 117 ;
118 [label=<gini = 0.0<br/>samples = 1<br/>value = [0, 0, 0, 0, 0, 0, 0, 0, 0, 1, 0, 0, 0, 0, 0<br/>0, 0, 0]<br/>class = Grass>, fillcolor="#399de5ff"] ;
117 -> 118 ;
119 [label=<Defense &le; 42.5<br/>gini = 0.5<br/>samples = 2<br/>value = [0, 0, 1, 0, 0, 0, 0, 0, 0, 0, 0, 0, 0, 0, 1<br/>0, 0, 0]<br/>class = Dragon>, fillcolor="#d7e53900"] ;
117 -> 119 ;
120 [label=<gini = 0.0<br/>samples = 1<br/>value = [0, 0, 1, 0, 0, 0, 0, 0, 0, 0, 0, 0, 0, 0, 0<br/>0, 0, 0]<br/>class = Dragon>, fillcolor="#d7e539ff"] ;
119 -> 120 ;
121 [label=<gini = 0.0<br/>samples = 1<br/>value = [0, 0, 0, 0, 0, 0, 0, 0, 0, 0, 0, 0, 0, 0, 1<br/>0, 0, 0]<br/>class = Psychic>, fillcolor="#e539d7ff"] ;
119 -> 121 ;
122 [label=<Defense &le; 71.5<br/>gini = 0.56<br/>samples = 5<br/>value = [0, 0, 0, 0, 3, 0, 0, 0, 0, 1, 0, 0, 0, 0, 0<br/>1, 0, 0]<br/>class = Fairy>, fillcolor="#64e5397f"] ;
110 -> 122 ;
123 [label=<gini = 0.0<br/>samples = 3<br/>value = [0, 0, 0, 0, 3, 0, 0, 0, 0, 0, 0, 0, 0, 0, 0<br/>0, 0, 0]<br/>class = Fairy>, fillcolor="#64e539ff"] ;
122 -> 123 ;
124 [label=<HP &le; 63.0<br/>gini = 0.5<br/>samples = 2<br/>value = [0, 0, 0, 0, 0, 0, 0, 0, 0, 1, 0, 0, 0, 0, 0<br/>1, 0, 0]<br/>class = Grass>, fillcolor="#399de500"] ;
122 -> 124 ;
125 [label=<gini = 0.0<br/>samples = 1<br/>value = [0, 0, 0, 0, 0, 0, 0, 0, 0, 1, 0, 0, 0, 0, 0<br/>0, 0, 0]<br/>class = Grass>, fillcolor="#399de5ff"] ;
124 -> 125 ;
126 [label=<gini = 0.0<br/>samples = 1<br/>value = [0, 0, 0, 0, 0, 0, 0, 0, 0, 0, 0, 0, 0, 0, 0<br/>1, 0, 0]<br/>class = Rock>, fillcolor="#e5399dff"] ;
124 -> 126 ;
127 [label=<gini = 0.0<br/>samples = 2<br/>value = [0, 0, 0, 0, 0, 0, 0, 0, 0, 0, 0, 0, 0, 0, 0<br/>0, 0, 2]<br/>class = Water>, fillcolor="#e54739ff"] ;
109 -> 127 ;
128 [label=<Speed &le; 71.0<br/>gini = 0.469<br/>samples = 14<br/>value = [0, 0, 0, 0, 0, 0, 1, 0, 0, 1, 0, 1, 0, 0, 1<br/>0, 0, 10]<br/>class = Water>, fillcolor="#e54739b1"] ;
108 -> 128 ;
129 [label=<Sp. Defense &le; 55.5<br/>gini = 0.391<br/>samples = 13<br/>value = [0, 0, 0, 0, 0, 0, 1, 0, 0, 1, 0, 1, 0, 0, 0<br/>0, 0, 10]<br/>class = Water>, fillcolor="#e54739bf"] ;
128 -> 129 ;
130 [label=<Defense &le; 52.5<br/>gini = 0.612<br/>samples = 7<br/>value = [0, 0, 0, 0, 0, 0, 1, 0, 0, 1, 0, 1, 0, 0, 0<br/>0, 0, 4]<br/>class = Water>, fillcolor="#e547397f"] ;
129 -> 130 ;
131 [label=<Speed &le; 52.5<br/>gini = 0.5<br/>samples = 6<br/>value = [0, 0, 0, 0, 0, 0, 1, 0, 0, 0, 0, 1, 0, 0, 0<br/>0, 0, 4]<br/>class = Water>, fillcolor="#e5473999"] ;
130 -> 131 ;
132 [label=<gini = 0.0<br/>samples = 1<br/>value = [0, 0, 0, 0, 0, 0, 0, 0, 0, 0, 0, 1, 0, 0, 0<br/>0, 0, 0]<br/>class = Ice>, fillcolor="#4739e5ff"] ;
131 -> 132 ;
133 [label=<Sp. Attack &le; 51.5<br/>gini = 0.32<br/>samples = 5<br/>value = [0, 0, 0, 0, 0, 0, 1, 0, 0, 0, 0, 0, 0, 0, 0<br/>0, 0, 4]<br/>class = Water>, fillcolor="#e54739bf"] ;
131 -> 133 ;
134 [label=<gini = 0.0<br/>samples = 3<br/>value = [0, 0, 0, 0, 0, 0, 0, 0, 0, 0, 0, 0, 0, 0, 0<br/>0, 0, 3]<br/>class = Water>, fillcolor="#e54739ff"] ;
133 -> 134 ;
135 [label=<gini = 0.5<br/>samples = 2<br/>value = [0, 0, 0, 0, 0, 0, 1, 0, 0, 0, 0, 0, 0, 0, 0<br/>0, 0, 1]<br/>class = Fire>, fillcolor="#39e58100"] ;
133 -> 135 ;
136 [label=<gini = 0.0<br/>samples = 1<br/>value = [0, 0, 0, 0, 0, 0, 0, 0, 0, 1, 0, 0, 0, 0, 0<br/>0, 0, 0]<br/>class = Grass>, fillcolor="#399de5ff"] ;
130 -> 136 ;
137 [label=<gini = 0.0<br/>samples = 6<br/>value = [0, 0, 0, 0, 0, 0, 0, 0, 0, 0, 0, 0, 0, 0, 0<br/>0, 0, 6]<br/>class = Water>, fillcolor="#e54739ff"] ;
129 -> 137 ;
138 [label=<gini = 0.0<br/>samples = 1<br/>value = [0, 0, 0, 0, 0, 0, 0, 0, 0, 0, 0, 0, 0, 0, 1<br/>0, 0, 0]<br/>class = Psychic>, fillcolor="#e539d7ff"] ;
128 -> 138 ;
139 [label=<gini = 0.0<br/>samples = 2<br/>value = [0, 0, 0, 2, 0, 0, 0, 0, 0, 0, 0, 0, 0, 0, 0<br/>0, 0, 0]<br/>class = Electric>, fillcolor="#9de539ff"] ;
97 -> 139 ;
140 [label=<HP &le; 37.5<br/>gini = 0.843<br/>samples = 23<br/>value = [0, 1, 0, 2, 0, 1, 2, 0, 0, 3, 0, 0, 7, 3, 0<br/>1, 1, 2]<br/>class = Normal>, fillcolor="#8139e533"] ;
96 -> 140 ;
141 [label=<gini = 0.0<br/>samples = 2<br/>value = [0, 0, 0, 2, 0, 0, 0, 0, 0, 0, 0, 0, 0, 0, 0<br/>0, 0, 0]<br/>class = Electric>, fillcolor="#9de539ff"] ;
140 -> 141 ;
142 [label=<Defense &le; 47.5<br/>gini = 0.821<br/>samples = 21<br/>value = [0, 1, 0, 0, 0, 1, 2, 0, 0, 3, 0, 0, 7, 3, 0<br/>1, 1, 2]<br/>class = Normal>, fillcolor="#8139e539"] ;
140 -> 142 ;
143 [label=<Defense &le; 42.0<br/>gini = 0.444<br/>samples = 3<br/>value = [0, 0, 0, 0, 0, 0, 2, 0, 0, 0, 0, 0, 0, 1, 0<br/>0, 0, 0]<br/>class = Fire>, fillcolor="#39e5817f"] ;
142 -> 143 ;
144 [label=<gini = 0.0<br/>samples = 1<br/>value = [0, 0, 0, 0, 0, 0, 0, 0, 0, 0, 0, 0, 0, 1, 0<br/>0, 0, 0]<br/>class = Poison>, fillcolor="#ba39e5ff"] ;
143 -> 144 ;
145 [label=<gini = 0.0<br/>samples = 2<br/>value = [0, 0, 0, 0, 0, 0, 2, 0, 0, 0, 0, 0, 0, 0, 0<br/>0, 0, 0]<br/>class = Fire>, fillcolor="#39e581ff"] ;
143 -> 145 ;
146 [label=<Speed &le; 79.0<br/>gini = 0.784<br/>samples = 18<br/>value = [0, 1, 0, 0, 0, 1, 0, 0, 0, 3, 0, 0, 7, 2, 0<br/>1, 1, 2]<br/>class = Normal>, fillcolor="#8139e544"] ;
142 -> 146 ;
147 [label=<HP &le; 51.0<br/>gini = 0.704<br/>samples = 14<br/>value = [0, 1, 0, 0, 0, 0, 0, 0, 0, 1, 0, 0, 7, 2, 0<br/>1, 1, 1]<br/>class = Normal>, fillcolor="#8139e56a"] ;
146 -> 147 ;
148 [label=<Speed &le; 35.5<br/>gini = 0.75<br/>samples = 4<br/>value = [0, 0, 0, 0, 0, 0, 0, 0, 0, 0, 0, 0, 0, 1, 0<br/>1, 1, 1]<br/>class = Poison>, fillcolor="#ba39e500"] ;
147 -> 148 ;
149 [label=<Attack &le; 57.5<br/>gini = 0.5<br/>samples = 2<br/>value = [0, 0, 0, 0, 0, 0, 0, 0, 0, 0, 0, 0, 0, 1, 0<br/>0, 1, 0]<br/>class = Poison>, fillcolor="#ba39e500"] ;
148 -> 149 ;
150 [label=<gini = 0.0<br/>samples = 1<br/>value = [0, 0, 0, 0, 0, 0, 0, 0, 0, 0, 0, 0, 0, 0, 0<br/>0, 1, 0]<br/>class = Steel>, fillcolor="#e53964ff"] ;
149 -> 150 ;
151 [label=<gini = 0.0<br/>samples = 1<br/>value = [0, 0, 0, 0, 0, 0, 0, 0, 0, 0, 0, 0, 0, 1, 0<br/>0, 0, 0]<br/>class = Poison>, fillcolor="#ba39e5ff"] ;
149 -> 151 ;
152 [label=<Attack &le; 64.5<br/>gini = 0.5<br/>samples = 2<br/>value = [0, 0, 0, 0, 0, 0, 0, 0, 0, 0, 0, 0, 0, 0, 0<br/>1, 0, 1]<br/>class = Rock>, fillcolor="#e5399d00"] ;
148 -> 152 ;
153 [label=<gini = 0.0<br/>samples = 1<br/>value = [0, 0, 0, 0, 0, 0, 0, 0, 0, 0, 0, 0, 0, 0, 0<br/>1, 0, 0]<br/>class = Rock>, fillcolor="#e5399dff"] ;
152 -> 153 ;
154 [label=<gini = 0.0<br/>samples = 1<br/>value = [0, 0, 0, 0, 0, 0, 0, 0, 0, 0, 0, 0, 0, 0, 0<br/>0, 0, 1]<br/>class = Water>, fillcolor="#e54739ff"] ;
152 -> 154 ;
155 [label=<Sp. Defense &le; 47.5<br/>gini = 0.48<br/>samples = 10<br/>value = [0, 1, 0, 0, 0, 0, 0, 0, 0, 1, 0, 0, 7, 1, 0<br/>0, 0, 0]<br/>class = Normal>, fillcolor="#8139e5aa"] ;
147 -> 155 ;
156 [label=<gini = 0.0<br/>samples = 1<br/>value = [0, 0, 0, 0, 0, 0, 0, 0, 0, 1, 0, 0, 0, 0, 0<br/>0, 0, 0]<br/>class = Grass>, fillcolor="#399de5ff"] ;
155 -> 156 ;
157 [label=<Defense &le; 66.0<br/>gini = 0.37<br/>samples = 9<br/>value = [0, 1, 0, 0, 0, 0, 0, 0, 0, 0, 0, 0, 7, 1, 0<br/>0, 0, 0]<br/>class = Normal>, fillcolor="#8139e5bf"] ;
155 -> 157 ;
158 [label=<gini = 0.0<br/>samples = 5<br/>value = [0, 0, 0, 0, 0, 0, 0, 0, 0, 0, 0, 0, 5, 0, 0<br/>0, 0, 0]<br/>class = Normal>, fillcolor="#8139e5ff"] ;
157 -> 158 ;
159 [label=<HP &le; 77.5<br/>gini = 0.625<br/>samples = 4<br/>value = [0, 1, 0, 0, 0, 0, 0, 0, 0, 0, 0, 0, 2, 1, 0<br/>0, 0, 0]<br/>class = Normal>, fillcolor="#8139e555"] ;
157 -> 159 ;
160 [label=<Defense &le; 71.0<br/>gini = 0.5<br/>samples = 2<br/>value = [0, 1, 0, 0, 0, 0, 0, 0, 0, 0, 0, 0, 0, 1, 0<br/>0, 0, 0]<br/>class = Dark>, fillcolor="#e5ba3900"] ;
159 -> 160 ;
161 [label=<gini = 0.0<br/>samples = 1<br/>value = [0, 0, 0, 0, 0, 0, 0, 0, 0, 0, 0, 0, 0, 1, 0<br/>0, 0, 0]<br/>class = Poison>, fillcolor="#ba39e5ff"] ;
160 -> 161 ;
162 [label=<gini = 0.0<br/>samples = 1<br/>value = [0, 1, 0, 0, 0, 0, 0, 0, 0, 0, 0, 0, 0, 0, 0<br/>0, 0, 0]<br/>class = Dark>, fillcolor="#e5ba39ff"] ;
160 -> 162 ;
163 [label=<gini = 0.0<br/>samples = 2<br/>value = [0, 0, 0, 0, 0, 0, 0, 0, 0, 0, 0, 0, 2, 0, 0<br/>0, 0, 0]<br/>class = Normal>, fillcolor="#8139e5ff"] ;
159 -> 163 ;
164 [label=<Sp. Defense &le; 62.5<br/>gini = 0.625<br/>samples = 4<br/>value = [0, 0, 0, 0, 0, 1, 0, 0, 0, 2, 0, 0, 0, 0, 0<br/>0, 0, 1]<br/>class = Grass>, fillcolor="#399de555"] ;
146 -> 164 ;
165 [label=<gini = 0.0<br/>samples = 1<br/>value = [0, 0, 0, 0, 0, 0, 0, 0, 0, 0, 0, 0, 0, 0, 0<br/>0, 0, 1]<br/>class = Water>, fillcolor="#e54739ff"] ;
164 -> 165 ;
166 [label=<Speed &le; 81.5<br/>gini = 0.444<br/>samples = 3<br/>value = [0, 0, 0, 0, 0, 1, 0, 0, 0, 2, 0, 0, 0, 0, 0<br/>0, 0, 0]<br/>class = Grass>, fillcolor="#399de57f"] ;
164 -> 166 ;
167 [label=<gini = 0.0<br/>samples = 1<br/>value = [0, 0, 0, 0, 0, 1, 0, 0, 0, 0, 0, 0, 0, 0, 0<br/>0, 0, 0]<br/>class = Fighting>, fillcolor="#39e547ff"] ;
166 -> 167 ;
168 [label=<gini = 0.0<br/>samples = 2<br/>value = [0, 0, 0, 0, 0, 0, 0, 0, 0, 2, 0, 0, 0, 0, 0<br/>0, 0, 0]<br/>class = Grass>, fillcolor="#399de5ff"] ;
166 -> 168 ;
169 [label=<Defense &le; 67.0<br/>gini = 0.5<br/>samples = 6<br/>value = [0, 0, 0, 0, 0, 0, 0, 0, 4, 1, 0, 0, 0, 0, 0<br/>0, 0, 1]<br/>class = Ghost>, fillcolor="#39d7e599"] ;
49 -> 169 ;
170 [label=<Sp. Attack &le; 40.0<br/>gini = 0.5<br/>samples = 2<br/>value = [0, 0, 0, 0, 0, 0, 0, 0, 0, 1, 0, 0, 0, 0, 0<br/>0, 0, 1]<br/>class = Grass>, fillcolor="#399de500"] ;
169 -> 170 ;
171 [label=<gini = 0.0<br/>samples = 1<br/>value = [0, 0, 0, 0, 0, 0, 0, 0, 0, 0, 0, 0, 0, 0, 0<br/>0, 0, 1]<br/>class = Water>, fillcolor="#e54739ff"] ;
170 -> 171 ;
172 [label=<gini = 0.0<br/>samples = 1<br/>value = [0, 0, 0, 0, 0, 0, 0, 0, 0, 1, 0, 0, 0, 0, 0<br/>0, 0, 0]<br/>class = Grass>, fillcolor="#399de5ff"] ;
170 -> 172 ;
173 [label=<gini = 0.0<br/>samples = 4<br/>value = [0, 0, 0, 0, 0, 0, 0, 0, 4, 0, 0, 0, 0, 0, 0<br/>0, 0, 0]<br/>class = Ghost>, fillcolor="#39d7e5ff"] ;
169 -> 173 ;
174 [label=<Speed &le; 89.0<br/>gini = 0.875<br/>samples = 77<br/>value = [11, 3, 5, 1, 1, 10, 2, 0, 1, 1, 9, 2, 18, 2<br/>0, 4, 0, 7]<br/>class = Normal>, fillcolor="#8139e51b"] ;
20 -> 174 ;
175 [label=<Sp. Attack &le; 36.5<br/>gini = 0.892<br/>samples = 60<br/>value = [9, 2, 5, 1, 1, 9, 1, 0, 1, 1, 8, 2, 8, 2, 0<br/>3, 0, 7]<br/>class = Bug>, fillcolor="#e5813900"] ;
174 -> 175 ;
176 [label=<HP &le; 37.5<br/>gini = 0.694<br/>samples = 12<br/>value = [1, 0, 1, 0, 0, 6, 0, 0, 0, 0, 2, 0, 1, 0, 0<br/>1, 0, 0]<br/>class = Fighting>, fillcolor="#39e54766"] ;
175 -> 176 ;
177 [label=<HP &le; 18.0<br/>gini = 0.5<br/>samples = 2<br/>value = [1, 0, 0, 0, 0, 0, 0, 0, 0, 0, 0, 0, 1, 0, 0<br/>0, 0, 0]<br/>class = Bug>, fillcolor="#e5813900"] ;
176 -> 177 ;
178 [label=<gini = 0.0<br/>samples = 1<br/>value = [1, 0, 0, 0, 0, 0, 0, 0, 0, 0, 0, 0, 0, 0, 0<br/>0, 0, 0]<br/>class = Bug>, fillcolor="#e58139ff"] ;
177 -> 178 ;
179 [label=<gini = 0.0<br/>samples = 1<br/>value = [0, 0, 0, 0, 0, 0, 0, 0, 0, 0, 0, 0, 1, 0, 0<br/>0, 0, 0]<br/>class = Normal>, fillcolor="#8139e5ff"] ;
177 -> 179 ;
180 [label=<Speed &le; 67.5<br/>gini = 0.58<br/>samples = 10<br/>value = [0, 0, 1, 0, 0, 6, 0, 0, 0, 0, 2, 0, 0, 0, 0<br/>1, 0, 0]<br/>class = Fighting>, fillcolor="#39e5477f"] ;
176 -> 180 ;
181 [label=<Attack &le; 83.5<br/>gini = 0.722<br/>samples = 6<br/>value = [0, 0, 1, 0, 0, 2, 0, 0, 0, 0, 2, 0, 0, 0, 0<br/>1, 0, 0]<br/>class = Fighting>, fillcolor="#39e54700"] ;
180 -> 181 ;
182 [label=<Speed &le; 62.5<br/>gini = 0.5<br/>samples = 4<br/>value = [0, 0, 0, 0, 0, 2, 0, 0, 0, 0, 2, 0, 0, 0, 0<br/>0, 0, 0]<br/>class = Fighting>, fillcolor="#39e54700"] ;
181 -> 182 ;
183 [label=<Sp. Defense &le; 45.0<br/>gini = 0.444<br/>samples = 3<br/>value = [0, 0, 0, 0, 0, 2, 0, 0, 0, 0, 1, 0, 0, 0, 0<br/>0, 0, 0]<br/>class = Fighting>, fillcolor="#39e5477f"] ;
182 -> 183 ;
184 [label=<gini = 0.0<br/>samples = 2<br/>value = [0, 0, 0, 0, 0, 2, 0, 0, 0, 0, 0, 0, 0, 0, 0<br/>0, 0, 0]<br/>class = Fighting>, fillcolor="#39e547ff"] ;
183 -> 184 ;
185 [label=<gini = 0.0<br/>samples = 1<br/>value = [0, 0, 0, 0, 0, 0, 0, 0, 0, 0, 1, 0, 0, 0, 0<br/>0, 0, 0]<br/>class = Ground>, fillcolor="#3964e5ff"] ;
183 -> 185 ;
186 [label=<gini = 0.0<br/>samples = 1<br/>value = [0, 0, 0, 0, 0, 0, 0, 0, 0, 0, 1, 0, 0, 0, 0<br/>0, 0, 0]<br/>class = Ground>, fillcolor="#3964e5ff"] ;
182 -> 186 ;
187 [label=<Sp. Defense &le; 35.0<br/>gini = 0.5<br/>samples = 2<br/>value = [0, 0, 1, 0, 0, 0, 0, 0, 0, 0, 0, 0, 0, 0, 0<br/>1, 0, 0]<br/>class = Dragon>, fillcolor="#d7e53900"] ;
181 -> 187 ;
188 [label=<gini = 0.0<br/>samples = 1<br/>value = [0, 0, 0, 0, 0, 0, 0, 0, 0, 0, 0, 0, 0, 0, 0<br/>1, 0, 0]<br/>class = Rock>, fillcolor="#e5399dff"] ;
187 -> 188 ;
189 [label=<gini = 0.0<br/>samples = 1<br/>value = [0, 0, 1, 0, 0, 0, 0, 0, 0, 0, 0, 0, 0, 0, 0<br/>0, 0, 0]<br/>class = Dragon>, fillcolor="#d7e539ff"] ;
187 -> 189 ;
190 [label=<gini = 0.0<br/>samples = 4<br/>value = [0, 0, 0, 0, 0, 4, 0, 0, 0, 0, 0, 0, 0, 0, 0<br/>0, 0, 0]<br/>class = Fighting>, fillcolor="#39e547ff"] ;
180 -> 190 ;
191 [label=<Defense &le; 63.5<br/>gini = 0.894<br/>samples = 48<br/>value = [8, 2, 4, 1, 1, 3, 1, 0, 1, 1, 6, 2, 7, 2, 0<br/>2, 0, 7]<br/>class = Bug>, fillcolor="#e5813906"] ;
175 -> 191 ;
192 [label=<Sp. Attack &le; 55.5<br/>gini = 0.875<br/>samples = 28<br/>value = [6, 0, 2, 1, 0, 3, 1, 0, 1, 1, 4, 1, 5, 1, 0<br/>1, 0, 1]<br/>class = Bug>, fillcolor="#e581390b"] ;
191 -> 192 ;
193 [label=<Attack &le; 97.5<br/>gini = 0.837<br/>samples = 24<br/>value = [6, 0, 2, 0, 0, 3, 0, 0, 1, 0, 4, 0, 5, 1, 0<br/>1, 0, 1]<br/>class = Bug>, fillcolor="#e581390d"] ;
192 -> 193 ;
194 [label=<Sp. Defense &le; 50.5<br/>gini = 0.825<br/>samples = 21<br/>value = [6, 0, 2, 0, 0, 2, 0, 0, 1, 0, 2, 0, 5, 1, 0<br/>1, 0, 1]<br/>class = Bug>, fillcolor="#e5813910"] ;
193 -> 194 ;
195 [label=<Speed &le; 67.5<br/>gini = 0.843<br/>samples = 11<br/>value = [1, 0, 2, 0, 0, 2, 0, 0, 0, 0, 2, 0, 2, 0, 0<br/>1, 0, 1]<br/>class = Dragon>, fillcolor="#d7e53900"] ;
194 -> 195 ;
196 [label=<Attack &le; 81.0<br/>gini = 0.776<br/>samples = 7<br/>value = [1, 0, 2, 0, 0, 2, 0, 0, 0, 0, 0, 0, 1, 0, 0<br/>0, 0, 1]<br/>class = Dragon>, fillcolor="#d7e53900"] ;
195 -> 196 ;
197 [label=<Sp. Attack &le; 45.0<br/>gini = 0.72<br/>samples = 5<br/>value = [1, 0, 2, 0, 0, 0, 0, 0, 0, 0, 0, 0, 1, 0, 0<br/>0, 0, 1]<br/>class = Dragon>, fillcolor="#d7e53940"] ;
196 -> 197 ;
198 [label=<Speed &le; 55.0<br/>gini = 0.444<br/>samples = 3<br/>value = [1, 0, 2, 0, 0, 0, 0, 0, 0, 0, 0, 0, 0, 0, 0<br/>0, 0, 0]<br/>class = Dragon>, fillcolor="#d7e5397f"] ;
197 -> 198 ;
199 [label=<gini = 0.0<br/>samples = 2<br/>value = [0, 0, 2, 0, 0, 0, 0, 0, 0, 0, 0, 0, 0, 0, 0<br/>0, 0, 0]<br/>class = Dragon>, fillcolor="#d7e539ff"] ;
198 -> 199 ;
200 [label=<gini = 0.0<br/>samples = 1<br/>value = [1, 0, 0, 0, 0, 0, 0, 0, 0, 0, 0, 0, 0, 0, 0<br/>0, 0, 0]<br/>class = Bug>, fillcolor="#e58139ff"] ;
198 -> 200 ;
201 [label=<HP &le; 55.0<br/>gini = 0.5<br/>samples = 2<br/>value = [0, 0, 0, 0, 0, 0, 0, 0, 0, 0, 0, 0, 1, 0, 0<br/>0, 0, 1]<br/>class = Normal>, fillcolor="#8139e500"] ;
197 -> 201 ;
202 [label=<gini = 0.0<br/>samples = 1<br/>value = [0, 0, 0, 0, 0, 0, 0, 0, 0, 0, 0, 0, 0, 0, 0<br/>0, 0, 1]<br/>class = Water>, fillcolor="#e54739ff"] ;
201 -> 202 ;
203 [label=<gini = 0.0<br/>samples = 1<br/>value = [0, 0, 0, 0, 0, 0, 0, 0, 0, 0, 0, 0, 1, 0, 0<br/>0, 0, 0]<br/>class = Normal>, fillcolor="#8139e5ff"] ;
201 -> 203 ;
204 [label=<gini = 0.0<br/>samples = 2<br/>value = [0, 0, 0, 0, 0, 2, 0, 0, 0, 0, 0, 0, 0, 0, 0<br/>0, 0, 0]<br/>class = Fighting>, fillcolor="#39e547ff"] ;
196 -> 204 ;
205 [label=<Speed &le; 74.5<br/>gini = 0.625<br/>samples = 4<br/>value = [0, 0, 0, 0, 0, 0, 0, 0, 0, 0, 2, 0, 1, 0, 0<br/>1, 0, 0]<br/>class = Ground>, fillcolor="#3964e555"] ;
195 -> 205 ;
206 [label=<gini = 0.0<br/>samples = 2<br/>value = [0, 0, 0, 0, 0, 0, 0, 0, 0, 0, 2, 0, 0, 0, 0<br/>0, 0, 0]<br/>class = Ground>, fillcolor="#3964e5ff"] ;
205 -> 206 ;
207 [label=<Attack &le; 85.0<br/>gini = 0.5<br/>samples = 2<br/>value = [0, 0, 0, 0, 0, 0, 0, 0, 0, 0, 0, 0, 1, 0, 0<br/>1, 0, 0]<br/>class = Normal>, fillcolor="#8139e500"] ;
205 -> 207 ;
208 [label=<gini = 0.0<br/>samples = 1<br/>value = [0, 0, 0, 0, 0, 0, 0, 0, 0, 0, 0, 0, 1, 0, 0<br/>0, 0, 0]<br/>class = Normal>, fillcolor="#8139e5ff"] ;
207 -> 208 ;
209 [label=<gini = 0.0<br/>samples = 1<br/>value = [0, 0, 0, 0, 0, 0, 0, 0, 0, 0, 0, 0, 0, 0, 0<br/>1, 0, 0]<br/>class = Rock>, fillcolor="#e5399dff"] ;
207 -> 209 ;
210 [label=<HP &le; 78.0<br/>gini = 0.64<br/>samples = 10<br/>value = [5, 0, 0, 0, 0, 0, 0, 0, 1, 0, 0, 0, 3, 1, 0<br/>0, 0, 0]<br/>class = Bug>, fillcolor="#e5813949"] ;
194 -> 210 ;
211 [label=<Attack &le; 72.5<br/>gini = 0.562<br/>samples = 8<br/>value = [5, 0, 0, 0, 0, 0, 0, 0, 1, 0, 0, 0, 1, 1, 0<br/>0, 0, 0]<br/>class = Bug>, fillcolor="#e5813992"] ;
210 -> 211 ;
212 [label=<Defense &le; 51.5<br/>gini = 0.75<br/>samples = 4<br/>value = [1, 0, 0, 0, 0, 0, 0, 0, 1, 0, 0, 0, 1, 1, 0<br/>0, 0, 0]<br/>class = Bug>, fillcolor="#e5813900"] ;
211 -> 212 ;
213 [label=<gini = 0.0<br/>samples = 1<br/>value = [0, 0, 0, 0, 0, 0, 0, 0, 1, 0, 0, 0, 0, 0, 0<br/>0, 0, 0]<br/>class = Ghost>, fillcolor="#39d7e5ff"] ;
212 -> 213 ;
214 [label=<Sp. Attack &le; 42.5<br/>gini = 0.667<br/>samples = 3<br/>value = [1, 0, 0, 0, 0, 0, 0, 0, 0, 0, 0, 0, 1, 1, 0<br/>0, 0, 0]<br/>class = Bug>, fillcolor="#e5813900"] ;
212 -> 214 ;
215 [label=<gini = 0.0<br/>samples = 1<br/>value = [0, 0, 0, 0, 0, 0, 0, 0, 0, 0, 0, 0, 1, 0, 0<br/>0, 0, 0]<br/>class = Normal>, fillcolor="#8139e5ff"] ;
214 -> 215 ;
216 [label=<Attack &le; 71.0<br/>gini = 0.5<br/>samples = 2<br/>value = [1, 0, 0, 0, 0, 0, 0, 0, 0, 0, 0, 0, 0, 1, 0<br/>0, 0, 0]<br/>class = Bug>, fillcolor="#e5813900"] ;
214 -> 216 ;
217 [label=<gini = 0.0<br/>samples = 1<br/>value = [1, 0, 0, 0, 0, 0, 0, 0, 0, 0, 0, 0, 0, 0, 0<br/>0, 0, 0]<br/>class = Bug>, fillcolor="#e58139ff"] ;
216 -> 217 ;
218 [label=<gini = 0.0<br/>samples = 1<br/>value = [0, 0, 0, 0, 0, 0, 0, 0, 0, 0, 0, 0, 0, 1, 0<br/>0, 0, 0]<br/>class = Poison>, fillcolor="#ba39e5ff"] ;
216 -> 218 ;
219 [label=<gini = 0.0<br/>samples = 4<br/>value = [4, 0, 0, 0, 0, 0, 0, 0, 0, 0, 0, 0, 0, 0, 0<br/>0, 0, 0]<br/>class = Bug>, fillcolor="#e58139ff"] ;
211 -> 219 ;
220 [label=<gini = 0.0<br/>samples = 2<br/>value = [0, 0, 0, 0, 0, 0, 0, 0, 0, 0, 0, 0, 2, 0, 0<br/>0, 0, 0]<br/>class = Normal>, fillcolor="#8139e5ff"] ;
210 -> 220 ;
221 [label=<HP &le; 127.0<br/>gini = 0.444<br/>samples = 3<br/>value = [0, 0, 0, 0, 0, 1, 0, 0, 0, 0, 2, 0, 0, 0, 0<br/>0, 0, 0]<br/>class = Ground>, fillcolor="#3964e57f"] ;
193 -> 221 ;
222 [label=<gini = 0.0<br/>samples = 2<br/>value = [0, 0, 0, 0, 0, 0, 0, 0, 0, 0, 2, 0, 0, 0, 0<br/>0, 0, 0]<br/>class = Ground>, fillcolor="#3964e5ff"] ;
221 -> 222 ;
223 [label=<gini = 0.0<br/>samples = 1<br/>value = [0, 0, 0, 0, 0, 1, 0, 0, 0, 0, 0, 0, 0, 0, 0<br/>0, 0, 0]<br/>class = Fighting>, fillcolor="#39e547ff"] ;
221 -> 223 ;
224 [label=<Sp. Defense &le; 44.5<br/>gini = 0.75<br/>samples = 4<br/>value = [0, 0, 0, 1, 0, 0, 1, 0, 0, 1, 0, 1, 0, 0, 0<br/>0, 0, 0]<br/>class = Electric>, fillcolor="#9de53900"] ;
192 -> 224 ;
225 [label=<Speed &le; 50.0<br/>gini = 0.5<br/>samples = 2<br/>value = [0, 0, 0, 0, 0, 0, 0, 0, 0, 1, 0, 1, 0, 0, 0<br/>0, 0, 0]<br/>class = Grass>, fillcolor="#399de500"] ;
224 -> 225 ;
226 [label=<gini = 0.0<br/>samples = 1<br/>value = [0, 0, 0, 0, 0, 0, 0, 0, 0, 0, 0, 1, 0, 0, 0<br/>0, 0, 0]<br/>class = Ice>, fillcolor="#4739e5ff"] ;
225 -> 226 ;
227 [label=<gini = 0.0<br/>samples = 1<br/>value = [0, 0, 0, 0, 0, 0, 0, 0, 0, 1, 0, 0, 0, 0, 0<br/>0, 0, 0]<br/>class = Grass>, fillcolor="#399de5ff"] ;
225 -> 227 ;
228 [label=<Defense &le; 52.0<br/>gini = 0.5<br/>samples = 2<br/>value = [0, 0, 0, 1, 0, 0, 1, 0, 0, 0, 0, 0, 0, 0, 0<br/>0, 0, 0]<br/>class = Electric>, fillcolor="#9de53900"] ;
224 -> 228 ;
229 [label=<gini = 0.0<br/>samples = 1<br/>value = [0, 0, 0, 1, 0, 0, 0, 0, 0, 0, 0, 0, 0, 0, 0<br/>0, 0, 0]<br/>class = Electric>, fillcolor="#9de539ff"] ;
228 -> 229 ;
230 [label=<gini = 0.0<br/>samples = 1<br/>value = [0, 0, 0, 0, 0, 0, 1, 0, 0, 0, 0, 0, 0, 0, 0<br/>0, 0, 0]<br/>class = Fire>, fillcolor="#39e581ff"] ;
228 -> 230 ;
231 [label=<Attack &le; 87.0<br/>gini = 0.85<br/>samples = 20<br/>value = [2, 2, 2, 0, 1, 0, 0, 0, 0, 0, 2, 1, 2, 1, 0<br/>1, 0, 6]<br/>class = Water>, fillcolor="#e5473939"] ;
191 -> 231 ;
232 [label=<Sp. Attack &le; 39.0<br/>gini = 0.5<br/>samples = 6<br/>value = [0, 1, 0, 0, 0, 0, 0, 0, 0, 0, 1, 0, 0, 0, 0<br/>0, 0, 4]<br/>class = Water>, fillcolor="#e5473999"] ;
231 -> 232 ;
233 [label=<gini = 0.0<br/>samples = 1<br/>value = [0, 0, 0, 0, 0, 0, 0, 0, 0, 0, 1, 0, 0, 0, 0<br/>0, 0, 0]<br/>class = Ground>, fillcolor="#3964e5ff"] ;
232 -> 233 ;
234 [label=<Speed &le; 59.0<br/>gini = 0.32<br/>samples = 5<br/>value = [0, 1, 0, 0, 0, 0, 0, 0, 0, 0, 0, 0, 0, 0, 0<br/>0, 0, 4]<br/>class = Water>, fillcolor="#e54739bf"] ;
232 -> 234 ;
235 [label=<gini = 0.0<br/>samples = 3<br/>value = [0, 0, 0, 0, 0, 0, 0, 0, 0, 0, 0, 0, 0, 0, 0<br/>0, 0, 3]<br/>class = Water>, fillcolor="#e54739ff"] ;
234 -> 235 ;
236 [label=<HP &le; 105.0<br/>gini = 0.5<br/>samples = 2<br/>value = [0, 1, 0, 0, 0, 0, 0, 0, 0, 0, 0, 0, 0, 0, 0<br/>0, 0, 1]<br/>class = Dark>, fillcolor="#e5ba3900"] ;
234 -> 236 ;
237 [label=<gini = 0.0<br/>samples = 1<br/>value = [0, 1, 0, 0, 0, 0, 0, 0, 0, 0, 0, 0, 0, 0, 0<br/>0, 0, 0]<br/>class = Dark>, fillcolor="#e5ba39ff"] ;
236 -> 237 ;
238 [label=<gini = 0.0<br/>samples = 1<br/>value = [0, 0, 0, 0, 0, 0, 0, 0, 0, 0, 0, 0, 0, 0, 0<br/>0, 0, 1]<br/>class = Water>, fillcolor="#e54739ff"] ;
236 -> 238 ;
239 [label=<Sp. Attack &le; 52.5<br/>gini = 0.888<br/>samples = 14<br/>value = [2, 1, 2, 0, 1, 0, 0, 0, 0, 0, 1, 1, 2, 1, 0<br/>1, 0, 2]<br/>class = Bug>, fillcolor="#e5813900"] ;
231 -> 239 ;
240 [label=<Defense &le; 73.5<br/>gini = 0.444<br/>samples = 3<br/>value = [0, 0, 2, 0, 0, 0, 0, 0, 0, 0, 0, 0, 0, 0, 0<br/>1, 0, 0]<br/>class = Dragon>, fillcolor="#d7e5397f"] ;
239 -> 240 ;
241 [label=<gini = 0.0<br/>samples = 2<br/>value = [0, 0, 2, 0, 0, 0, 0, 0, 0, 0, 0, 0, 0, 0, 0<br/>0, 0, 0]<br/>class = Dragon>, fillcolor="#d7e539ff"] ;
240 -> 241 ;
242 [label=<gini = 0.0<br/>samples = 1<br/>value = [0, 0, 0, 0, 0, 0, 0, 0, 0, 0, 0, 0, 0, 0, 0<br/>1, 0, 0]<br/>class = Rock>, fillcolor="#e5399dff"] ;
240 -> 242 ;
243 [label=<Speed &le; 80.5<br/>gini = 0.86<br/>samples = 11<br/>value = [2, 1, 0, 0, 1, 0, 0, 0, 0, 0, 1, 1, 2, 1, 0<br/>0, 0, 2]<br/>class = Bug>, fillcolor="#e5813900"] ;
239 -> 243 ;
244 [label=<Speed &le; 42.5<br/>gini = 0.84<br/>samples = 9<br/>value = [2, 1, 0, 0, 1, 0, 0, 0, 0, 0, 1, 1, 2, 1, 0<br/>0, 0, 0]<br/>class = Bug>, fillcolor="#e5813900"] ;
243 -> 244 ;
245 [label=<Sp. Defense &le; 100.0<br/>gini = 0.444<br/>samples = 3<br/>value = [2, 0, 0, 0, 0, 0, 0, 0, 0, 0, 0, 0, 1, 0, 0<br/>0, 0, 0]<br/>class = Bug>, fillcolor="#e581397f"] ;
244 -> 245 ;
246 [label=<gini = 0.0<br/>samples = 2<br/>value = [2, 0, 0, 0, 0, 0, 0, 0, 0, 0, 0, 0, 0, 0, 0<br/>0, 0, 0]<br/>class = Bug>, fillcolor="#e58139ff"] ;
245 -> 246 ;
247 [label=<gini = 0.0<br/>samples = 1<br/>value = [0, 0, 0, 0, 0, 0, 0, 0, 0, 0, 0, 0, 1, 0, 0<br/>0, 0, 0]<br/>class = Normal>, fillcolor="#8139e5ff"] ;
245 -> 247 ;
248 [label=<Speed &le; 47.5<br/>gini = 0.833<br/>samples = 6<br/>value = [0, 1, 0, 0, 1, 0, 0, 0, 0, 0, 1, 1, 1, 1, 0<br/>0, 0, 0]<br/>class = Dark>, fillcolor="#e5ba3900"] ;
244 -> 248 ;
249 [label=<gini = 0.0<br/>samples = 1<br/>value = [0, 0, 0, 0, 1, 0, 0, 0, 0, 0, 0, 0, 0, 0, 0<br/>0, 0, 0]<br/>class = Fairy>, fillcolor="#64e539ff"] ;
248 -> 249 ;
250 [label=<Defense &le; 72.5<br/>gini = 0.8<br/>samples = 5<br/>value = [0, 1, 0, 0, 0, 0, 0, 0, 0, 0, 1, 1, 1, 1, 0<br/>0, 0, 0]<br/>class = Dark>, fillcolor="#e5ba3900"] ;
248 -> 250 ;
251 [label=<gini = 0.0<br/>samples = 1<br/>value = [0, 1, 0, 0, 0, 0, 0, 0, 0, 0, 0, 0, 0, 0, 0<br/>0, 0, 0]<br/>class = Dark>, fillcolor="#e5ba39ff"] ;
250 -> 251 ;
252 [label=<Speed &le; 52.5<br/>gini = 0.75<br/>samples = 4<br/>value = [0, 0, 0, 0, 0, 0, 0, 0, 0, 0, 1, 1, 1, 1, 0<br/>0, 0, 0]<br/>class = Ground>, fillcolor="#3964e500"] ;
250 -> 252 ;
253 [label=<gini = 0.0<br/>samples = 1<br/>value = [0, 0, 0, 0, 0, 0, 0, 0, 0, 0, 0, 1, 0, 0, 0<br/>0, 0, 0]<br/>class = Ice>, fillcolor="#4739e5ff"] ;
252 -> 253 ;
254 [label=<Sp. Defense &le; 77.5<br/>gini = 0.667<br/>samples = 3<br/>value = [0, 0, 0, 0, 0, 0, 0, 0, 0, 0, 1, 0, 1, 1, 0<br/>0, 0, 0]<br/>class = Ground>, fillcolor="#3964e500"] ;
252 -> 254 ;
255 [label=<gini = 0.0<br/>samples = 1<br/>value = [0, 0, 0, 0, 0, 0, 0, 0, 0, 0, 0, 0, 1, 0, 0<br/>0, 0, 0]<br/>class = Normal>, fillcolor="#8139e5ff"] ;
254 -> 255 ;
256 [label=<Speed &le; 65.0<br/>gini = 0.5<br/>samples = 2<br/>value = [0, 0, 0, 0, 0, 0, 0, 0, 0, 0, 1, 0, 0, 1, 0<br/>0, 0, 0]<br/>class = Ground>, fillcolor="#3964e500"] ;
254 -> 256 ;
257 [label=<gini = 0.0<br/>samples = 1<br/>value = [0, 0, 0, 0, 0, 0, 0, 0, 0, 0, 1, 0, 0, 0, 0<br/>0, 0, 0]<br/>class = Ground>, fillcolor="#3964e5ff"] ;
256 -> 257 ;
258 [label=<gini = 0.0<br/>samples = 1<br/>value = [0, 0, 0, 0, 0, 0, 0, 0, 0, 0, 0, 0, 0, 1, 0<br/>0, 0, 0]<br/>class = Poison>, fillcolor="#ba39e5ff"] ;
256 -> 258 ;
259 [label=<gini = 0.0<br/>samples = 2<br/>value = [0, 0, 0, 0, 0, 0, 0, 0, 0, 0, 0, 0, 0, 0, 0<br/>0, 0, 2]<br/>class = Water>, fillcolor="#e54739ff"] ;
243 -> 259 ;
260 [label=<Defense &le; 57.5<br/>gini = 0.623<br/>samples = 17<br/>value = [2, 1, 0, 0, 0, 1, 1, 0, 0, 0, 1, 0, 10, 0<br/>0, 1, 0, 0]<br/>class = Normal>, fillcolor="#8139e588"] ;
174 -> 260 ;
261 [label=<Attack &le; 85.0<br/>gini = 0.75<br/>samples = 4<br/>value = [1, 1, 0, 0, 0, 0, 1, 0, 0, 0, 1, 0, 0, 0, 0<br/>0, 0, 0]<br/>class = Bug>, fillcolor="#e5813900"] ;
260 -> 261 ;
262 [label=<gini = 0.0<br/>samples = 1<br/>value = [0, 0, 0, 0, 0, 0, 0, 0, 0, 0, 1, 0, 0, 0, 0<br/>0, 0, 0]<br/>class = Ground>, fillcolor="#3964e5ff"] ;
261 -> 262 ;
263 [label=<Speed &le; 105.0<br/>gini = 0.667<br/>samples = 3<br/>value = [1, 1, 0, 0, 0, 0, 1, 0, 0, 0, 0, 0, 0, 0, 0<br/>0, 0, 0]<br/>class = Bug>, fillcolor="#e5813900"] ;
261 -> 263 ;
264 [label=<gini = 0.0<br/>samples = 1<br/>value = [0, 0, 0, 0, 0, 0, 1, 0, 0, 0, 0, 0, 0, 0, 0<br/>0, 0, 0]<br/>class = Fire>, fillcolor="#39e581ff"] ;
263 -> 264 ;
265 [label=<Speed &le; 137.5<br/>gini = 0.5<br/>samples = 2<br/>value = [1, 1, 0, 0, 0, 0, 0, 0, 0, 0, 0, 0, 0, 0, 0<br/>0, 0, 0]<br/>class = Bug>, fillcolor="#e5813900"] ;
263 -> 265 ;
266 [label=<gini = 0.0<br/>samples = 1<br/>value = [0, 1, 0, 0, 0, 0, 0, 0, 0, 0, 0, 0, 0, 0, 0<br/>0, 0, 0]<br/>class = Dark>, fillcolor="#e5ba39ff"] ;
265 -> 266 ;
267 [label=<gini = 0.0<br/>samples = 1<br/>value = [1, 0, 0, 0, 0, 0, 0, 0, 0, 0, 0, 0, 0, 0, 0<br/>0, 0, 0]<br/>class = Bug>, fillcolor="#e58139ff"] ;
265 -> 267 ;
268 [label=<Speed &le; 127.5<br/>gini = 0.391<br/>samples = 13<br/>value = [1, 0, 0, 0, 0, 1, 0, 0, 0, 0, 0, 0, 10, 0<br/>0, 1, 0, 0]<br/>class = Normal>, fillcolor="#8139e5bf"] ;
260 -> 268 ;
269 [label=<Attack &le; 102.5<br/>gini = 0.292<br/>samples = 12<br/>value = [1, 0, 0, 0, 0, 1, 0, 0, 0, 0, 0, 0, 10, 0<br/>0, 0, 0, 0]<br/>class = Normal>, fillcolor="#8139e5d1"] ;
268 -> 269 ;
270 [label=<gini = 0.0<br/>samples = 8<br/>value = [0, 0, 0, 0, 0, 0, 0, 0, 0, 0, 0, 0, 8, 0, 0<br/>0, 0, 0]<br/>class = Normal>, fillcolor="#8139e5ff"] ;
269 -> 270 ;
271 [label=<Sp. Defense &le; 65.0<br/>gini = 0.625<br/>samples = 4<br/>value = [1, 0, 0, 0, 0, 1, 0, 0, 0, 0, 0, 0, 2, 0, 0<br/>0, 0, 0]<br/>class = Normal>, fillcolor="#8139e555"] ;
269 -> 271 ;
272 [label=<gini = 0.0<br/>samples = 2<br/>value = [0, 0, 0, 0, 0, 0, 0, 0, 0, 0, 0, 0, 2, 0, 0<br/>0, 0, 0]<br/>class = Normal>, fillcolor="#8139e5ff"] ;
271 -> 272 ;
273 [label=<HP &le; 67.5<br/>gini = 0.5<br/>samples = 2<br/>value = [1, 0, 0, 0, 0, 1, 0, 0, 0, 0, 0, 0, 0, 0, 0<br/>0, 0, 0]<br/>class = Bug>, fillcolor="#e5813900"] ;
271 -> 273 ;
274 [label=<gini = 0.0<br/>samples = 1<br/>value = [0, 0, 0, 0, 0, 1, 0, 0, 0, 0, 0, 0, 0, 0, 0<br/>0, 0, 0]<br/>class = Fighting>, fillcolor="#39e547ff"] ;
273 -> 274 ;
275 [label=<gini = 0.0<br/>samples = 1<br/>value = [1, 0, 0, 0, 0, 0, 0, 0, 0, 0, 0, 0, 0, 0, 0<br/>0, 0, 0]<br/>class = Bug>, fillcolor="#e58139ff"] ;
273 -> 275 ;
276 [label=<gini = 0.0<br/>samples = 1<br/>value = [0, 0, 0, 0, 0, 0, 0, 0, 0, 0, 0, 0, 0, 0, 0<br/>1, 0, 0]<br/>class = Rock>, fillcolor="#e5399dff"] ;
268 -> 276 ;
277 [label=<Defense &le; 137.5<br/>gini = 0.897<br/>samples = 71<br/>value = [9, 3, 3, 0, 0, 3, 0, 0, 6, 4, 7, 2, 3, 3, 0<br/>12, 11, 5]<br/>class = Rock>, fillcolor="#e5399d04"] ;
1 -> 277 ;
278 [label=<Sp. Attack &le; 55.5<br/>gini = 0.904<br/>samples = 60<br/>value = [7, 3, 3, 0, 0, 3, 0, 0, 6, 4, 7, 1, 3, 3, 0<br/>10, 5, 5]<br/>class = Rock>, fillcolor="#e5399d0e"] ;
277 -> 278 ;
279 [label=<HP &le; 82.5<br/>gini = 0.88<br/>samples = 44<br/>value = [6, 1, 0, 0, 0, 3, 0, 0, 2, 2, 6, 1, 3, 1, 0<br/>9, 5, 5]<br/>class = Rock>, fillcolor="#e5399d14"] ;
278 -> 279 ;
280 [label=<HP &le; 42.5<br/>gini = 0.85<br/>samples = 37<br/>value = [6, 0, 0, 0, 0, 1, 0, 0, 2, 2, 6, 1, 0, 1, 0<br/>9, 5, 4]<br/>class = Rock>, fillcolor="#e5399d19"] ;
279 -> 280 ;
281 [label=<Attack &le; 41.0<br/>gini = 0.74<br/>samples = 10<br/>value = [1, 0, 0, 0, 0, 0, 0, 0, 2, 0, 0, 0, 0, 1, 0<br/>4, 0, 2]<br/>class = Rock>, fillcolor="#e5399d40"] ;
280 -> 281 ;
282 [label=<gini = 0.0<br/>samples = 2<br/>value = [0, 0, 0, 0, 0, 0, 0, 0, 2, 0, 0, 0, 0, 0, 0<br/>0, 0, 0]<br/>class = Ghost>, fillcolor="#39d7e5ff"] ;
281 -> 282 ;
283 [label=<Sp. Defense &le; 27.5<br/>gini = 0.656<br/>samples = 8<br/>value = [1, 0, 0, 0, 0, 0, 0, 0, 0, 0, 0, 0, 0, 1, 0<br/>4, 0, 2]<br/>class = Rock>, fillcolor="#e5399d55"] ;
281 -> 283 ;
284 [label=<gini = 0.0<br/>samples = 2<br/>value = [0, 0, 0, 0, 0, 0, 0, 0, 0, 0, 0, 0, 0, 0, 0<br/>0, 0, 2]<br/>class = Water>, fillcolor="#e54739ff"] ;
283 -> 284 ;
285 [label=<Speed &le; 60.0<br/>gini = 0.5<br/>samples = 6<br/>value = [1, 0, 0, 0, 0, 0, 0, 0, 0, 0, 0, 0, 0, 1, 0<br/>4, 0, 0]<br/>class = Rock>, fillcolor="#e5399d99"] ;
283 -> 285 ;
286 [label=<HP &le; 30.5<br/>gini = 0.32<br/>samples = 5<br/>value = [1, 0, 0, 0, 0, 0, 0, 0, 0, 0, 0, 0, 0, 0, 0<br/>4, 0, 0]<br/>class = Rock>, fillcolor="#e5399dbf"] ;
285 -> 286 ;
287 [label=<gini = 0.0<br/>samples = 3<br/>value = [0, 0, 0, 0, 0, 0, 0, 0, 0, 0, 0, 0, 0, 0, 0<br/>3, 0, 0]<br/>class = Rock>, fillcolor="#e5399dff"] ;
286 -> 287 ;
288 [label=<Attack &le; 62.5<br/>gini = 0.5<br/>samples = 2<br/>value = [1, 0, 0, 0, 0, 0, 0, 0, 0, 0, 0, 0, 0, 0, 0<br/>1, 0, 0]<br/>class = Bug>, fillcolor="#e5813900"] ;
286 -> 288 ;
289 [label=<gini = 0.0<br/>samples = 1<br/>value = [1, 0, 0, 0, 0, 0, 0, 0, 0, 0, 0, 0, 0, 0, 0<br/>0, 0, 0]<br/>class = Bug>, fillcolor="#e58139ff"] ;
288 -> 289 ;
290 [label=<gini = 0.0<br/>samples = 1<br/>value = [0, 0, 0, 0, 0, 0, 0, 0, 0, 0, 0, 0, 0, 0, 0<br/>1, 0, 0]<br/>class = Rock>, fillcolor="#e5399dff"] ;
288 -> 290 ;
291 [label=<gini = 0.0<br/>samples = 1<br/>value = [0, 0, 0, 0, 0, 0, 0, 0, 0, 0, 0, 0, 0, 1, 0<br/>0, 0, 0]<br/>class = Poison>, fillcolor="#ba39e5ff"] ;
285 -> 291 ;
292 [label=<Attack &le; 67.0<br/>gini = 0.834<br/>samples = 27<br/>value = [5, 0, 0, 0, 0, 1, 0, 0, 0, 2, 6, 1, 0, 0, 0<br/>5, 5, 2]<br/>class = Ground>, fillcolor="#3964e50c"] ;
280 -> 292 ;
293 [label=<Sp. Attack &le; 29.5<br/>gini = 0.56<br/>samples = 5<br/>value = [3, 0, 0, 0, 0, 0, 0, 0, 0, 0, 1, 0, 0, 0, 0<br/>0, 1, 0]<br/>class = Bug>, fillcolor="#e581397f"] ;
292 -> 293 ;
294 [label=<gini = 0.0<br/>samples = 1<br/>value = [0, 0, 0, 0, 0, 0, 0, 0, 0, 0, 0, 0, 0, 0, 0<br/>0, 1, 0]<br/>class = Steel>, fillcolor="#e53964ff"] ;
293 -> 294 ;
295 [label=<Defense &le; 92.5<br/>gini = 0.375<br/>samples = 4<br/>value = [3, 0, 0, 0, 0, 0, 0, 0, 0, 0, 1, 0, 0, 0, 0<br/>0, 0, 0]<br/>class = Bug>, fillcolor="#e58139aa"] ;
293 -> 295 ;
296 [label=<gini = 0.0<br/>samples = 3<br/>value = [3, 0, 0, 0, 0, 0, 0, 0, 0, 0, 0, 0, 0, 0, 0<br/>0, 0, 0]<br/>class = Bug>, fillcolor="#e58139ff"] ;
295 -> 296 ;
297 [label=<gini = 0.0<br/>samples = 1<br/>value = [0, 0, 0, 0, 0, 0, 0, 0, 0, 0, 1, 0, 0, 0, 0<br/>0, 0, 0]<br/>class = Ground>, fillcolor="#3964e5ff"] ;
295 -> 297 ;
298 [label=<Speed &le; 17.5<br/>gini = 0.835<br/>samples = 22<br/>value = [2, 0, 0, 0, 0, 1, 0, 0, 0, 2, 5, 1, 0, 0, 0<br/>5, 4, 2]<br/>class = Ground>, fillcolor="#3964e500"] ;
292 -> 298 ;
299 [label=<gini = 0.0<br/>samples = 2<br/>value = [0, 0, 0, 0, 0, 0, 0, 0, 0, 0, 0, 0, 0, 0, 0<br/>2, 0, 0]<br/>class = Rock>, fillcolor="#e5399dff"] ;
298 -> 299 ;
300 [label=<Attack &le; 87.0<br/>gini = 0.84<br/>samples = 20<br/>value = [2, 0, 0, 0, 0, 1, 0, 0, 0, 2, 5, 1, 0, 0, 0<br/>3, 4, 2]<br/>class = Ground>, fillcolor="#3964e510"] ;
298 -> 300 ;
301 [label=<Sp. Attack &le; 31.0<br/>gini = 0.66<br/>samples = 10<br/>value = [0, 0, 0, 0, 0, 0, 0, 0, 0, 0, 4, 1, 0, 0, 0<br/>0, 4, 1]<br/>class = Ground>, fillcolor="#3964e500"] ;
300 -> 301 ;
302 [label=<gini = 0.0<br/>samples = 2<br/>value = [0, 0, 0, 0, 0, 0, 0, 0, 0, 0, 2, 0, 0, 0, 0<br/>0, 0, 0]<br/>class = Ground>, fillcolor="#3964e5ff"] ;
301 -> 302 ;
303 [label=<Defense &le; 101.5<br/>gini = 0.656<br/>samples = 8<br/>value = [0, 0, 0, 0, 0, 0, 0, 0, 0, 0, 2, 1, 0, 0, 0<br/>0, 4, 1]<br/>class = Steel>, fillcolor="#e5396455"] ;
301 -> 303 ;
304 [label=<Sp. Attack &le; 33.5<br/>gini = 0.32<br/>samples = 5<br/>value = [0, 0, 0, 0, 0, 0, 0, 0, 0, 0, 0, 1, 0, 0, 0<br/>0, 4, 0]<br/>class = Steel>, fillcolor="#e53964bf"] ;
303 -> 304 ;
305 [label=<gini = 0.0<br/>samples = 1<br/>value = [0, 0, 0, 0, 0, 0, 0, 0, 0, 0, 0, 1, 0, 0, 0<br/>0, 0, 0]<br/>class = Ice>, fillcolor="#4739e5ff"] ;
304 -> 305 ;
306 [label=<gini = 0.0<br/>samples = 4<br/>value = [0, 0, 0, 0, 0, 0, 0, 0, 0, 0, 0, 0, 0, 0, 0<br/>0, 4, 0]<br/>class = Steel>, fillcolor="#e53964ff"] ;
304 -> 306 ;
307 [label=<Defense &le; 104.0<br/>gini = 0.444<br/>samples = 3<br/>value = [0, 0, 0, 0, 0, 0, 0, 0, 0, 0, 2, 0, 0, 0, 0<br/>0, 0, 1]<br/>class = Ground>, fillcolor="#3964e57f"] ;
303 -> 307 ;
308 [label=<gini = 0.0<br/>samples = 1<br/>value = [0, 0, 0, 0, 0, 0, 0, 0, 0, 0, 0, 0, 0, 0, 0<br/>0, 0, 1]<br/>class = Water>, fillcolor="#e54739ff"] ;
307 -> 308 ;
309 [label=<gini = 0.0<br/>samples = 2<br/>value = [0, 0, 0, 0, 0, 0, 0, 0, 0, 0, 2, 0, 0, 0, 0<br/>0, 0, 0]<br/>class = Ground>, fillcolor="#3964e5ff"] ;
307 -> 309 ;
310 [label=<Attack &le; 94.5<br/>gini = 0.8<br/>samples = 10<br/>value = [2, 0, 0, 0, 0, 1, 0, 0, 0, 2, 1, 0, 0, 0, 0<br/>3, 0, 1]<br/>class = Rock>, fillcolor="#e5399d20"] ;
300 -> 310 ;
311 [label=<gini = 0.0<br/>samples = 2<br/>value = [0, 0, 0, 0, 0, 0, 0, 0, 0, 2, 0, 0, 0, 0, 0<br/>0, 0, 0]<br/>class = Grass>, fillcolor="#399de5ff"] ;
310 -> 311 ;
312 [label=<Speed &le; 55.0<br/>gini = 0.75<br/>samples = 8<br/>value = [2, 0, 0, 0, 0, 1, 0, 0, 0, 0, 1, 0, 0, 0, 0<br/>3, 0, 1]<br/>class = Rock>, fillcolor="#e5399d2a"] ;
310 -> 312 ;
313 [label=<gini = 0.0<br/>samples = 2<br/>value = [0, 0, 0, 0, 0, 0, 0, 0, 0, 0, 0, 0, 0, 0, 0<br/>2, 0, 0]<br/>class = Rock>, fillcolor="#e5399dff"] ;
312 -> 313 ;
314 [label=<Attack &le; 102.0<br/>gini = 0.778<br/>samples = 6<br/>value = [2, 0, 0, 0, 0, 1, 0, 0, 0, 0, 1, 0, 0, 0, 0<br/>1, 0, 1]<br/>class = Bug>, fillcolor="#e5813933"] ;
312 -> 314 ;
315 [label=<Sp. Defense &le; 70.0<br/>gini = 0.667<br/>samples = 3<br/>value = [0, 0, 0, 0, 0, 1, 0, 0, 0, 0, 1, 0, 0, 0, 0<br/>1, 0, 0]<br/>class = Fighting>, fillcolor="#39e54700"] ;
314 -> 315 ;
316 [label=<gini = 0.0<br/>samples = 1<br/>value = [0, 0, 0, 0, 0, 0, 0, 0, 0, 0, 0, 0, 0, 0, 0<br/>1, 0, 0]<br/>class = Rock>, fillcolor="#e5399dff"] ;
315 -> 316 ;
317 [label=<Speed &le; 82.5<br/>gini = 0.5<br/>samples = 2<br/>value = [0, 0, 0, 0, 0, 1, 0, 0, 0, 0, 1, 0, 0, 0, 0<br/>0, 0, 0]<br/>class = Fighting>, fillcolor="#39e54700"] ;
315 -> 317 ;
318 [label=<gini = 0.0<br/>samples = 1<br/>value = [0, 0, 0, 0, 0, 1, 0, 0, 0, 0, 0, 0, 0, 0, 0<br/>0, 0, 0]<br/>class = Fighting>, fillcolor="#39e547ff"] ;
317 -> 318 ;
319 [label=<gini = 0.0<br/>samples = 1<br/>value = [0, 0, 0, 0, 0, 0, 0, 0, 0, 0, 1, 0, 0, 0, 0<br/>0, 0, 0]<br/>class = Ground>, fillcolor="#3964e5ff"] ;
317 -> 319 ;
320 [label=<HP &le; 56.5<br/>gini = 0.444<br/>samples = 3<br/>value = [2, 0, 0, 0, 0, 0, 0, 0, 0, 0, 0, 0, 0, 0, 0<br/>0, 0, 1]<br/>class = Bug>, fillcolor="#e581397f"] ;
314 -> 320 ;
321 [label=<gini = 0.0<br/>samples = 1<br/>value = [0, 0, 0, 0, 0, 0, 0, 0, 0, 0, 0, 0, 0, 0, 0<br/>0, 0, 1]<br/>class = Water>, fillcolor="#e54739ff"] ;
320 -> 321 ;
322 [label=<gini = 0.0<br/>samples = 2<br/>value = [2, 0, 0, 0, 0, 0, 0, 0, 0, 0, 0, 0, 0, 0, 0<br/>0, 0, 0]<br/>class = Bug>, fillcolor="#e58139ff"] ;
320 -> 322 ;
323 [label=<HP &le; 97.5<br/>gini = 0.694<br/>samples = 7<br/>value = [0, 1, 0, 0, 0, 2, 0, 0, 0, 0, 0, 0, 3, 0, 0<br/>0, 0, 1]<br/>class = Normal>, fillcolor="#8139e533"] ;
279 -> 323 ;
324 [label=<gini = 0.0<br/>samples = 3<br/>value = [0, 0, 0, 0, 0, 0, 0, 0, 0, 0, 0, 0, 3, 0, 0<br/>0, 0, 0]<br/>class = Normal>, fillcolor="#8139e5ff"] ;
323 -> 324 ;
325 [label=<Defense &le; 100.0<br/>gini = 0.625<br/>samples = 4<br/>value = [0, 1, 0, 0, 0, 2, 0, 0, 0, 0, 0, 0, 0, 0, 0<br/>0, 0, 1]<br/>class = Fighting>, fillcolor="#39e54755"] ;
323 -> 325 ;
326 [label=<gini = 0.0<br/>samples = 2<br/>value = [0, 0, 0, 0, 0, 2, 0, 0, 0, 0, 0, 0, 0, 0, 0<br/>0, 0, 0]<br/>class = Fighting>, fillcolor="#39e547ff"] ;
325 -> 326 ;
327 [label=<Attack &le; 77.5<br/>gini = 0.5<br/>samples = 2<br/>value = [0, 1, 0, 0, 0, 0, 0, 0, 0, 0, 0, 0, 0, 0, 0<br/>0, 0, 1]<br/>class = Dark>, fillcolor="#e5ba3900"] ;
325 -> 327 ;
328 [label=<gini = 0.0<br/>samples = 1<br/>value = [0, 1, 0, 0, 0, 0, 0, 0, 0, 0, 0, 0, 0, 0, 0<br/>0, 0, 0]<br/>class = Dark>, fillcolor="#e5ba39ff"] ;
327 -> 328 ;
329 [label=<gini = 0.0<br/>samples = 1<br/>value = [0, 0, 0, 0, 0, 0, 0, 0, 0, 0, 0, 0, 0, 0, 0<br/>0, 0, 1]<br/>class = Water>, fillcolor="#e54739ff"] ;
327 -> 329 ;
330 [label=<Defense &le; 121.0<br/>gini = 0.844<br/>samples = 16<br/>value = [1, 2, 3, 0, 0, 0, 0, 0, 4, 2, 1, 0, 0, 2, 0<br/>1, 0, 0]<br/>class = Ghost>, fillcolor="#39d7e514"] ;
278 -> 330 ;
331 [label=<Attack &le; 92.5<br/>gini = 0.8<br/>samples = 10<br/>value = [1, 2, 3, 0, 0, 0, 0, 0, 0, 1, 1, 0, 0, 2, 0<br/>0, 0, 0]<br/>class = Dragon>, fillcolor="#d7e53920"] ;
330 -> 331 ;
332 [label=<Sp. Attack &le; 58.0<br/>gini = 0.625<br/>samples = 4<br/>value = [0, 1, 0, 0, 0, 0, 0, 0, 0, 1, 0, 0, 0, 2, 0<br/>0, 0, 0]<br/>class = Poison>, fillcolor="#ba39e555"] ;
331 -> 332 ;
333 [label=<gini = 0.0<br/>samples = 1<br/>value = [0, 0, 0, 0, 0, 0, 0, 0, 0, 1, 0, 0, 0, 0, 0<br/>0, 0, 0]<br/>class = Grass>, fillcolor="#399de5ff"] ;
332 -> 333 ;
334 [label=<Sp. Defense &le; 102.5<br/>gini = 0.444<br/>samples = 3<br/>value = [0, 1, 0, 0, 0, 0, 0, 0, 0, 0, 0, 0, 0, 2, 0<br/>0, 0, 0]<br/>class = Poison>, fillcolor="#ba39e57f"] ;
332 -> 334 ;
335 [label=<gini = 0.0<br/>samples = 2<br/>value = [0, 0, 0, 0, 0, 0, 0, 0, 0, 0, 0, 0, 0, 2, 0<br/>0, 0, 0]<br/>class = Poison>, fillcolor="#ba39e5ff"] ;
334 -> 335 ;
336 [label=<gini = 0.0<br/>samples = 1<br/>value = [0, 1, 0, 0, 0, 0, 0, 0, 0, 0, 0, 0, 0, 0, 0<br/>0, 0, 0]<br/>class = Dark>, fillcolor="#e5ba39ff"] ;
334 -> 336 ;
337 [label=<Defense &le; 102.5<br/>gini = 0.667<br/>samples = 6<br/>value = [1, 1, 3, 0, 0, 0, 0, 0, 0, 0, 1, 0, 0, 0, 0<br/>0, 0, 0]<br/>class = Dragon>, fillcolor="#d7e53966"] ;
331 -> 337 ;
338 [label=<Defense &le; 95.0<br/>gini = 0.375<br/>samples = 4<br/>value = [0, 1, 3, 0, 0, 0, 0, 0, 0, 0, 0, 0, 0, 0, 0<br/>0, 0, 0]<br/>class = Dragon>, fillcolor="#d7e539aa"] ;
337 -> 338 ;
339 [label=<gini = 0.0<br/>samples = 2<br/>value = [0, 0, 2, 0, 0, 0, 0, 0, 0, 0, 0, 0, 0, 0, 0<br/>0, 0, 0]<br/>class = Dragon>, fillcolor="#d7e539ff"] ;
338 -> 339 ;
340 [label=<Sp. Defense &le; 60.0<br/>gini = 0.5<br/>samples = 2<br/>value = [0, 1, 1, 0, 0, 0, 0, 0, 0, 0, 0, 0, 0, 0, 0<br/>0, 0, 0]<br/>class = Dark>, fillcolor="#e5ba3900"] ;
338 -> 340 ;
341 [label=<gini = 0.0<br/>samples = 1<br/>value = [0, 0, 1, 0, 0, 0, 0, 0, 0, 0, 0, 0, 0, 0, 0<br/>0, 0, 0]<br/>class = Dragon>, fillcolor="#d7e539ff"] ;
340 -> 341 ;
342 [label=<gini = 0.0<br/>samples = 1<br/>value = [0, 1, 0, 0, 0, 0, 0, 0, 0, 0, 0, 0, 0, 0, 0<br/>0, 0, 0]<br/>class = Dark>, fillcolor="#e5ba39ff"] ;
340 -> 342 ;
343 [label=<Sp. Defense &le; 82.5<br/>gini = 0.5<br/>samples = 2<br/>value = [1, 0, 0, 0, 0, 0, 0, 0, 0, 0, 1, 0, 0, 0, 0<br/>0, 0, 0]<br/>class = Bug>, fillcolor="#e5813900"] ;
337 -> 343 ;
344 [label=<gini = 0.0<br/>samples = 1<br/>value = [0, 0, 0, 0, 0, 0, 0, 0, 0, 0, 1, 0, 0, 0, 0<br/>0, 0, 0]<br/>class = Ground>, fillcolor="#3964e5ff"] ;
343 -> 344 ;
345 [label=<gini = 0.0<br/>samples = 1<br/>value = [1, 0, 0, 0, 0, 0, 0, 0, 0, 0, 0, 0, 0, 0, 0<br/>0, 0, 0]<br/>class = Bug>, fillcolor="#e58139ff"] ;
343 -> 345 ;
346 [label=<Attack &le; 105.0<br/>gini = 0.5<br/>samples = 6<br/>value = [0, 0, 0, 0, 0, 0, 0, 0, 4, 1, 0, 0, 0, 0, 0<br/>1, 0, 0]<br/>class = Ghost>, fillcolor="#39d7e599"] ;
330 -> 346 ;
347 [label=<gini = 0.0<br/>samples = 4<br/>value = [0, 0, 0, 0, 0, 0, 0, 0, 4, 0, 0, 0, 0, 0, 0<br/>0, 0, 0]<br/>class = Ghost>, fillcolor="#39d7e5ff"] ;
346 -> 347 ;
348 [label=<Speed &le; 60.0<br/>gini = 0.5<br/>samples = 2<br/>value = [0, 0, 0, 0, 0, 0, 0, 0, 0, 1, 0, 0, 0, 0, 0<br/>1, 0, 0]<br/>class = Grass>, fillcolor="#399de500"] ;
346 -> 348 ;
349 [label=<gini = 0.0<br/>samples = 1<br/>value = [0, 0, 0, 0, 0, 0, 0, 0, 0, 0, 0, 0, 0, 0, 0<br/>1, 0, 0]<br/>class = Rock>, fillcolor="#e5399dff"] ;
348 -> 349 ;
350 [label=<gini = 0.0<br/>samples = 1<br/>value = [0, 0, 0, 0, 0, 0, 0, 0, 0, 1, 0, 0, 0, 0, 0<br/>0, 0, 0]<br/>class = Grass>, fillcolor="#399de5ff"] ;
348 -> 350 ;
351 [label=<Sp. Defense &le; 47.5<br/>gini = 0.628<br/>samples = 11<br/>value = [2, 0, 0, 0, 0, 0, 0, 0, 0, 0, 0, 1, 0, 0, 0<br/>2, 6, 0]<br/>class = Steel>, fillcolor="#e5396471"] ;
277 -> 351 ;
352 [label=<Sp. Attack &le; 37.0<br/>gini = 0.5<br/>samples = 2<br/>value = [0, 0, 0, 0, 0, 0, 0, 0, 0, 0, 0, 1, 0, 0, 0<br/>1, 0, 0]<br/>class = Ice>, fillcolor="#4739e500"] ;
351 -> 352 ;
353 [label=<gini = 0.0<br/>samples = 1<br/>value = [0, 0, 0, 0, 0, 0, 0, 0, 0, 0, 0, 0, 0, 0, 0<br/>1, 0, 0]<br/>class = Rock>, fillcolor="#e5399dff"] ;
352 -> 353 ;
354 [label=<gini = 0.0<br/>samples = 1<br/>value = [0, 0, 0, 0, 0, 0, 0, 0, 0, 0, 0, 1, 0, 0, 0<br/>0, 0, 0]<br/>class = Ice>, fillcolor="#4739e5ff"] ;
352 -> 354 ;
355 [label=<Sp. Attack &le; 25.0<br/>gini = 0.494<br/>samples = 9<br/>value = [2, 0, 0, 0, 0, 0, 0, 0, 0, 0, 0, 0, 0, 0, 0<br/>1, 6, 0]<br/>class = Steel>, fillcolor="#e5396492"] ;
351 -> 355 ;
356 [label=<gini = 0.0<br/>samples = 1<br/>value = [1, 0, 0, 0, 0, 0, 0, 0, 0, 0, 0, 0, 0, 0, 0<br/>0, 0, 0]<br/>class = Bug>, fillcolor="#e58139ff"] ;
355 -> 356 ;
357 [label=<Sp. Defense &le; 104.0<br/>gini = 0.406<br/>samples = 8<br/>value = [1, 0, 0, 0, 0, 0, 0, 0, 0, 0, 0, 0, 0, 0, 0<br/>1, 6, 0]<br/>class = Steel>, fillcolor="#e53964b6"] ;
355 -> 357 ;
358 [label=<Sp. Attack &le; 57.5<br/>gini = 0.278<br/>samples = 6<br/>value = [1, 0, 0, 0, 0, 0, 0, 0, 0, 0, 0, 0, 0, 0, 0<br/>0, 5, 0]<br/>class = Steel>, fillcolor="#e53964cc"] ;
357 -> 358 ;
359 [label=<gini = 0.0<br/>samples = 4<br/>value = [0, 0, 0, 0, 0, 0, 0, 0, 0, 0, 0, 0, 0, 0, 0<br/>0, 4, 0]<br/>class = Steel>, fillcolor="#e53964ff"] ;
358 -> 359 ;
360 [label=<HP &le; 72.5<br/>gini = 0.5<br/>samples = 2<br/>value = [1, 0, 0, 0, 0, 0, 0, 0, 0, 0, 0, 0, 0, 0, 0<br/>0, 1, 0]<br/>class = Bug>, fillcolor="#e5813900"] ;
358 -> 360 ;
361 [label=<gini = 0.0<br/>samples = 1<br/>value = [0, 0, 0, 0, 0, 0, 0, 0, 0, 0, 0, 0, 0, 0, 0<br/>0, 1, 0]<br/>class = Steel>, fillcolor="#e53964ff"] ;
360 -> 361 ;
362 [label=<gini = 0.0<br/>samples = 1<br/>value = [1, 0, 0, 0, 0, 0, 0, 0, 0, 0, 0, 0, 0, 0, 0<br/>0, 0, 0]<br/>class = Bug>, fillcolor="#e58139ff"] ;
360 -> 362 ;
363 [label=<Defense &le; 159.0<br/>gini = 0.5<br/>samples = 2<br/>value = [0, 0, 0, 0, 0, 0, 0, 0, 0, 0, 0, 0, 0, 0, 0<br/>1, 1, 0]<br/>class = Rock>, fillcolor="#e5399d00"] ;
357 -> 363 ;
364 [label=<gini = 0.0<br/>samples = 1<br/>value = [0, 0, 0, 0, 0, 0, 0, 0, 0, 0, 0, 0, 0, 0, 0<br/>0, 1, 0]<br/>class = Steel>, fillcolor="#e53964ff"] ;
363 -> 364 ;
365 [label=<gini = 0.0<br/>samples = 1<br/>value = [0, 0, 0, 0, 0, 0, 0, 0, 0, 0, 0, 0, 0, 0, 0<br/>1, 0, 0]<br/>class = Rock>, fillcolor="#e5399dff"] ;
363 -> 365 ;
366 [label=<Attack &le; 58.5<br/>gini = 0.911<br/>samples = 311<br/>value = [11, 11, 12, 25, 6, 4, 30, 1, 15, 40, 9, 12, 21<br/>9, 37, 12, 6, 50]<br/>class = Water>, fillcolor="#e5473909"] ;
0 -> 366 [labeldistance=2.5, labelangle=-45, headlabel="False"] ;
367 [label=<Defense &le; 32.5<br/>gini = 0.817<br/>samples = 55<br/>value = [2, 0, 0, 9, 1, 0, 4, 0, 4, 4, 0, 3, 1, 0<br/>19, 1, 0, 7]<br/>class = Psychic>, fillcolor="#e539d737"] ;
366 -> 367 ;
368 [label=<gini = 0.0<br/>samples = 2<br/>value = [0, 0, 0, 0, 0, 0, 0, 0, 0, 0, 0, 2, 0, 0, 0<br/>0, 0, 0]<br/>class = Ice>, fillcolor="#4739e5ff"] ;
367 -> 368 ;
369 [label=<Speed &le; 90.5<br/>gini = 0.805<br/>samples = 53<br/>value = [2, 0, 0, 9, 1, 0, 4, 0, 4, 4, 0, 1, 1, 0<br/>19, 1, 0, 7]<br/>class = Psychic>, fillcolor="#e539d73a"] ;
367 -> 369 ;
370 [label=<Attack &le; 55.5<br/>gini = 0.82<br/>samples = 41<br/>value = [2, 0, 0, 3, 1, 0, 4, 0, 3, 4, 0, 1, 1, 0<br/>14, 1, 0, 7]<br/>class = Psychic>, fillcolor="#e539d735"] ;
369 -> 370 ;
371 [label=<Defense &le; 102.5<br/>gini = 0.817<br/>samples = 39<br/>value = [2, 0, 0, 3, 1, 0, 4, 0, 3, 4, 0, 1, 1, 0<br/>14, 1, 0, 5]<br/>class = Psychic>, fillcolor="#e539d744"] ;
370 -> 371 ;
372 [label=<Attack &le; 32.5<br/>gini = 0.799<br/>samples = 36<br/>value = [2, 0, 0, 3, 1, 0, 2, 0, 3, 3, 0, 1, 1, 0<br/>14, 1, 0, 5]<br/>class = Psychic>, fillcolor="#e539d74a"] ;
371 -> 372 ;
373 [label=<Defense &le; 52.5<br/>gini = 0.278<br/>samples = 6<br/>value = [0, 0, 0, 0, 0, 0, 0, 0, 1, 0, 0, 0, 0, 0, 5<br/>0, 0, 0]<br/>class = Psychic>, fillcolor="#e539d7cc"] ;
372 -> 373 ;
374 [label=<gini = 0.0<br/>samples = 5<br/>value = [0, 0, 0, 0, 0, 0, 0, 0, 0, 0, 0, 0, 0, 0, 5<br/>0, 0, 0]<br/>class = Psychic>, fillcolor="#e539d7ff"] ;
373 -> 374 ;
375 [label=<gini = 0.0<br/>samples = 1<br/>value = [0, 0, 0, 0, 0, 0, 0, 0, 1, 0, 0, 0, 0, 0, 0<br/>0, 0, 0]<br/>class = Ghost>, fillcolor="#39d7e5ff"] ;
373 -> 375 ;
376 [label=<Sp. Attack &le; 87.5<br/>gini = 0.844<br/>samples = 30<br/>value = [2, 0, 0, 3, 1, 0, 2, 0, 2, 3, 0, 1, 1, 0, 9<br/>1, 0, 5]<br/>class = Psychic>, fillcolor="#e539d729"] ;
372 -> 376 ;
377 [label=<Defense &le; 65.0<br/>gini = 0.831<br/>samples = 19<br/>value = [0, 0, 0, 2, 1, 0, 2, 0, 0, 3, 0, 1, 1, 0, 4<br/>0, 0, 5]<br/>class = Water>, fillcolor="#e5473911"] ;
376 -> 377 ;
378 [label=<Speed &le; 57.5<br/>gini = 0.853<br/>samples = 15<br/>value = [0, 0, 0, 2, 1, 0, 2, 0, 0, 3, 0, 1, 1, 0, 3<br/>0, 0, 2]<br/>class = Grass>, fillcolor="#399de500"] ;
377 -> 378 ;
379 [label=<HP &le; 47.5<br/>gini = 0.8<br/>samples = 10<br/>value = [0, 0, 0, 1, 1, 0, 0, 0, 0, 3, 0, 1, 0, 0, 2<br/>0, 0, 2]<br/>class = Grass>, fillcolor="#399de520"] ;
378 -> 379 ;
380 [label=<HP &le; 41.5<br/>gini = 0.56<br/>samples = 5<br/>value = [0, 0, 0, 0, 0, 0, 0, 0, 0, 3, 0, 1, 0, 0, 1<br/>0, 0, 0]<br/>class = Grass>, fillcolor="#399de57f"] ;
379 -> 380 ;
381 [label=<HP &le; 37.0<br/>gini = 0.5<br/>samples = 2<br/>value = [0, 0, 0, 0, 0, 0, 0, 0, 0, 0, 0, 1, 0, 0, 1<br/>0, 0, 0]<br/>class = Ice>, fillcolor="#4739e500"] ;
380 -> 381 ;
382 [label=<gini = 0.0<br/>samples = 1<br/>value = [0, 0, 0, 0, 0, 0, 0, 0, 0, 0, 0, 1, 0, 0, 0<br/>0, 0, 0]<br/>class = Ice>, fillcolor="#4739e5ff"] ;
381 -> 382 ;
383 [label=<gini = 0.0<br/>samples = 1<br/>value = [0, 0, 0, 0, 0, 0, 0, 0, 0, 0, 0, 0, 0, 0, 1<br/>0, 0, 0]<br/>class = Psychic>, fillcolor="#e539d7ff"] ;
381 -> 383 ;
384 [label=<gini = 0.0<br/>samples = 3<br/>value = [0, 0, 0, 0, 0, 0, 0, 0, 0, 3, 0, 0, 0, 0, 0<br/>0, 0, 0]<br/>class = Grass>, fillcolor="#399de5ff"] ;
380 -> 384 ;
385 [label=<Defense &le; 52.5<br/>gini = 0.72<br/>samples = 5<br/>value = [0, 0, 0, 1, 1, 0, 0, 0, 0, 0, 0, 0, 0, 0, 1<br/>0, 0, 2]<br/>class = Water>, fillcolor="#e5473940"] ;
379 -> 385 ;
386 [label=<gini = 0.0<br/>samples = 2<br/>value = [0, 0, 0, 0, 0, 0, 0, 0, 0, 0, 0, 0, 0, 0, 0<br/>0, 0, 2]<br/>class = Water>, fillcolor="#e54739ff"] ;
385 -> 386 ;
387 [label=<Speed &le; 26.5<br/>gini = 0.667<br/>samples = 3<br/>value = [0, 0, 0, 1, 1, 0, 0, 0, 0, 0, 0, 0, 0, 0, 1<br/>0, 0, 0]<br/>class = Electric>, fillcolor="#9de53900"] ;
385 -> 387 ;
388 [label=<gini = 0.0<br/>samples = 1<br/>value = [0, 0, 0, 0, 1, 0, 0, 0, 0, 0, 0, 0, 0, 0, 0<br/>0, 0, 0]<br/>class = Fairy>, fillcolor="#64e539ff"] ;
387 -> 388 ;
389 [label=<HP &le; 62.5<br/>gini = 0.5<br/>samples = 2<br/>value = [0, 0, 0, 1, 0, 0, 0, 0, 0, 0, 0, 0, 0, 0, 1<br/>0, 0, 0]<br/>class = Electric>, fillcolor="#9de53900"] ;
387 -> 389 ;
390 [label=<gini = 0.0<br/>samples = 1<br/>value = [0, 0, 0, 0, 0, 0, 0, 0, 0, 0, 0, 0, 0, 0, 1<br/>0, 0, 0]<br/>class = Psychic>, fillcolor="#e539d7ff"] ;
389 -> 390 ;
391 [label=<gini = 0.0<br/>samples = 1<br/>value = [0, 0, 0, 1, 0, 0, 0, 0, 0, 0, 0, 0, 0, 0, 0<br/>0, 0, 0]<br/>class = Electric>, fillcolor="#9de539ff"] ;
389 -> 391 ;
392 [label=<Sp. Defense &le; 49.5<br/>gini = 0.72<br/>samples = 5<br/>value = [0, 0, 0, 1, 0, 0, 2, 0, 0, 0, 0, 0, 1, 0, 1<br/>0, 0, 0]<br/>class = Fire>, fillcolor="#39e58140"] ;
378 -> 392 ;
393 [label=<Sp. Attack &le; 67.5<br/>gini = 0.5<br/>samples = 2<br/>value = [0, 0, 0, 1, 0, 0, 0, 0, 0, 0, 0, 0, 0, 0, 1<br/>0, 0, 0]<br/>class = Electric>, fillcolor="#9de53900"] ;
392 -> 393 ;
394 [label=<gini = 0.0<br/>samples = 1<br/>value = [0, 0, 0, 1, 0, 0, 0, 0, 0, 0, 0, 0, 0, 0, 0<br/>0, 0, 0]<br/>class = Electric>, fillcolor="#9de539ff"] ;
393 -> 394 ;
395 [label=<gini = 0.0<br/>samples = 1<br/>value = [0, 0, 0, 0, 0, 0, 0, 0, 0, 0, 0, 0, 0, 0, 1<br/>0, 0, 0]<br/>class = Psychic>, fillcolor="#e539d7ff"] ;
393 -> 395 ;
396 [label=<Sp. Defense &le; 78.0<br/>gini = 0.444<br/>samples = 3<br/>value = [0, 0, 0, 0, 0, 0, 2, 0, 0, 0, 0, 0, 1, 0, 0<br/>0, 0, 0]<br/>class = Fire>, fillcolor="#39e5817f"] ;
392 -> 396 ;
397 [label=<gini = 0.0<br/>samples = 2<br/>value = [0, 0, 0, 0, 0, 0, 2, 0, 0, 0, 0, 0, 0, 0, 0<br/>0, 0, 0]<br/>class = Fire>, fillcolor="#39e581ff"] ;
396 -> 397 ;
398 [label=<gini = 0.0<br/>samples = 1<br/>value = [0, 0, 0, 0, 0, 0, 0, 0, 0, 0, 0, 0, 1, 0, 0<br/>0, 0, 0]<br/>class = Normal>, fillcolor="#8139e5ff"] ;
396 -> 398 ;
399 [label=<Speed &le; 57.5<br/>gini = 0.375<br/>samples = 4<br/>value = [0, 0, 0, 0, 0, 0, 0, 0, 0, 0, 0, 0, 0, 0, 1<br/>0, 0, 3]<br/>class = Water>, fillcolor="#e54739aa"] ;
377 -> 399 ;
400 [label=<gini = 0.0<br/>samples = 1<br/>value = [0, 0, 0, 0, 0, 0, 0, 0, 0, 0, 0, 0, 0, 0, 1<br/>0, 0, 0]<br/>class = Psychic>, fillcolor="#e539d7ff"] ;
399 -> 400 ;
401 [label=<gini = 0.0<br/>samples = 3<br/>value = [0, 0, 0, 0, 0, 0, 0, 0, 0, 0, 0, 0, 0, 0, 0<br/>0, 0, 3]<br/>class = Water>, fillcolor="#e54739ff"] ;
399 -> 401 ;
402 [label=<Sp. Defense &le; 57.5<br/>gini = 0.711<br/>samples = 11<br/>value = [2, 0, 0, 1, 0, 0, 0, 0, 2, 0, 0, 0, 0, 0, 5<br/>1, 0, 0]<br/>class = Psychic>, fillcolor="#e539d755"] ;
376 -> 402 ;
403 [label=<Attack &le; 37.5<br/>gini = 0.667<br/>samples = 3<br/>value = [1, 0, 0, 1, 0, 0, 0, 0, 0, 0, 0, 0, 0, 0, 0<br/>1, 0, 0]<br/>class = Bug>, fillcolor="#e5813900"] ;
402 -> 403 ;
404 [label=<gini = 0.0<br/>samples = 1<br/>value = [0, 0, 0, 1, 0, 0, 0, 0, 0, 0, 0, 0, 0, 0, 0<br/>0, 0, 0]<br/>class = Electric>, fillcolor="#9de539ff"] ;
403 -> 404 ;
405 [label=<HP &le; 57.5<br/>gini = 0.5<br/>samples = 2<br/>value = [1, 0, 0, 0, 0, 0, 0, 0, 0, 0, 0, 0, 0, 0, 0<br/>1, 0, 0]<br/>class = Bug>, fillcolor="#e5813900"] ;
403 -> 405 ;
406 [label=<gini = 0.0<br/>samples = 1<br/>value = [0, 0, 0, 0, 0, 0, 0, 0, 0, 0, 0, 0, 0, 0, 0<br/>1, 0, 0]<br/>class = Rock>, fillcolor="#e5399dff"] ;
405 -> 406 ;
407 [label=<gini = 0.0<br/>samples = 1<br/>value = [1, 0, 0, 0, 0, 0, 0, 0, 0, 0, 0, 0, 0, 0, 0<br/>0, 0, 0]<br/>class = Bug>, fillcolor="#e58139ff"] ;
405 -> 407 ;
408 [label=<HP &le; 62.5<br/>gini = 0.531<br/>samples = 8<br/>value = [1, 0, 0, 0, 0, 0, 0, 0, 2, 0, 0, 0, 0, 0, 5<br/>0, 0, 0]<br/>class = Psychic>, fillcolor="#e539d780"] ;
402 -> 408 ;
409 [label=<Sp. Attack &le; 92.5<br/>gini = 0.625<br/>samples = 4<br/>value = [1, 0, 0, 0, 0, 0, 0, 0, 2, 0, 0, 0, 0, 0, 1<br/>0, 0, 0]<br/>class = Ghost>, fillcolor="#39d7e555"] ;
408 -> 409 ;
410 [label=<gini = 0.0<br/>samples = 1<br/>value = [1, 0, 0, 0, 0, 0, 0, 0, 0, 0, 0, 0, 0, 0, 0<br/>0, 0, 0]<br/>class = Bug>, fillcolor="#e58139ff"] ;
409 -> 410 ;
411 [label=<Sp. Defense &le; 105.0<br/>gini = 0.444<br/>samples = 3<br/>value = [0, 0, 0, 0, 0, 0, 0, 0, 2, 0, 0, 0, 0, 0, 1<br/>0, 0, 0]<br/>class = Ghost>, fillcolor="#39d7e57f"] ;
409 -> 411 ;
412 [label=<gini = 0.0<br/>samples = 2<br/>value = [0, 0, 0, 0, 0, 0, 0, 0, 2, 0, 0, 0, 0, 0, 0<br/>0, 0, 0]<br/>class = Ghost>, fillcolor="#39d7e5ff"] ;
411 -> 412 ;
413 [label=<gini = 0.0<br/>samples = 1<br/>value = [0, 0, 0, 0, 0, 0, 0, 0, 0, 0, 0, 0, 0, 0, 1<br/>0, 0, 0]<br/>class = Psychic>, fillcolor="#e539d7ff"] ;
411 -> 413 ;
414 [label=<gini = 0.0<br/>samples = 4<br/>value = [0, 0, 0, 0, 0, 0, 0, 0, 0, 0, 0, 0, 0, 0, 4<br/>0, 0, 0]<br/>class = Psychic>, fillcolor="#e539d7ff"] ;
408 -> 414 ;
415 [label=<Sp. Defense &le; 60.0<br/>gini = 0.444<br/>samples = 3<br/>value = [0, 0, 0, 0, 0, 0, 2, 0, 0, 1, 0, 0, 0, 0, 0<br/>0, 0, 0]<br/>class = Fire>, fillcolor="#39e5817f"] ;
371 -> 415 ;
416 [label=<gini = 0.0<br/>samples = 1<br/>value = [0, 0, 0, 0, 0, 0, 0, 0, 0, 1, 0, 0, 0, 0, 0<br/>0, 0, 0]<br/>class = Grass>, fillcolor="#399de5ff"] ;
415 -> 416 ;
417 [label=<gini = 0.0<br/>samples = 2<br/>value = [0, 0, 0, 0, 0, 0, 2, 0, 0, 0, 0, 0, 0, 0, 0<br/>0, 0, 0]<br/>class = Fire>, fillcolor="#39e581ff"] ;
415 -> 417 ;
418 [label=<gini = 0.0<br/>samples = 2<br/>value = [0, 0, 0, 0, 0, 0, 0, 0, 0, 0, 0, 0, 0, 0, 0<br/>0, 0, 2]<br/>class = Water>, fillcolor="#e54739ff"] ;
370 -> 418 ;
419 [label=<HP &le; 69.5<br/>gini = 0.569<br/>samples = 12<br/>value = [0, 0, 0, 6, 0, 0, 0, 0, 1, 0, 0, 0, 0, 0, 5<br/>0, 0, 0]<br/>class = Electric>, fillcolor="#9de53924"] ;
369 -> 419 ;
420 [label=<Sp. Defense &le; 61.0<br/>gini = 0.494<br/>samples = 9<br/>value = [0, 0, 0, 6, 0, 0, 0, 0, 1, 0, 0, 0, 0, 0, 2<br/>0, 0, 0]<br/>class = Electric>, fillcolor="#9de53992"] ;
419 -> 420 ;
421 [label=<HP &le; 56.0<br/>gini = 0.5<br/>samples = 2<br/>value = [0, 0, 0, 0, 0, 0, 0, 0, 1, 0, 0, 0, 0, 0, 1<br/>0, 0, 0]<br/>class = Ghost>, fillcolor="#39d7e500"] ;
420 -> 421 ;
422 [label=<gini = 0.0<br/>samples = 1<br/>value = [0, 0, 0, 0, 0, 0, 0, 0, 1, 0, 0, 0, 0, 0, 0<br/>0, 0, 0]<br/>class = Ghost>, fillcolor="#39d7e5ff"] ;
421 -> 422 ;
423 [label=<gini = 0.0<br/>samples = 1<br/>value = [0, 0, 0, 0, 0, 0, 0, 0, 0, 0, 0, 0, 0, 0, 1<br/>0, 0, 0]<br/>class = Psychic>, fillcolor="#e539d7ff"] ;
421 -> 423 ;
424 [label=<Sp. Defense &le; 94.5<br/>gini = 0.245<br/>samples = 7<br/>value = [0, 0, 0, 6, 0, 0, 0, 0, 0, 0, 0, 0, 0, 0, 1<br/>0, 0, 0]<br/>class = Electric>, fillcolor="#9de539d4"] ;
420 -> 424 ;
425 [label=<gini = 0.0<br/>samples = 6<br/>value = [0, 0, 0, 6, 0, 0, 0, 0, 0, 0, 0, 0, 0, 0, 0<br/>0, 0, 0]<br/>class = Electric>, fillcolor="#9de539ff"] ;
424 -> 425 ;
426 [label=<gini = 0.0<br/>samples = 1<br/>value = [0, 0, 0, 0, 0, 0, 0, 0, 0, 0, 0, 0, 0, 0, 1<br/>0, 0, 0]<br/>class = Psychic>, fillcolor="#e539d7ff"] ;
424 -> 426 ;
427 [label=<gini = 0.0<br/>samples = 3<br/>value = [0, 0, 0, 0, 0, 0, 0, 0, 0, 0, 0, 0, 0, 0, 3<br/>0, 0, 0]<br/>class = Psychic>, fillcolor="#e539d7ff"] ;
419 -> 427 ;
428 [label=<Attack &le; 111.0<br/>gini = 0.913<br/>samples = 256<br/>value = [9, 11, 12, 16, 5, 4, 26, 1, 11, 36, 9, 9, 20<br/>9, 18, 11, 6, 43]<br/>class = Water>, fillcolor="#e5473908"] ;
366 -> 428 ;
429 [label=<Sp. Defense &le; 88.0<br/>gini = 0.897<br/>samples = 206<br/>value = [8, 8, 4, 13, 4, 2, 22, 1, 9, 35, 3, 8, 15, 9<br/>15, 5, 5, 40]<br/>class = Water>, fillcolor="#e5473907"] ;
428 -> 429 ;
430 [label=<Speed &le; 71.0<br/>gini = 0.877<br/>samples = 129<br/>value = [6, 6, 1, 5, 1, 2, 18, 1, 5, 27, 1, 4, 12, 7<br/>2, 3, 3, 25]<br/>class = Grass>, fillcolor="#399de505"] ;
429 -> 430 ;
431 [label=<Sp. Defense &le; 78.0<br/>gini = 0.818<br/>samples = 64<br/>value = [2, 2, 1, 1, 0, 0, 6, 0, 2, 21, 0, 2, 6, 2<br/>2, 3, 0, 14]<br/>class = Grass>, fillcolor="#399de524"] ;
430 -> 431 ;
432 [label=<Attack &le; 61.0<br/>gini = 0.835<br/>samples = 48<br/>value = [1, 2, 1, 1, 0, 0, 6, 0, 1, 12, 0, 1, 6, 1<br/>1, 3, 0, 12]<br/>class = Grass>, fillcolor="#399de500"] ;
431 -> 432 ;
433 [label=<Speed &le; 45.5<br/>gini = 0.722<br/>samples = 6<br/>value = [0, 0, 0, 0, 0, 0, 2, 0, 0, 0, 0, 1, 1, 0, 0<br/>2, 0, 0]<br/>class = Fire>, fillcolor="#39e58100"] ;
432 -> 433 ;
434 [label=<HP &le; 62.5<br/>gini = 0.625<br/>samples = 4<br/>value = [0, 0, 0, 0, 0, 0, 2, 0, 0, 0, 0, 1, 1, 0, 0<br/>0, 0, 0]<br/>class = Fire>, fillcolor="#39e58155"] ;
433 -> 434 ;
435 [label=<gini = 0.0<br/>samples = 2<br/>value = [0, 0, 0, 0, 0, 0, 2, 0, 0, 0, 0, 0, 0, 0, 0<br/>0, 0, 0]<br/>class = Fire>, fillcolor="#39e581ff"] ;
434 -> 435 ;
436 [label=<Sp. Defense &le; 72.5<br/>gini = 0.5<br/>samples = 2<br/>value = [0, 0, 0, 0, 0, 0, 0, 0, 0, 0, 0, 1, 1, 0, 0<br/>0, 0, 0]<br/>class = Ice>, fillcolor="#4739e500"] ;
434 -> 436 ;
437 [label=<gini = 0.0<br/>samples = 1<br/>value = [0, 0, 0, 0, 0, 0, 0, 0, 0, 0, 0, 1, 0, 0, 0<br/>0, 0, 0]<br/>class = Ice>, fillcolor="#4739e5ff"] ;
436 -> 437 ;
438 [label=<gini = 0.0<br/>samples = 1<br/>value = [0, 0, 0, 0, 0, 0, 0, 0, 0, 0, 0, 0, 1, 0, 0<br/>0, 0, 0]<br/>class = Normal>, fillcolor="#8139e5ff"] ;
436 -> 438 ;
439 [label=<gini = 0.0<br/>samples = 2<br/>value = [0, 0, 0, 0, 0, 0, 0, 0, 0, 0, 0, 0, 0, 0, 0<br/>2, 0, 0]<br/>class = Rock>, fillcolor="#e5399dff"] ;
433 -> 439 ;
440 [label=<HP &le; 46.5<br/>gini = 0.807<br/>samples = 42<br/>value = [1, 2, 1, 1, 0, 0, 4, 0, 1, 12, 0, 0, 5, 1<br/>1, 1, 0, 12]<br/>class = Grass>, fillcolor="#399de500"] ;
432 -> 440 ;
441 [label=<Sp. Attack &le; 64.0<br/>gini = 0.56<br/>samples = 5<br/>value = [0, 1, 0, 0, 0, 0, 0, 0, 1, 0, 0, 0, 0, 0, 0<br/>0, 0, 3]<br/>class = Water>, fillcolor="#e547397f"] ;
440 -> 441 ;
442 [label=<gini = 0.0<br/>samples = 1<br/>value = [0, 0, 0, 0, 0, 0, 0, 0, 1, 0, 0, 0, 0, 0, 0<br/>0, 0, 0]<br/>class = Ghost>, fillcolor="#39d7e5ff"] ;
441 -> 442 ;
443 [label=<Sp. Attack &le; 77.0<br/>gini = 0.375<br/>samples = 4<br/>value = [0, 1, 0, 0, 0, 0, 0, 0, 0, 0, 0, 0, 0, 0, 0<br/>0, 0, 3]<br/>class = Water>, fillcolor="#e54739aa"] ;
441 -> 443 ;
444 [label=<gini = 0.0<br/>samples = 3<br/>value = [0, 0, 0, 0, 0, 0, 0, 0, 0, 0, 0, 0, 0, 0, 0<br/>0, 0, 3]<br/>class = Water>, fillcolor="#e54739ff"] ;
443 -> 444 ;
445 [label=<gini = 0.0<br/>samples = 1<br/>value = [0, 1, 0, 0, 0, 0, 0, 0, 0, 0, 0, 0, 0, 0, 0<br/>0, 0, 0]<br/>class = Dark>, fillcolor="#e5ba39ff"] ;
443 -> 445 ;
446 [label=<HP &le; 97.5<br/>gini = 0.801<br/>samples = 37<br/>value = [1, 1, 1, 1, 0, 0, 4, 0, 0, 12, 0, 0, 5, 1<br/>1, 1, 0, 9]<br/>class = Grass>, fillcolor="#399de51b"] ;
440 -> 446 ;
447 [label=<Defense &le; 52.5<br/>gini = 0.793<br/>samples = 32<br/>value = [1, 1, 1, 1, 0, 0, 4, 0, 0, 11, 0, 0, 2, 1<br/>1, 1, 0, 8]<br/>class = Grass>, fillcolor="#399de520"] ;
446 -> 447 ;
448 [label=<HP &le; 68.0<br/>gini = 0.642<br/>samples = 9<br/>value = [1, 0, 0, 0, 0, 0, 1, 0, 0, 5, 0, 0, 1, 0, 1<br/>0, 0, 0]<br/>class = Grass>, fillcolor="#399de580"] ;
447 -> 448 ;
449 [label=<HP &le; 49.0<br/>gini = 0.449<br/>samples = 7<br/>value = [0, 0, 0, 0, 0, 0, 1, 0, 0, 5, 0, 0, 0, 0, 1<br/>0, 0, 0]<br/>class = Grass>, fillcolor="#399de5aa"] ;
448 -> 449 ;
450 [label=<gini = 0.0<br/>samples = 1<br/>value = [0, 0, 0, 0, 0, 0, 0, 0, 0, 0, 0, 0, 0, 0, 1<br/>0, 0, 0]<br/>class = Psychic>, fillcolor="#e539d7ff"] ;
449 -> 450 ;
451 [label=<Speed &le; 57.5<br/>gini = 0.278<br/>samples = 6<br/>value = [0, 0, 0, 0, 0, 0, 1, 0, 0, 5, 0, 0, 0, 0, 0<br/>0, 0, 0]<br/>class = Grass>, fillcolor="#399de5cc"] ;
449 -> 451 ;
452 [label=<gini = 0.0<br/>samples = 5<br/>value = [0, 0, 0, 0, 0, 0, 0, 0, 0, 5, 0, 0, 0, 0, 0<br/>0, 0, 0]<br/>class = Grass>, fillcolor="#399de5ff"] ;
451 -> 452 ;
453 [label=<gini = 0.0<br/>samples = 1<br/>value = [0, 0, 0, 0, 0, 0, 1, 0, 0, 0, 0, 0, 0, 0, 0<br/>0, 0, 0]<br/>class = Fire>, fillcolor="#39e581ff"] ;
451 -> 453 ;
454 [label=<Attack &le; 82.5<br/>gini = 0.5<br/>samples = 2<br/>value = [1, 0, 0, 0, 0, 0, 0, 0, 0, 0, 0, 0, 1, 0, 0<br/>0, 0, 0]<br/>class = Bug>, fillcolor="#e5813900"] ;
448 -> 454 ;
455 [label=<gini = 0.0<br/>samples = 1<br/>value = [0, 0, 0, 0, 0, 0, 0, 0, 0, 0, 0, 0, 1, 0, 0<br/>0, 0, 0]<br/>class = Normal>, fillcolor="#8139e5ff"] ;
454 -> 455 ;
456 [label=<gini = 0.0<br/>samples = 1<br/>value = [1, 0, 0, 0, 0, 0, 0, 0, 0, 0, 0, 0, 0, 0, 0<br/>0, 0, 0]<br/>class = Bug>, fillcolor="#e58139ff"] ;
454 -> 456 ;
457 [label=<Sp. Defense &le; 65.5<br/>gini = 0.783<br/>samples = 23<br/>value = [0, 1, 1, 1, 0, 0, 3, 0, 0, 6, 0, 0, 1, 1, 0<br/>1, 0, 8]<br/>class = Water>, fillcolor="#e547391e"] ;
447 -> 457 ;
458 [label=<Sp. Attack &le; 105.0<br/>gini = 0.278<br/>samples = 6<br/>value = [0, 0, 0, 0, 0, 0, 0, 0, 0, 1, 0, 0, 0, 0, 0<br/>0, 0, 5]<br/>class = Water>, fillcolor="#e54739cc"] ;
457 -> 458 ;
459 [label=<gini = 0.0<br/>samples = 5<br/>value = [0, 0, 0, 0, 0, 0, 0, 0, 0, 0, 0, 0, 0, 0, 0<br/>0, 0, 5]<br/>class = Water>, fillcolor="#e54739ff"] ;
458 -> 459 ;
460 [label=<gini = 0.0<br/>samples = 1<br/>value = [0, 0, 0, 0, 0, 0, 0, 0, 0, 1, 0, 0, 0, 0, 0<br/>0, 0, 0]<br/>class = Grass>, fillcolor="#399de5ff"] ;
458 -> 460 ;
461 [label=<Sp. Attack &le; 72.0<br/>gini = 0.83<br/>samples = 17<br/>value = [0, 1, 1, 1, 0, 0, 3, 0, 0, 5, 0, 0, 1, 1, 0<br/>1, 0, 3]<br/>class = Grass>, fillcolor="#399de524"] ;
457 -> 461 ;
462 [label=<Defense &le; 67.5<br/>gini = 0.75<br/>samples = 4<br/>value = [0, 1, 1, 0, 0, 0, 0, 0, 0, 0, 0, 0, 1, 0, 0<br/>1, 0, 0]<br/>class = Dark>, fillcolor="#e5ba3900"] ;
461 -> 462 ;
463 [label=<gini = 0.0<br/>samples = 1<br/>value = [0, 0, 1, 0, 0, 0, 0, 0, 0, 0, 0, 0, 0, 0, 0<br/>0, 0, 0]<br/>class = Dragon>, fillcolor="#d7e539ff"] ;
462 -> 463 ;
464 [label=<HP &le; 71.0<br/>gini = 0.667<br/>samples = 3<br/>value = [0, 1, 0, 0, 0, 0, 0, 0, 0, 0, 0, 0, 1, 0, 0<br/>1, 0, 0]<br/>class = Dark>, fillcolor="#e5ba3900"] ;
462 -> 464 ;
465 [label=<Attack &le; 77.0<br/>gini = 0.5<br/>samples = 2<br/>value = [0, 0, 0, 0, 0, 0, 0, 0, 0, 0, 0, 0, 1, 0, 0<br/>1, 0, 0]<br/>class = Normal>, fillcolor="#8139e500"] ;
464 -> 465 ;
466 [label=<gini = 0.0<br/>samples = 1<br/>value = [0, 0, 0, 0, 0, 0, 0, 0, 0, 0, 0, 0, 1, 0, 0<br/>0, 0, 0]<br/>class = Normal>, fillcolor="#8139e5ff"] ;
465 -> 466 ;
467 [label=<gini = 0.0<br/>samples = 1<br/>value = [0, 0, 0, 0, 0, 0, 0, 0, 0, 0, 0, 0, 0, 0, 0<br/>1, 0, 0]<br/>class = Rock>, fillcolor="#e5399dff"] ;
465 -> 467 ;
468 [label=<gini = 0.0<br/>samples = 1<br/>value = [0, 1, 0, 0, 0, 0, 0, 0, 0, 0, 0, 0, 0, 0, 0<br/>0, 0, 0]<br/>class = Dark>, fillcolor="#e5ba39ff"] ;
464 -> 468 ;
469 [label=<HP &le; 67.5<br/>gini = 0.734<br/>samples = 13<br/>value = [0, 0, 0, 1, 0, 0, 3, 0, 0, 5, 0, 0, 0, 1, 0<br/>0, 0, 3]<br/>class = Grass>, fillcolor="#399de533"] ;
461 -> 469 ;
470 [label=<Attack &le; 84.5<br/>gini = 0.72<br/>samples = 5<br/>value = [0, 0, 0, 1, 0, 0, 0, 0, 0, 1, 0, 0, 0, 1, 0<br/>0, 0, 2]<br/>class = Water>, fillcolor="#e5473940"] ;
469 -> 470 ;
471 [label=<Speed &le; 45.0<br/>gini = 0.444<br/>samples = 3<br/>value = [0, 0, 0, 0, 0, 0, 0, 0, 0, 1, 0, 0, 0, 0, 0<br/>0, 0, 2]<br/>class = Water>, fillcolor="#e547397f"] ;
470 -> 471 ;
472 [label=<gini = 0.0<br/>samples = 1<br/>value = [0, 0, 0, 0, 0, 0, 0, 0, 0, 1, 0, 0, 0, 0, 0<br/>0, 0, 0]<br/>class = Grass>, fillcolor="#399de5ff"] ;
471 -> 472 ;
473 [label=<gini = 0.0<br/>samples = 2<br/>value = [0, 0, 0, 0, 0, 0, 0, 0, 0, 0, 0, 0, 0, 0, 0<br/>0, 0, 2]<br/>class = Water>, fillcolor="#e54739ff"] ;
471 -> 473 ;
474 [label=<Defense &le; 95.0<br/>gini = 0.5<br/>samples = 2<br/>value = [0, 0, 0, 1, 0, 0, 0, 0, 0, 0, 0, 0, 0, 1, 0<br/>0, 0, 0]<br/>class = Electric>, fillcolor="#9de53900"] ;
470 -> 474 ;
475 [label=<gini = 0.0<br/>samples = 1<br/>value = [0, 0, 0, 1, 0, 0, 0, 0, 0, 0, 0, 0, 0, 0, 0<br/>0, 0, 0]<br/>class = Electric>, fillcolor="#9de539ff"] ;
474 -> 475 ;
476 [label=<gini = 0.0<br/>samples = 1<br/>value = [0, 0, 0, 0, 0, 0, 0, 0, 0, 0, 0, 0, 0, 1, 0<br/>0, 0, 0]<br/>class = Poison>, fillcolor="#ba39e5ff"] ;
474 -> 476 ;
477 [label=<Speed &le; 45.5<br/>gini = 0.594<br/>samples = 8<br/>value = [0, 0, 0, 0, 0, 0, 3, 0, 0, 4, 0, 0, 0, 0, 0<br/>0, 0, 1]<br/>class = Grass>, fillcolor="#399de533"] ;
469 -> 477 ;
478 [label=<Attack &le; 102.5<br/>gini = 0.444<br/>samples = 3<br/>value = [0, 0, 0, 0, 0, 0, 2, 0, 0, 0, 0, 0, 0, 0, 0<br/>0, 0, 1]<br/>class = Fire>, fillcolor="#39e5817f"] ;
477 -> 478 ;
479 [label=<gini = 0.0<br/>samples = 2<br/>value = [0, 0, 0, 0, 0, 0, 2, 0, 0, 0, 0, 0, 0, 0, 0<br/>0, 0, 0]<br/>class = Fire>, fillcolor="#39e581ff"] ;
478 -> 479 ;
480 [label=<gini = 0.0<br/>samples = 1<br/>value = [0, 0, 0, 0, 0, 0, 0, 0, 0, 0, 0, 0, 0, 0, 0<br/>0, 0, 1]<br/>class = Water>, fillcolor="#e54739ff"] ;
478 -> 480 ;
481 [label=<Sp. Defense &le; 66.5<br/>gini = 0.32<br/>samples = 5<br/>value = [0, 0, 0, 0, 0, 0, 1, 0, 0, 4, 0, 0, 0, 0, 0<br/>0, 0, 0]<br/>class = Grass>, fillcolor="#399de5bf"] ;
477 -> 481 ;
482 [label=<gini = 0.0<br/>samples = 1<br/>value = [0, 0, 0, 0, 0, 0, 1, 0, 0, 0, 0, 0, 0, 0, 0<br/>0, 0, 0]<br/>class = Fire>, fillcolor="#39e581ff"] ;
481 -> 482 ;
483 [label=<gini = 0.0<br/>samples = 4<br/>value = [0, 0, 0, 0, 0, 0, 0, 0, 0, 4, 0, 0, 0, 0, 0<br/>0, 0, 0]<br/>class = Grass>, fillcolor="#399de5ff"] ;
481 -> 483 ;
484 [label=<Attack &le; 95.5<br/>gini = 0.56<br/>samples = 5<br/>value = [0, 0, 0, 0, 0, 0, 0, 0, 0, 1, 0, 0, 3, 0, 0<br/>0, 0, 1]<br/>class = Normal>, fillcolor="#8139e57f"] ;
446 -> 484 ;
485 [label=<HP &le; 155.0<br/>gini = 0.375<br/>samples = 4<br/>value = [0, 0, 0, 0, 0, 0, 0, 0, 0, 0, 0, 0, 3, 0, 0<br/>0, 0, 1]<br/>class = Normal>, fillcolor="#8139e5aa"] ;
484 -> 485 ;
486 [label=<gini = 0.0<br/>samples = 3<br/>value = [0, 0, 0, 0, 0, 0, 0, 0, 0, 0, 0, 0, 3, 0, 0<br/>0, 0, 0]<br/>class = Normal>, fillcolor="#8139e5ff"] ;
485 -> 486 ;
487 [label=<gini = 0.0<br/>samples = 1<br/>value = [0, 0, 0, 0, 0, 0, 0, 0, 0, 0, 0, 0, 0, 0, 0<br/>0, 0, 1]<br/>class = Water>, fillcolor="#e54739ff"] ;
485 -> 487 ;
488 [label=<gini = 0.0<br/>samples = 1<br/>value = [0, 0, 0, 0, 0, 0, 0, 0, 0, 1, 0, 0, 0, 0, 0<br/>0, 0, 0]<br/>class = Grass>, fillcolor="#399de5ff"] ;
484 -> 488 ;
489 [label=<Attack &le; 109.5<br/>gini = 0.648<br/>samples = 16<br/>value = [1, 0, 0, 0, 0, 0, 0, 0, 1, 9, 0, 1, 0, 1, 1<br/>0, 0, 2]<br/>class = Grass>, fillcolor="#399de580"] ;
431 -> 489 ;
490 [label=<Sp. Attack &le; 115.0<br/>gini = 0.551<br/>samples = 14<br/>value = [1, 0, 0, 0, 0, 0, 0, 0, 0, 9, 0, 0, 0, 1, 1<br/>0, 0, 2]<br/>class = Grass>, fillcolor="#399de595"] ;
489 -> 490 ;
491 [label=<Sp. Defense &le; 84.0<br/>gini = 0.485<br/>samples = 13<br/>value = [1, 0, 0, 0, 0, 0, 0, 0, 0, 9, 0, 0, 0, 1, 0<br/>0, 0, 2]<br/>class = Grass>, fillcolor="#399de5a2"] ;
490 -> 491 ;
492 [label=<Sp. Defense &le; 81.5<br/>gini = 0.617<br/>samples = 9<br/>value = [1, 0, 0, 0, 0, 0, 0, 0, 0, 5, 0, 0, 0, 1, 0<br/>0, 0, 2]<br/>class = Grass>, fillcolor="#399de56d"] ;
491 -> 492 ;
493 [label=<Speed &le; 66.5<br/>gini = 0.278<br/>samples = 6<br/>value = [0, 0, 0, 0, 0, 0, 0, 0, 0, 5, 0, 0, 0, 0, 0<br/>0, 0, 1]<br/>class = Grass>, fillcolor="#399de5cc"] ;
492 -> 493 ;
494 [label=<gini = 0.0<br/>samples = 4<br/>value = [0, 0, 0, 0, 0, 0, 0, 0, 0, 4, 0, 0, 0, 0, 0<br/>0, 0, 0]<br/>class = Grass>, fillcolor="#399de5ff"] ;
493 -> 494 ;
495 [label=<Sp. Defense &le; 80.5<br/>gini = 0.5<br/>samples = 2<br/>value = [0, 0, 0, 0, 0, 0, 0, 0, 0, 1, 0, 0, 0, 0, 0<br/>0, 0, 1]<br/>class = Grass>, fillcolor="#399de500"] ;
493 -> 495 ;
496 [label=<gini = 0.0<br/>samples = 1<br/>value = [0, 0, 0, 0, 0, 0, 0, 0, 0, 0, 0, 0, 0, 0, 0<br/>0, 0, 1]<br/>class = Water>, fillcolor="#e54739ff"] ;
495 -> 496 ;
497 [label=<gini = 0.0<br/>samples = 1<br/>value = [0, 0, 0, 0, 0, 0, 0, 0, 0, 1, 0, 0, 0, 0, 0<br/>0, 0, 0]<br/>class = Grass>, fillcolor="#399de5ff"] ;
495 -> 497 ;
498 [label=<Attack &le; 66.5<br/>gini = 0.667<br/>samples = 3<br/>value = [1, 0, 0, 0, 0, 0, 0, 0, 0, 0, 0, 0, 0, 1, 0<br/>0, 0, 1]<br/>class = Bug>, fillcolor="#e5813900"] ;
492 -> 498 ;
499 [label=<gini = 0.0<br/>samples = 1<br/>value = [1, 0, 0, 0, 0, 0, 0, 0, 0, 0, 0, 0, 0, 0, 0<br/>0, 0, 0]<br/>class = Bug>, fillcolor="#e58139ff"] ;
498 -> 499 ;
500 [label=<Defense &le; 75.5<br/>gini = 0.5<br/>samples = 2<br/>value = [0, 0, 0, 0, 0, 0, 0, 0, 0, 0, 0, 0, 0, 1, 0<br/>0, 0, 1]<br/>class = Poison>, fillcolor="#ba39e500"] ;
498 -> 500 ;
501 [label=<gini = 0.0<br/>samples = 1<br/>value = [0, 0, 0, 0, 0, 0, 0, 0, 0, 0, 0, 0, 0, 0, 0<br/>0, 0, 1]<br/>class = Water>, fillcolor="#e54739ff"] ;
500 -> 501 ;
502 [label=<gini = 0.0<br/>samples = 1<br/>value = [0, 0, 0, 0, 0, 0, 0, 0, 0, 0, 0, 0, 0, 1, 0<br/>0, 0, 0]<br/>class = Poison>, fillcolor="#ba39e5ff"] ;
500 -> 502 ;
503 [label=<gini = 0.0<br/>samples = 4<br/>value = [0, 0, 0, 0, 0, 0, 0, 0, 0, 4, 0, 0, 0, 0, 0<br/>0, 0, 0]<br/>class = Grass>, fillcolor="#399de5ff"] ;
491 -> 503 ;
504 [label=<gini = 0.0<br/>samples = 1<br/>value = [0, 0, 0, 0, 0, 0, 0, 0, 0, 0, 0, 0, 0, 0, 1<br/>0, 0, 0]<br/>class = Psychic>, fillcolor="#e539d7ff"] ;
490 -> 504 ;
505 [label=<Defense &le; 78.0<br/>gini = 0.5<br/>samples = 2<br/>value = [0, 0, 0, 0, 0, 0, 0, 0, 1, 0, 0, 1, 0, 0, 0<br/>0, 0, 0]<br/>class = Ghost>, fillcolor="#39d7e500"] ;
489 -> 505 ;
506 [label=<gini = 0.0<br/>samples = 1<br/>value = [0, 0, 0, 0, 0, 0, 0, 0, 1, 0, 0, 0, 0, 0, 0<br/>0, 0, 0]<br/>class = Ghost>, fillcolor="#39d7e5ff"] ;
505 -> 506 ;
507 [label=<gini = 0.0<br/>samples = 1<br/>value = [0, 0, 0, 0, 0, 0, 0, 0, 0, 0, 0, 1, 0, 0, 0<br/>0, 0, 0]<br/>class = Ice>, fillcolor="#4739e5ff"] ;
505 -> 507 ;
508 [label=<Defense &le; 89.0<br/>gini = 0.896<br/>samples = 65<br/>value = [4, 4, 0, 4, 1, 2, 12, 1, 3, 6, 1, 2, 6, 5<br/>0, 0, 3, 11]<br/>class = Fire>, fillcolor="#39e58105"] ;
430 -> 508 ;
509 [label=<HP &le; 59.5<br/>gini = 0.892<br/>samples = 60<br/>value = [4, 4, 0, 4, 1, 2, 12, 1, 3, 6, 1, 2, 6, 5<br/>0, 0, 0, 9]<br/>class = Fire>, fillcolor="#39e5810f"] ;
508 -> 509 ;
510 [label=<Speed &le; 89.0<br/>gini = 0.571<br/>samples = 7<br/>value = [0, 0, 0, 2, 0, 0, 4, 0, 0, 1, 0, 0, 0, 0, 0<br/>0, 0, 0]<br/>class = Fire>, fillcolor="#39e58166"] ;
509 -> 510 ;
511 [label=<gini = 0.0<br/>samples = 4<br/>value = [0, 0, 0, 0, 0, 0, 4, 0, 0, 0, 0, 0, 0, 0, 0<br/>0, 0, 0]<br/>class = Fire>, fillcolor="#39e581ff"] ;
510 -> 511 ;
512 [label=<Sp. Defense &le; 62.5<br/>gini = 0.444<br/>samples = 3<br/>value = [0, 0, 0, 2, 0, 0, 0, 0, 0, 1, 0, 0, 0, 0, 0<br/>0, 0, 0]<br/>class = Electric>, fillcolor="#9de5397f"] ;
510 -> 512 ;
513 [label=<gini = 0.0<br/>samples = 2<br/>value = [0, 0, 0, 2, 0, 0, 0, 0, 0, 0, 0, 0, 0, 0, 0<br/>0, 0, 0]<br/>class = Electric>, fillcolor="#9de539ff"] ;
512 -> 513 ;
514 [label=<gini = 0.0<br/>samples = 1<br/>value = [0, 0, 0, 0, 0, 0, 0, 0, 0, 1, 0, 0, 0, 0, 0<br/>0, 0, 0]<br/>class = Grass>, fillcolor="#399de5ff"] ;
512 -> 514 ;
515 [label=<Attack &le; 80.5<br/>gini = 0.898<br/>samples = 53<br/>value = [4, 4, 0, 2, 1, 2, 8, 1, 3, 5, 1, 2, 6, 5, 0<br/>0, 0, 9]<br/>class = Water>, fillcolor="#e5473906"] ;
509 -> 515 ;
516 [label=<Defense &le; 62.5<br/>gini = 0.866<br/>samples = 21<br/>value = [3, 0, 0, 0, 1, 0, 1, 1, 3, 2, 0, 2, 5, 1, 0<br/>0, 0, 2]<br/>class = Normal>, fillcolor="#8139e51c"] ;
515 -> 516 ;
517 [label=<HP &le; 62.0<br/>gini = 0.716<br/>samples = 9<br/>value = [3, 0, 0, 0, 0, 0, 1, 0, 3, 0, 0, 0, 2, 0, 0<br/>0, 0, 0]<br/>class = Bug>, fillcolor="#e5813900"] ;
516 -> 517 ;
518 [label=<gini = 0.0<br/>samples = 2<br/>value = [0, 0, 0, 0, 0, 0, 0, 0, 2, 0, 0, 0, 0, 0, 0<br/>0, 0, 0]<br/>class = Ghost>, fillcolor="#39d7e5ff"] ;
517 -> 518 ;
519 [label=<Speed &le; 85.5<br/>gini = 0.694<br/>samples = 7<br/>value = [3, 0, 0, 0, 0, 0, 1, 0, 1, 0, 0, 0, 2, 0, 0<br/>0, 0, 0]<br/>class = Bug>, fillcolor="#e5813933"] ;
517 -> 519 ;
520 [label=<HP &le; 107.0<br/>gini = 0.5<br/>samples = 2<br/>value = [0, 0, 0, 0, 0, 0, 1, 0, 1, 0, 0, 0, 0, 0, 0<br/>0, 0, 0]<br/>class = Fire>, fillcolor="#39e58100"] ;
519 -> 520 ;
521 [label=<gini = 0.0<br/>samples = 1<br/>value = [0, 0, 0, 0, 0, 0, 1, 0, 0, 0, 0, 0, 0, 0, 0<br/>0, 0, 0]<br/>class = Fire>, fillcolor="#39e581ff"] ;
520 -> 521 ;
522 [label=<gini = 0.0<br/>samples = 1<br/>value = [0, 0, 0, 0, 0, 0, 0, 0, 1, 0, 0, 0, 0, 0, 0<br/>0, 0, 0]<br/>class = Ghost>, fillcolor="#39d7e5ff"] ;
520 -> 522 ;
523 [label=<Sp. Attack &le; 70.0<br/>gini = 0.48<br/>samples = 5<br/>value = [3, 0, 0, 0, 0, 0, 0, 0, 0, 0, 0, 0, 2, 0, 0<br/>0, 0, 0]<br/>class = Bug>, fillcolor="#e5813955"] ;
519 -> 523 ;
524 [label=<gini = 0.0<br/>samples = 1<br/>value = [0, 0, 0, 0, 0, 0, 0, 0, 0, 0, 0, 0, 1, 0, 0<br/>0, 0, 0]<br/>class = Normal>, fillcolor="#8139e5ff"] ;
523 -> 524 ;
525 [label=<Sp. Defense &le; 43.5<br/>gini = 0.375<br/>samples = 4<br/>value = [3, 0, 0, 0, 0, 0, 0, 0, 0, 0, 0, 0, 1, 0, 0<br/>0, 0, 0]<br/>class = Bug>, fillcolor="#e58139aa"] ;
523 -> 525 ;
526 [label=<gini = 0.0<br/>samples = 1<br/>value = [0, 0, 0, 0, 0, 0, 0, 0, 0, 0, 0, 0, 1, 0, 0<br/>0, 0, 0]<br/>class = Normal>, fillcolor="#8139e5ff"] ;
525 -> 526 ;
527 [label=<gini = 0.0<br/>samples = 3<br/>value = [3, 0, 0, 0, 0, 0, 0, 0, 0, 0, 0, 0, 0, 0, 0<br/>0, 0, 0]<br/>class = Bug>, fillcolor="#e58139ff"] ;
525 -> 527 ;
528 [label=<Attack &le; 68.5<br/>gini = 0.833<br/>samples = 12<br/>value = [0, 0, 0, 0, 1, 0, 0, 1, 0, 2, 0, 2, 3, 1, 0<br/>0, 0, 2]<br/>class = Normal>, fillcolor="#8139e51a"] ;
516 -> 528 ;
529 [label=<gini = 0.0<br/>samples = 2<br/>value = [0, 0, 0, 0, 0, 0, 0, 0, 0, 2, 0, 0, 0, 0, 0<br/>0, 0, 0]<br/>class = Grass>, fillcolor="#399de5ff"] ;
528 -> 529 ;
530 [label=<Defense &le; 77.5<br/>gini = 0.8<br/>samples = 10<br/>value = [0, 0, 0, 0, 1, 0, 0, 1, 0, 0, 0, 2, 3, 1, 0<br/>0, 0, 2]<br/>class = Normal>, fillcolor="#8139e520"] ;
528 -> 530 ;
531 [label=<Sp. Attack &le; 67.5<br/>gini = 0.56<br/>samples = 5<br/>value = [0, 0, 0, 0, 0, 0, 0, 0, 0, 0, 0, 1, 3, 1, 0<br/>0, 0, 0]<br/>class = Normal>, fillcolor="#8139e57f"] ;
530 -> 531 ;
532 [label=<gini = 0.0<br/>samples = 1<br/>value = [0, 0, 0, 0, 0, 0, 0, 0, 0, 0, 0, 0, 0, 1, 0<br/>0, 0, 0]<br/>class = Poison>, fillcolor="#ba39e5ff"] ;
531 -> 532 ;
533 [label=<Speed &le; 105.5<br/>gini = 0.375<br/>samples = 4<br/>value = [0, 0, 0, 0, 0, 0, 0, 0, 0, 0, 0, 1, 3, 0, 0<br/>0, 0, 0]<br/>class = Normal>, fillcolor="#8139e5aa"] ;
531 -> 533 ;
534 [label=<gini = 0.0<br/>samples = 3<br/>value = [0, 0, 0, 0, 0, 0, 0, 0, 0, 0, 0, 0, 3, 0, 0<br/>0, 0, 0]<br/>class = Normal>, fillcolor="#8139e5ff"] ;
533 -> 534 ;
535 [label=<gini = 0.0<br/>samples = 1<br/>value = [0, 0, 0, 0, 0, 0, 0, 0, 0, 0, 0, 1, 0, 0, 0<br/>0, 0, 0]<br/>class = Ice>, fillcolor="#4739e5ff"] ;
533 -> 535 ;
536 [label=<HP &le; 81.0<br/>gini = 0.72<br/>samples = 5<br/>value = [0, 0, 0, 0, 1, 0, 0, 1, 0, 0, 0, 1, 0, 0, 0<br/>0, 0, 2]<br/>class = Water>, fillcolor="#e5473940"] ;
530 -> 536 ;
537 [label=<Defense &le; 82.5<br/>gini = 0.444<br/>samples = 3<br/>value = [0, 0, 0, 0, 0, 0, 0, 0, 0, 0, 0, 1, 0, 0, 0<br/>0, 0, 2]<br/>class = Water>, fillcolor="#e547397f"] ;
536 -> 537 ;
538 [label=<gini = 0.5<br/>samples = 2<br/>value = [0, 0, 0, 0, 0, 0, 0, 0, 0, 0, 0, 1, 0, 0, 0<br/>0, 0, 1]<br/>class = Ice>, fillcolor="#4739e500"] ;
537 -> 538 ;
539 [label=<gini = 0.0<br/>samples = 1<br/>value = [0, 0, 0, 0, 0, 0, 0, 0, 0, 0, 0, 0, 0, 0, 0<br/>0, 0, 1]<br/>class = Water>, fillcolor="#e54739ff"] ;
537 -> 539 ;
540 [label=<Speed &le; 97.5<br/>gini = 0.5<br/>samples = 2<br/>value = [0, 0, 0, 0, 1, 0, 0, 1, 0, 0, 0, 0, 0, 0, 0<br/>0, 0, 0]<br/>class = Fairy>, fillcolor="#64e53900"] ;
536 -> 540 ;
541 [label=<gini = 0.0<br/>samples = 1<br/>value = [0, 0, 0, 0, 1, 0, 0, 0, 0, 0, 0, 0, 0, 0, 0<br/>0, 0, 0]<br/>class = Fairy>, fillcolor="#64e539ff"] ;
540 -> 541 ;
542 [label=<gini = 0.0<br/>samples = 1<br/>value = [0, 0, 0, 0, 0, 0, 0, 1, 0, 0, 0, 0, 0, 0, 0<br/>0, 0, 0]<br/>class = Flying>, fillcolor="#39e5baff"] ;
540 -> 542 ;
543 [label=<Defense &le; 52.5<br/>gini = 0.854<br/>samples = 32<br/>value = [1, 4, 0, 2, 0, 2, 7, 0, 0, 3, 1, 0, 1, 4, 0<br/>0, 0, 7]<br/>class = Fire>, fillcolor="#39e58100"] ;
515 -> 543 ;
544 [label=<gini = 0.0<br/>samples = 3<br/>value = [0, 3, 0, 0, 0, 0, 0, 0, 0, 0, 0, 0, 0, 0, 0<br/>0, 0, 0]<br/>class = Dark>, fillcolor="#e5ba39ff"] ;
543 -> 544 ;
545 [label=<HP &le; 80.5<br/>gini = 0.839<br/>samples = 29<br/>value = [1, 1, 0, 2, 0, 2, 7, 0, 0, 3, 1, 0, 1, 4, 0<br/>0, 0, 7]<br/>class = Fire>, fillcolor="#39e58100"] ;
543 -> 545 ;
546 [label=<Sp. Defense &le; 82.5<br/>gini = 0.815<br/>samples = 20<br/>value = [1, 1, 0, 2, 0, 2, 6, 0, 0, 1, 1, 0, 1, 0, 0<br/>0, 0, 5]<br/>class = Fire>, fillcolor="#39e58111"] ;
545 -> 546 ;
547 [label=<Attack &le; 99.0<br/>gini = 0.82<br/>samples = 16<br/>value = [1, 1, 0, 2, 0, 2, 3, 0, 0, 0, 1, 0, 1, 0, 0<br/>0, 0, 5]<br/>class = Water>, fillcolor="#e5473927"] ;
546 -> 547 ;
548 [label=<Sp. Attack &le; 77.0<br/>gini = 0.562<br/>samples = 8<br/>value = [0, 0, 0, 0, 0, 1, 1, 0, 0, 0, 0, 0, 1, 0, 0<br/>0, 0, 5]<br/>class = Water>, fillcolor="#e5473992"] ;
547 -> 548 ;
549 [label=<Defense &le; 73.0<br/>gini = 0.5<br/>samples = 2<br/>value = [0, 0, 0, 0, 0, 1, 1, 0, 0, 0, 0, 0, 0, 0, 0<br/>0, 0, 0]<br/>class = Fighting>, fillcolor="#39e54700"] ;
548 -> 549 ;
550 [label=<gini = 0.0<br/>samples = 1<br/>value = [0, 0, 0, 0, 0, 0, 1, 0, 0, 0, 0, 0, 0, 0, 0<br/>0, 0, 0]<br/>class = Fire>, fillcolor="#39e581ff"] ;
549 -> 550 ;
551 [label=<gini = 0.0<br/>samples = 1<br/>value = [0, 0, 0, 0, 0, 1, 0, 0, 0, 0, 0, 0, 0, 0, 0<br/>0, 0, 0]<br/>class = Fighting>, fillcolor="#39e547ff"] ;
549 -> 551 ;
552 [label=<Defense &le; 62.5<br/>gini = 0.278<br/>samples = 6<br/>value = [0, 0, 0, 0, 0, 0, 0, 0, 0, 0, 0, 0, 1, 0, 0<br/>0, 0, 5]<br/>class = Water>, fillcolor="#e54739cc"] ;
548 -> 552 ;
553 [label=<gini = 0.0<br/>samples = 1<br/>value = [0, 0, 0, 0, 0, 0, 0, 0, 0, 0, 0, 0, 1, 0, 0<br/>0, 0, 0]<br/>class = Normal>, fillcolor="#8139e5ff"] ;
552 -> 553 ;
554 [label=<gini = 0.0<br/>samples = 5<br/>value = [0, 0, 0, 0, 0, 0, 0, 0, 0, 0, 0, 0, 0, 0, 0<br/>0, 0, 5]<br/>class = Water>, fillcolor="#e54739ff"] ;
552 -> 554 ;
555 [label=<Speed &le; 100.5<br/>gini = 0.812<br/>samples = 8<br/>value = [1, 1, 0, 2, 0, 1, 2, 0, 0, 0, 1, 0, 0, 0, 0<br/>0, 0, 0]<br/>class = Electric>, fillcolor="#9de53900"] ;
547 -> 555 ;
556 [label=<Sp. Defense &le; 75.0<br/>gini = 0.667<br/>samples = 3<br/>value = [1, 0, 0, 0, 0, 1, 0, 0, 0, 0, 1, 0, 0, 0, 0<br/>0, 0, 0]<br/>class = Bug>, fillcolor="#e5813900"] ;
555 -> 556 ;
557 [label=<gini = 0.0<br/>samples = 1<br/>value = [0, 0, 0, 0, 0, 1, 0, 0, 0, 0, 0, 0, 0, 0, 0<br/>0, 0, 0]<br/>class = Fighting>, fillcolor="#39e547ff"] ;
556 -> 557 ;
