digraph Tree {
node [shape=box, style="filled, rounded", color="black", fontname=helvetica] ;
edge [fontname=helvetica] ;
0 [label=[[ '<Sp. Attack &le; 61.5<br/>gini = 0.923<br/>samples = 752<br/>value = [65, 28, 26, 42, 17, 25, 48, 4, 30, 67, 32, 23<br/>94, 28, 52, 41, 23, 107]<br/>class = Normal>']], fillcolor="#e5473905"] ;
1 [label=[[ '<Defense &le; 84.5<br/>gini = 0.905<br/>samples = 349<br/>value = [47, 14, 10, 9, 7, 20, 9, 1, 13, 23, 23, 7, 67<br/>16, 6, 24, 13, 40]<br/>class = Bug>']], fillcolor="#8139e511"] ;
0 -> 1 [labeldistance=2.5, labelangle=45, headlabel="True"] ;
2 [label=[[ '<Attack &le; 53.5<br/>gini = 0.887<br/>samples = 259<br/>value = [33, 10, 7, 9, 7, 16, 9, 1, 6, 18, 13, 5, 62<br/>13, 6, 7, 2, 35]<br/>class = Bug>']], fillcolor="#8139e51f"] ;
1 -> 2 ;
3 [label=[[ '<Sp. Attack &le; 29.5<br/>gini = 0.869<br/>samples = 107<br/>value = [19, 1, 1, 4, 5, 2, 4, 1, 1, 11, 1, 3, 19, 4<br/>6, 2, 0, 23]<br/>class = Normal>']], fillcolor="#e547390c"] ;
2 -> 3 ;
4 [label=[[ '<Attack &le; 21.0<br/>gini = 0.593<br/>samples = 19<br/>value = [11, 0, 0, 0, 0, 0, 0, 0, 0, 0, 0, 0, 3, 0<br/>1, 0, 0, 4]<br/>class = Grass>']], fillcolor="#e5813977"] ;
3 -> 4 ;
5 [label=[[ '<HP &le; 35.0<br/>gini = 0.612<br/>samples = 7<br/>value = [1, 0, 0, 0, 0, 0, 0, 0, 0, 0, 0, 0, 3, 0, 0<br/>0, 0, 3]<br/>class = Bug>']], fillcolor="#8139e500"] ;
4 -> 5 ;
6 [label=[[ '<gini = 0.0<br/>samples = 2<br/>value = [0, 0, 0, 0, 0, 0, 0, 0, 0, 0, 0, 0, 0, 0, 0<br/>0, 0, 2]<br/>class = Normal>']], fillcolor="#e54739ff"] ;
5 -> 6 ;
7 [label=[[ '<Defense &le; 45.0<br/>gini = 0.56<br/>samples = 5<br/>value = [1, 0, 0, 0, 0, 0, 0, 0, 0, 0, 0, 0, 3, 0, 0<br/>0, 0, 1]<br/>class = Bug>']], fillcolor="#8139e57f"] ;
5 -> 7 ;
8 [label=[[ '<gini = 0.0<br/>samples = 3<br/>value = [0, 0, 0, 0, 0, 0, 0, 0, 0, 0, 0, 0, 3, 0, 0<br/>0, 0, 0]<br/>class = Bug>']], fillcolor="#8139e5ff"] ;
7 -> 8 ;
9 [label=[[ '<Sp. Attack &le; 22.5<br/>gini = 0.5<br/>samples = 2<br/>value = [1, 0, 0, 0, 0, 0, 0, 0, 0, 0, 0, 0, 0, 0, 0<br/>0, 0, 1]<br/>class = Grass>']], fillcolor="#e5813900"] ;
7 -> 9 ;
10 [label=[[ '<gini = 0.0<br/>samples = 1<br/>value = [0, 0, 0, 0, 0, 0, 0, 0, 0, 0, 0, 0, 0, 0, 0<br/>0, 0, 1]<br/>class = Normal>']], fillcolor="#e54739ff"] ;
9 -> 10 ;
11 [label=[[ '<gini = 0.0<br/>samples = 1<br/>value = [1, 0, 0, 0, 0, 0, 0, 0, 0, 0, 0, 0, 0, 0, 0<br/>0, 0, 0]<br/>class = Grass>']], fillcolor="#e58139ff"] ;
9 -> 11 ;
12 [label=[[ '<HP &le; 52.5<br/>gini = 0.292<br/>samples = 12<br/>value = [10, 0, 0, 0, 0, 0, 0, 0, 0, 0, 0, 0, 0, 0<br/>1, 0, 0, 1]<br/>class = Grass>']], fillcolor="#e58139d1"] ;
4 -> 12 ;
13 [label=[[ '<gini = 0.0<br/>samples = 10<br/>value = [10, 0, 0, 0, 0, 0, 0, 0, 0, 0, 0, 0, 0, 0<br/>0, 0, 0, 0]<br/>class = Grass>']], fillcolor="#e58139ff"] ;
12 -> 13 ;
14 [label=[[ '<Sp. Attack &le; 24.0<br/>gini = 0.5<br/>samples = 2<br/>value = [0, 0, 0, 0, 0, 0, 0, 0, 0, 0, 0, 0, 0, 0, 1<br/>0, 0, 1]<br/>class = Bug>']], fillcolor="#e539d700"] ;
12 -> 14 ;
15 [label=[[ '<gini = 0.0<br/>samples = 1<br/>value = [0, 0, 0, 0, 0, 0, 0, 0, 0, 0, 0, 0, 0, 0, 1<br/>0, 0, 0]<br/>class = Bug>']], fillcolor="#e539d7ff"] ;
14 -> 15 ;
16 [label=[[ '<gini = 0.0<br/>samples = 1<br/>value = [0, 0, 0, 0, 0, 0, 0, 0, 0, 0, 0, 0, 0, 0, 0<br/>0, 0, 1]<br/>class = Normal>']], fillcolor="#e54739ff"] ;
14 -> 16 ;
17 [label=[[ '<Sp. Attack &le; 43.5<br/>gini = 0.881<br/>samples = 88<br/>value = [8, 1, 1, 4, 5, 2, 4, 1, 1, 11, 1, 3, 16, 4<br/>5, 2, 0, 19]<br/>class = Normal>']], fillcolor="#e547390b"] ;
3 -> 17 ;
18 [label=[[ '<Defense &le; 47.5<br/>gini = 0.828<br/>samples = 38<br/>value = [4, 0, 0, 1, 1, 2, 0, 0, 0, 5, 1, 1, 13, 4<br/>2, 1, 0, 3]<br/>class = Bug>']], fillcolor="#8139e53e"] ;
17 -> 18 ;
19 [label=[[ '<HP &le; 36.5<br/>gini = 0.696<br/>samples = 23<br/>value = [2, 0, 0, 1, 0, 1, 0, 0, 0, 2, 0, 1, 12, 1<br/>1, 0, 0, 2]<br/>class = Bug>']], fillcolor="#8139e579"] ;
18 -> 19 ;
20 [label=[[ '<Speed &le; 55.0<br/>gini = 0.778<br/>samples = 6<br/>value = [1, 0, 0, 1, 0, 1, 0, 0, 0, 2, 0, 0, 1, 0, 0<br/>0, 0, 0]<br/>class = Bug>']], fillcolor="#399de533"] ;
19 -> 20 ;
21 [label=[[ '<Speed &le; 25.0<br/>gini = 0.625<br/>samples = 4<br/>value = [0, 0, 0, 0, 0, 1, 0, 0, 0, 2, 0, 0, 1, 0, 0<br/>0, 0, 0]<br/>class = Bug>']], fillcolor="#399de555"] ;
20 -> 21 ;
22 [label=[[ '<gini = 0.0<br/>samples = 1<br/>value = [0, 0, 0, 0, 0, 0, 0, 0, 0, 0, 0, 0, 1, 0, 0<br/>0, 0, 0]<br/>class = Bug>']], fillcolor="#8139e5ff"] ;
21 -> 22 ;
23 [label=[[ '<Defense &le; 32.5<br/>gini = 0.444<br/>samples = 3<br/>value = [0, 0, 0, 0, 0, 1, 0, 0, 0, 2, 0, 0, 0, 0, 0<br/>0, 0, 0]<br/>class = Bug>']], fillcolor="#399de57f"] ;
21 -> 23 ;
24 [label=[[ '<gini = 0.0<br/>samples = 1<br/>value = [0, 0, 0, 0, 0, 0, 0, 0, 0, 1, 0, 0, 0, 0, 0<br/>0, 0, 0]<br/>class = Bug>']], fillcolor="#399de5ff"] ;
23 -> 24 ;
25 [label=[[ '<Speed &le; 42.5<br/>gini = 0.5<br/>samples = 2<br/>value = [0, 0, 0, 0, 0, 1, 0, 0, 0, 1, 0, 0, 0, 0, 0<br/>0, 0, 0]<br/>class = Fire>']], fillcolor="#39e54700"] ;
23 -> 25 ;
26 [label=[[ '<gini = 0.0<br/>samples = 1<br/>value = [0, 0, 0, 0, 0, 1, 0, 0, 0, 0, 0, 0, 0, 0, 0<br/>0, 0, 0]<br/>class = Fire>']], fillcolor="#39e547ff"] ;
25 -> 26 ;
27 [label=[[ '<gini = 0.0<br/>samples = 1<br/>value = [0, 0, 0, 0, 0, 0, 0, 0, 0, 1, 0, 0, 0, 0, 0<br/>0, 0, 0]<br/>class = Bug>']], fillcolor="#399de5ff"] ;
25 -> 27 ;
28 [label=[[ '<Attack &le; 35.0<br/>gini = 0.5<br/>samples = 2<br/>value = [1, 0, 0, 1, 0, 0, 0, 0, 0, 0, 0, 0, 0, 0, 0<br/>0, 0, 0]<br/>class = Grass>']], fillcolor="#e5813900"] ;
20 -> 28 ;
29 [label=[[ '<gini = 0.0<br/>samples = 1<br/>value = [1, 0, 0, 0, 0, 0, 0, 0, 0, 0, 0, 0, 0, 0, 0<br/>0, 0, 0]<br/>class = Grass>']], fillcolor="#e58139ff"] ;
28 -> 29 ;
30 [label=[[ '<gini = 0.0<br/>samples = 1<br/>value = [0, 0, 0, 1, 0, 0, 0, 0, 0, 0, 0, 0, 0, 0, 0<br/>0, 0, 0]<br/>class = Fire>']], fillcolor="#9de539ff"] ;
28 -> 30 ;
31 [label=[[ '<Sp. Attack &le; 41.5<br/>gini = 0.554<br/>samples = 17<br/>value = [1, 0, 0, 0, 0, 0, 0, 0, 0, 0, 0, 1, 11, 1<br/>1, 0, 0, 2]<br/>class = Bug>']], fillcolor="#8139e599"] ;
19 -> 31 ;
32 [label=[[ '<Sp. Attack &le; 31.0<br/>gini = 0.5<br/>samples = 16<br/>value = [1, 0, 0, 0, 0, 0, 0, 0, 0, 0, 0, 1, 11, 1<br/>0, 0, 0, 2]<br/>class = Bug>']], fillcolor="#8139e5a4"] ;
31 -> 32 ;
33 [label=[[ '<Attack &le; 37.5<br/>gini = 0.667<br/>samples = 3<br/>value = [0, 0, 0, 0, 0, 0, 0, 0, 0, 0, 0, 1, 1, 1, 0<br/>0, 0, 0]<br/>class = Bug>']], fillcolor="#4739e500"] ;
32 -> 33 ;
34 [label=[[ '<gini = 0.0<br/>samples = 1<br/>value = [0, 0, 0, 0, 0, 0, 0, 0, 0, 0, 0, 0, 1, 0, 0<br/>0, 0, 0]<br/>class = Bug>']], fillcolor="#8139e5ff"] ;
33 -> 34 ;
35 [label=[[ '<Defense &le; 37.5<br/>gini = 0.5<br/>samples = 2<br/>value = [0, 0, 0, 0, 0, 0, 0, 0, 0, 0, 0, 1, 0, 1, 0<br/>0, 0, 0]<br/>class = Bug>']], fillcolor="#4739e500"] ;
33 -> 35 ;
36 [label=[[ '<gini = 0.0<br/>samples = 1<br/>value = [0, 0, 0, 0, 0, 0, 0, 0, 0, 0, 0, 0, 0, 1, 0<br/>0, 0, 0]<br/>class = Bug>']], fillcolor="#ba39e5ff"] ;
35 -> 36 ;
37 [label=[[ '<gini = 0.0<br/>samples = 1<br/>value = [0, 0, 0, 0, 0, 0, 0, 0, 0, 0, 0, 1, 0, 0, 0<br/>0, 0, 0]<br/>class = Bug>']], fillcolor="#4739e5ff"] ;
35 -> 37 ;
38 [label=[[ '<HP &le; 42.5<br/>gini = 0.379<br/>samples = 13<br/>value = [1, 0, 0, 0, 0, 0, 0, 0, 0, 0, 0, 0, 10, 0<br/>0, 0, 0, 2]<br/>class = Bug>']], fillcolor="#8139e5b9"] ;
32 -> 38 ;
39 [label=[[ '<Attack &le; 25.0<br/>gini = 0.611<br/>samples = 6<br/>value = [1, 0, 0, 0, 0, 0, 0, 0, 0, 0, 0, 0, 3, 0, 0<br/>0, 0, 2]<br/>class = Bug>']], fillcolor="#8139e540"] ;
38 -> 39 ;
40 [label=[[ '<gini = 0.0<br/>samples = 1<br/>value = [1, 0, 0, 0, 0, 0, 0, 0, 0, 0, 0, 0, 0, 0, 0<br/>0, 0, 0]<br/>class = Grass>']], fillcolor="#e58139ff"] ;
39 -> 40 ;
41 [label=[[ '<Sp. Defense &le; 38.0<br/>gini = 0.48<br/>samples = 5<br/>value = [0, 0, 0, 0, 0, 0, 0, 0, 0, 0, 0, 0, 3, 0, 0<br/>0, 0, 2]<br/>class = Bug>']], fillcolor="#8139e555"] ;
39 -> 41 ;
42 [label=[[ '<gini = 0.0<br/>samples = 2<br/>value = [0, 0, 0, 0, 0, 0, 0, 0, 0, 0, 0, 0, 2, 0, 0<br/>0, 0, 0]<br/>class = Bug>']], fillcolor="#8139e5ff"] ;
41 -> 42 ;
43 [label=[[ '<Speed &le; 60.0<br/>gini = 0.444<br/>samples = 3<br/>value = [0, 0, 0, 0, 0, 0, 0, 0, 0, 0, 0, 0, 1, 0, 0<br/>0, 0, 2]<br/>class = Normal>']], fillcolor="#e547397f"] ;
41 -> 43 ;
44 [label=[[ '<gini = 0.0<br/>samples = 1<br/>value = [0, 0, 0, 0, 0, 0, 0, 0, 0, 0, 0, 0, 0, 0, 0<br/>0, 0, 1]<br/>class = Normal>']], fillcolor="#e54739ff"] ;
43 -> 44 ;
45 [label=[[ '<Attack &le; 47.5<br/>gini = 0.5<br/>samples = 2<br/>value = [0, 0, 0, 0, 0, 0, 0, 0, 0, 0, 0, 0, 1, 0, 0<br/>0, 0, 1]<br/>class = Bug>']], fillcolor="#8139e500"] ;
43 -> 45 ;
46 [label=[[ '<gini = 0.0<br/>samples = 1<br/>value = [0, 0, 0, 0, 0, 0, 0, 0, 0, 0, 0, 0, 1, 0, 0<br/>0, 0, 0]<br/>class = Bug>']], fillcolor="#8139e5ff"] ;
45 -> 46 ;
47 [label=[[ '<gini = 0.0<br/>samples = 1<br/>value = [0, 0, 0, 0, 0, 0, 0, 0, 0, 0, 0, 0, 0, 0, 0<br/>0, 0, 1]<br/>class = Normal>']], fillcolor="#e54739ff"] ;
45 -> 47 ;
48 [label=[[ '<gini = 0.0<br/>samples = 7<br/>value = [0, 0, 0, 0, 0, 0, 0, 0, 0, 0, 0, 0, 7, 0, 0<br/>0, 0, 0]<br/>class = Bug>']], fillcolor="#8139e5ff"] ;
38 -> 48 ;
49 [label=[[ '<gini = 0.0<br/>samples = 1<br/>value = [0, 0, 0, 0, 0, 0, 0, 0, 0, 0, 0, 0, 0, 0, 1<br/>0, 0, 0]<br/>class = Bug>']], fillcolor="#e539d7ff"] ;
31 -> 49 ;
50 [label=[[ '<Attack &le; 41.5<br/>gini = 0.871<br/>samples = 15<br/>value = [2, 0, 0, 0, 1, 1, 0, 0, 0, 3, 1, 0, 1, 3, 1<br/>1, 0, 1]<br/>class = Bug>']], fillcolor="#399de500"] ;
18 -> 50 ;
51 [label=[[ '<Sp. Defense &le; 62.5<br/>gini = 0.815<br/>samples = 9<br/>value = [0, 0, 0, 0, 1, 1, 0, 0, 0, 3, 1, 0, 1, 0, 1<br/>0, 0, 1]<br/>class = Bug>']], fillcolor="#399de540"] ;
50 -> 51 ;
52 [label=[[ '<HP &le; 35.0<br/>gini = 0.56<br/>samples = 5<br/>value = [0, 0, 0, 0, 0, 1, 0, 0, 0, 3, 0, 0, 0, 0, 1<br/>0, 0, 0]<br/>class = Bug>']], fillcolor="#399de57f"] ;
51 -> 52 ;
53 [label=[[ '<gini = 0.0<br/>samples = 1<br/>value = [0, 0, 0, 0, 0, 1, 0, 0, 0, 0, 0, 0, 0, 0, 0<br/>0, 0, 0]<br/>class = Fire>']], fillcolor="#39e547ff"] ;
52 -> 53 ;
54 [label=[[ '<HP &le; 125.0<br/>gini = 0.375<br/>samples = 4<br/>value = [0, 0, 0, 0, 0, 0, 0, 0, 0, 3, 0, 0, 0, 0, 1<br/>0, 0, 0]<br/>class = Bug>']], fillcolor="#399de5aa"] ;
52 -> 54 ;
55 [label=[[ '<gini = 0.0<br/>samples = 3<br/>value = [0, 0, 0, 0, 0, 0, 0, 0, 0, 3, 0, 0, 0, 0, 0<br/>0, 0, 0]<br/>class = Bug>']], fillcolor="#399de5ff"] ;
54 -> 55 ;
56 [label=[[ '<gini = 0.0<br/>samples = 1<br/>value = [0, 0, 0, 0, 0, 0, 0, 0, 0, 0, 0, 0, 0, 0, 1<br/>0, 0, 0]<br/>class = Bug>']], fillcolor="#e539d7ff"] ;
54 -> 56 ;
57 [label=[[ '<Sp. Defense &le; 67.5<br/>gini = 0.75<br/>samples = 4<br/>value = [0, 0, 0, 0, 1, 0, 0, 0, 0, 0, 1, 0, 1, 0, 0<br/>0, 0, 1]<br/>class = Fire>']], fillcolor="#64e53900"] ;
51 -> 57 ;
58 [label=[[ '<HP &le; 39.0<br/>gini = 0.5<br/>samples = 2<br/>value = [0, 0, 0, 0, 1, 0, 0, 0, 0, 0, 0, 0, 0, 0, 0<br/>0, 0, 1]<br/>class = Fire>']], fillcolor="#64e53900"] ;
57 -> 58 ;
59 [label=[[ '<gini = 0.0<br/>samples = 1<br/>value = [0, 0, 0, 0, 1, 0, 0, 0, 0, 0, 0, 0, 0, 0, 0<br/>0, 0, 0]<br/>class = Fire>']], fillcolor="#64e539ff"] ;
58 -> 59 ;
60 [label=[[ '<gini = 0.0<br/>samples = 1<br/>value = [0, 0, 0, 0, 0, 0, 0, 0, 0, 0, 0, 0, 0, 0, 0<br/>0, 0, 1]<br/>class = Normal>']], fillcolor="#e54739ff"] ;
58 -> 60 ;
61 [label=[[ '<Defense &le; 57.5<br/>gini = 0.5<br/>samples = 2<br/>value = [0, 0, 0, 0, 0, 0, 0, 0, 0, 0, 1, 0, 1, 0, 0<br/>0, 0, 0]<br/>class = Bug>']], fillcolor="#3964e500"] ;
57 -> 61 ;
62 [label=[[ '<gini = 0.0<br/>samples = 1<br/>value = [0, 0, 0, 0, 0, 0, 0, 0, 0, 0, 1, 0, 0, 0, 0<br/>0, 0, 0]<br/>class = Bug>']], fillcolor="#3964e5ff"] ;
61 -> 62 ;
63 [label=[[ '<gini = 0.0<br/>samples = 1<br/>value = [0, 0, 0, 0, 0, 0, 0, 0, 0, 0, 0, 0, 1, 0, 0<br/>0, 0, 0]<br/>class = Bug>']], fillcolor="#8139e5ff"] ;
61 -> 63 ;
64 [label=[[ '<HP &le; 47.5<br/>gini = 0.611<br/>samples = 6<br/>value = [2, 0, 0, 0, 0, 0, 0, 0, 0, 0, 0, 0, 0, 3, 0<br/>1, 0, 0]<br/>class = Bug>']], fillcolor="#ba39e540"] ;
50 -> 64 ;
65 [label=[[ '<Sp. Defense &le; 47.5<br/>gini = 0.444<br/>samples = 3<br/>value = [2, 0, 0, 0, 0, 0, 0, 0, 0, 0, 0, 0, 0, 0, 0<br/>1, 0, 0]<br/>class = Grass>']], fillcolor="#e581397f"] ;
64 -> 65 ;
66 [label=[[ '<gini = 0.0<br/>samples = 1<br/>value = [1, 0, 0, 0, 0, 0, 0, 0, 0, 0, 0, 0, 0, 0, 0<br/>0, 0, 0]<br/>class = Grass>']], fillcolor="#e58139ff"] ;
65 -> 66 ;
67 [label=[[ '<Sp. Defense &le; 58.0<br/>gini = 0.5<br/>samples = 2<br/>value = [1, 0, 0, 0, 0, 0, 0, 0, 0, 0, 0, 0, 0, 0, 0<br/>1, 0, 0]<br/>class = Grass>']], fillcolor="#e5813900"] ;
65 -> 67 ;
68 [label=[[ '<gini = 0.0<br/>samples = 1<br/>value = [0, 0, 0, 0, 0, 0, 0, 0, 0, 0, 0, 0, 0, 0, 0<br/>1, 0, 0]<br/>class = Normal>']], fillcolor="#e5399dff"] ;
67 -> 68 ;
69 [label=[[ '<gini = 0.0<br/>samples = 1<br/>value = [1, 0, 0, 0, 0, 0, 0, 0, 0, 0, 0, 0, 0, 0, 0<br/>0, 0, 0]<br/>class = Grass>']], fillcolor="#e58139ff"] ;
67 -> 69 ;
70 [label=[[ '<gini = 0.0<br/>samples = 3<br/>value = [0, 0, 0, 0, 0, 0, 0, 0, 0, 0, 0, 0, 0, 3, 0<br/>0, 0, 0]<br/>class = Bug>']], fillcolor="#ba39e5ff"] ;
64 -> 70 ;
71 [label=[[ '<HP &le; 39.5<br/>gini = 0.85<br/>samples = 50<br/>value = [4, 1, 1, 3, 4, 0, 4, 1, 1, 6, 0, 2, 3, 0, 3<br/>1, 0, 16]<br/>class = Normal>']], fillcolor="#e547393a"] ;
17 -> 71 ;
72 [label=[[ '<Sp. Defense &le; 42.5<br/>gini = 0.375<br/>samples = 4<br/>value = [0, 0, 0, 0, 0, 0, 3, 0, 0, 0, 0, 0, 0, 0, 1<br/>0, 0, 0]<br/>class = Water>']], fillcolor="#39e581aa"] ;
71 -> 72 ;
73 [label=[[ '<gini = 0.0<br/>samples = 1<br/>value = [0, 0, 0, 0, 0, 0, 0, 0, 0, 0, 0, 0, 0, 0, 1<br/>0, 0, 0]<br/>class = Bug>']], fillcolor="#e539d7ff"] ;
72 -> 73 ;
74 [label=[[ '<gini = 0.0<br/>samples = 3<br/>value = [0, 0, 0, 0, 0, 0, 3, 0, 0, 0, 0, 0, 0, 0, 0<br/>0, 0, 0]<br/>class = Water>']], fillcolor="#39e581ff"] ;
72 -> 74 ;
75 [label=[[ '<Sp. Defense &le; 27.5<br/>gini = 0.832<br/>samples = 46<br/>value = [4, 1, 1, 3, 4, 0, 1, 1, 1, 6, 0, 2, 3, 0, 2<br/>1, 0, 16]<br/>class = Normal>']], fillcolor="#e5473940"] ;
71 -> 75 ;
76 [label=[[ '<gini = 0.0<br/>samples = 2<br/>value = [0, 0, 0, 0, 0, 0, 0, 0, 0, 0, 0, 0, 2, 0, 0<br/>0, 0, 0]<br/>class = Bug>']], fillcolor="#8139e5ff"] ;
75 -> 76 ;
77 [label=[[ '<Speed &le; 90.0<br/>gini = 0.82<br/>samples = 44<br/>value = [4, 1, 1, 3, 4, 0, 1, 1, 1, 6, 0, 2, 1, 0, 2<br/>1, 0, 16]<br/>class = Normal>']], fillcolor="#e5473943"] ;
75 -> 77 ;
78 [label=[[ '<Speed &le; 64.5<br/>gini = 0.807<br/>samples = 42<br/>value = [4, 1, 1, 1, 4, 0, 1, 1, 1, 6, 0, 2, 1, 0, 2<br/>1, 0, 16]<br/>class = Normal>']], fillcolor="#e5473947"] ;
77 -> 78 ;
79 [label=[[ '<Defense &le; 39.5<br/>gini = 0.768<br/>samples = 29<br/>value = [0, 0, 1, 0, 4, 0, 1, 1, 0, 5, 0, 2, 1, 0, 1<br/>1, 0, 12]<br/>class = Normal>']], fillcolor="#e547394a"] ;
78 -> 79 ;
80 [label=[[ '<HP &le; 42.0<br/>gini = 0.72<br/>samples = 5<br/>value = [0, 0, 1, 0, 2, 0, 0, 1, 0, 1, 0, 0, 0, 0, 0<br/>0, 0, 0]<br/>class = Fire>']], fillcolor="#64e53940"] ;
79 -> 80 ;
81 [label=[[ '<Sp. Defense &le; 55.0<br/>gini = 0.5<br/>samples = 2<br/>value = [0, 0, 0, 0, 0, 0, 0, 1, 0, 1, 0, 0, 0, 0, 0<br/>0, 0, 0]<br/>class = Water>']], fillcolor="#39e5ba00"] ;
80 -> 81 ;
82 [label=[[ '<gini = 0.0<br/>samples = 1<br/>value = [0, 0, 0, 0, 0, 0, 0, 1, 0, 0, 0, 0, 0, 0, 0<br/>0, 0, 0]<br/>class = Water>']], fillcolor="#39e5baff"] ;
81 -> 82 ;
83 [label=[[ '<gini = 0.0<br/>samples = 1<br/>value = [0, 0, 0, 0, 0, 0, 0, 0, 0, 1, 0, 0, 0, 0, 0<br/>0, 0, 0]<br/>class = Bug>']], fillcolor="#399de5ff"] ;
81 -> 83 ;
84 [label=[[ '<Attack &le; 44.0<br/>gini = 0.444<br/>samples = 3<br/>value = [0, 0, 1, 0, 2, 0, 0, 0, 0, 0, 0, 0, 0, 0, 0<br/>0, 0, 0]<br/>class = Fire>']], fillcolor="#64e5397f"] ;
80 -> 84 ;
85 [label=[[ '<gini = 0.0<br/>samples = 2<br/>value = [0, 0, 0, 0, 2, 0, 0, 0, 0, 0, 0, 0, 0, 0, 0<br/>0, 0, 0]<br/>class = Fire>']], fillcolor="#64e539ff"] ;
84 -> 85 ;
86 [label=[[ '<gini = 0.0<br/>samples = 1<br/>value = [0, 0, 1, 0, 0, 0, 0, 0, 0, 0, 0, 0, 0, 0, 0<br/>0, 0, 0]<br/>class = Grass>']], fillcolor="#d7e539ff"] ;
84 -> 86 ;
87 [label=[[ '<Speed &le; 29.5<br/>gini = 0.701<br/>samples = 24<br/>value = [0, 0, 0, 0, 2, 0, 1, 0, 0, 4, 0, 2, 1, 0, 1<br/>1, 0, 12]<br/>class = Normal>']], fillcolor="#e5473966"] ;
79 -> 87 ;
88 [label=[[ '<Sp. Attack &le; 58.0<br/>gini = 0.5<br/>samples = 2<br/>value = [0, 0, 0, 0, 0, 0, 0, 0, 0, 0, 0, 1, 0, 0, 0<br/>1, 0, 0]<br/>class = Bug>']], fillcolor="#4739e500"] ;
87 -> 88 ;
89 [label=[[ '<gini = 0.0<br/>samples = 1<br/>value = [0, 0, 0, 0, 0, 0, 0, 0, 0, 0, 0, 1, 0, 0, 0<br/>0, 0, 0]<br/>class = Bug>']], fillcolor="#4739e5ff"] ;
88 -> 89 ;
90 [label=[[ '<gini = 0.0<br/>samples = 1<br/>value = [0, 0, 0, 0, 0, 0, 0, 0, 0, 0, 0, 0, 0, 0, 0<br/>1, 0, 0]<br/>class = Normal>']], fillcolor="#e5399dff"] ;
88 -> 90 ;
91 [label=[[ '<Sp. Defense &le; 67.5<br/>gini = 0.653<br/>samples = 22<br/>value = [0, 0, 0, 0, 2, 0, 1, 0, 0, 4, 0, 1, 1, 0, 1<br/>0, 0, 12]<br/>class = Normal>']], fillcolor="#e5473971"] ;
87 -> 91 ;
92 [label=[[ '<Sp. Defense &le; 64.5<br/>gini = 0.728<br/>samples = 18<br/>value = [0, 0, 0, 0, 2, 0, 1, 0, 0, 4, 0, 1, 1, 0, 1<br/>0, 0, 8]<br/>class = Normal>']], fillcolor="#e5473949"] ;
91 -> 92 ;
93 [label=[[ '<Defense &le; 65.5<br/>gini = 0.658<br/>samples = 15<br/>value = [0, 0, 0, 0, 1, 0, 1, 0, 0, 3, 0, 1, 1, 0, 0<br/>0, 0, 8]<br/>class = Normal>']], fillcolor="#e547396a"] ;
92 -> 93 ;
94 [label=[[ '<Speed &le; 46.0<br/>gini = 0.58<br/>samples = 13<br/>value = [0, 0, 0, 0, 0, 0, 1, 0, 0, 2, 0, 1, 1, 0, 0<br/>0, 0, 8]<br/>class = Normal>']], fillcolor="#e547398b"] ;
93 -> 94 ;
95 [label=[[ '<gini = 0.0<br/>samples = 4<br/>value = [0, 0, 0, 0, 0, 0, 0, 0, 0, 0, 0, 0, 0, 0, 0<br/>0, 0, 4]<br/>class = Normal>']], fillcolor="#e54739ff"] ;
94 -> 95 ;
96 [label=[[ '<Speed &le; 52.5<br/>gini = 0.716<br/>samples = 9<br/>value = [0, 0, 0, 0, 0, 0, 1, 0, 0, 2, 0, 1, 1, 0, 0<br/>0, 0, 4]<br/>class = Normal>']], fillcolor="#e5473949"] ;
94 -> 96 ;
97 [label=[[ '<HP &le; 49.0<br/>gini = 0.5<br/>samples = 2<br/>value = [0, 0, 0, 0, 0, 0, 0, 0, 0, 0, 0, 1, 1, 0, 0<br/>0, 0, 0]<br/>class = Bug>']], fillcolor="#4739e500"] ;
96 -> 97 ;
98 [label=[[ '<gini = 0.0<br/>samples = 1<br/>value = [0, 0, 0, 0, 0, 0, 0, 0, 0, 0, 0, 0, 1, 0, 0<br/>0, 0, 0]<br/>class = Bug>']], fillcolor="#8139e5ff"] ;
97 -> 98 ;
99 [label=[[ '<gini = 0.0<br/>samples = 1<br/>value = [0, 0, 0, 0, 0, 0, 0, 0, 0, 0, 0, 1, 0, 0, 0<br/>0, 0, 0]<br/>class = Bug>']], fillcolor="#4739e5ff"] ;
97 -> 99 ;
100 [label=[[ '<Defense &le; 52.5<br/>gini = 0.571<br/>samples = 7<br/>value = [0, 0, 0, 0, 0, 0, 1, 0, 0, 2, 0, 0, 0, 0, 0<br/>0, 0, 4]<br/>class = Normal>']], fillcolor="#e5473966"] ;
96 -> 100 ;
101 [label=[[ '<Sp. Attack &le; 51.5<br/>gini = 0.5<br/>samples = 6<br/>value = [0, 0, 0, 0, 0, 0, 1, 0, 0, 1, 0, 0, 0, 0, 0<br/>0, 0, 4]<br/>class = Normal>']], fillcolor="#e5473999"] ;
100 -> 101 ;
102 [label=[[ '<gini = 0.0<br/>samples = 3<br/>value = [0, 0, 0, 0, 0, 0, 0, 0, 0, 0, 0, 0, 0, 0, 0<br/>0, 0, 3]<br/>class = Normal>']], fillcolor="#e54739ff"] ;
101 -> 102 ;
103 [label=[[ '<gini = 0.667<br/>samples = 3<br/>value = [0, 0, 0, 0, 0, 0, 1, 0, 0, 1, 0, 0, 0, 0, 0<br/>0, 0, 1]<br/>class = Water>']], fillcolor="#39e58100"] ;
101 -> 103 ;
104 [label=[[ '<gini = 0.0<br/>samples = 1<br/>value = [0, 0, 0, 0, 0, 0, 0, 0, 0, 1, 0, 0, 0, 0, 0<br/>0, 0, 0]<br/>class = Bug>']], fillcolor="#399de5ff"] ;
100 -> 104 ;
105 [label=[[ '<Defense &le; 73.0<br/>gini = 0.5<br/>samples = 2<br/>value = [0, 0, 0, 0, 1, 0, 0, 0, 0, 1, 0, 0, 0, 0, 0<br/>0, 0, 0]<br/>class = Fire>']], fillcolor="#64e53900"] ;
93 -> 105 ;
106 [label=[[ '<gini = 0.0<br/>samples = 1<br/>value = [0, 0, 0, 0, 1, 0, 0, 0, 0, 0, 0, 0, 0, 0, 0<br/>0, 0, 0]<br/>class = Fire>']], fillcolor="#64e539ff"] ;
105 -> 106 ;
107 [label=[[ '<gini = 0.0<br/>samples = 1<br/>value = [0, 0, 0, 0, 0, 0, 0, 0, 0, 1, 0, 0, 0, 0, 0<br/>0, 0, 0]<br/>class = Bug>']], fillcolor="#399de5ff"] ;
105 -> 107 ;
108 [label=[[ '<Defense &le; 49.0<br/>gini = 0.667<br/>samples = 3<br/>value = [0, 0, 0, 0, 1, 0, 0, 0, 0, 1, 0, 0, 0, 0, 1<br/>0, 0, 0]<br/>class = Fire>']], fillcolor="#64e53900"] ;
92 -> 108 ;
109 [label=[[ '<gini = 0.0<br/>samples = 1<br/>value = [0, 0, 0, 0, 1, 0, 0, 0, 0, 0, 0, 0, 0, 0, 0<br/>0, 0, 0]<br/>class = Fire>']], fillcolor="#64e539ff"] ;
108 -> 109 ;
110 [label=[[ '<Defense &le; 57.5<br/>gini = 0.5<br/>samples = 2<br/>value = [0, 0, 0, 0, 0, 0, 0, 0, 0, 1, 0, 0, 0, 0, 1<br/>0, 0, 0]<br/>class = Bug>']], fillcolor="#399de500"] ;
108 -> 110 ;
111 [label=[[ '<gini = 0.0<br/>samples = 1<br/>value = [0, 0, 0, 0, 0, 0, 0, 0, 0, 0, 0, 0, 0, 0, 1<br/>0, 0, 0]<br/>class = Bug>']], fillcolor="#e539d7ff"] ;
110 -> 111 ;
112 [label=[[ '<gini = 0.0<br/>samples = 1<br/>value = [0, 0, 0, 0, 0, 0, 0, 0, 0, 1, 0, 0, 0, 0, 0<br/>0, 0, 0]<br/>class = Bug>']], fillcolor="#399de5ff"] ;
110 -> 112 ;
113 [label=[[ '<gini = 0.0<br/>samples = 4<br/>value = [0, 0, 0, 0, 0, 0, 0, 0, 0, 0, 0, 0, 0, 0, 0<br/>0, 0, 4]<br/>class = Normal>']], fillcolor="#e54739ff"] ;
91 -> 113 ;
114 [label=[[ '<Speed &le; 65.5<br/>gini = 0.781<br/>samples = 13<br/>value = [4, 1, 0, 1, 0, 0, 0, 0, 1, 1, 0, 0, 0, 0, 1<br/>0, 0, 4]<br/>class = Grass>']], fillcolor="#e5813900"] ;
78 -> 114 ;
115 [label=[[ '<gini = 0.0<br/>samples = 3<br/>value = [3, 0, 0, 0, 0, 0, 0, 0, 0, 0, 0, 0, 0, 0, 0<br/>0, 0, 0]<br/>class = Grass>']], fillcolor="#e58139ff"] ;
114 -> 115 ;
116 [label=[[ '<Attack &le; 49.5<br/>gini = 0.78<br/>samples = 10<br/>value = [1, 1, 0, 1, 0, 0, 0, 0, 1, 1, 0, 0, 0, 0, 1<br/>0, 0, 4]<br/>class = Normal>']], fillcolor="#e5473955"] ;
114 -> 116 ;
117 [label=[[ '<Sp. Defense &le; 105.0<br/>gini = 0.688<br/>samples = 8<br/>value = [1, 0, 0, 1, 0, 0, 0, 0, 0, 1, 0, 0, 0, 0, 1<br/>0, 0, 4]<br/>class = Normal>']], fillcolor="#e547396d"] ;
116 -> 117 ;
118 [label=[[ '<Sp. Attack &le; 47.0<br/>gini = 0.612<br/>samples = 7<br/>value = [0, 0, 0, 1, 0, 0, 0, 0, 0, 1, 0, 0, 0, 0, 1<br/>0, 0, 4]<br/>class = Normal>']], fillcolor="#e547397f"] ;
117 -> 118 ;
119 [label=[[ '<gini = 0.0<br/>samples = 1<br/>value = [0, 0, 0, 0, 0, 0, 0, 0, 0, 1, 0, 0, 0, 0, 0<br/>0, 0, 0]<br/>class = Bug>']], fillcolor="#399de5ff"] ;
118 -> 119 ;
120 [label=[[ '<Sp. Attack &le; 58.5<br/>gini = 0.5<br/>samples = 6<br/>value = [0, 0, 0, 1, 0, 0, 0, 0, 0, 0, 0, 0, 0, 0, 1<br/>0, 0, 4]<br/>class = Normal>']], fillcolor="#e5473999"] ;
118 -> 120 ;
121 [label=[[ '<Attack &le; 42.5<br/>gini = 0.32<br/>samples = 5<br/>value = [0, 0, 0, 0, 0, 0, 0, 0, 0, 0, 0, 0, 0, 0, 1<br/>0, 0, 4]<br/>class = Normal>']], fillcolor="#e54739bf"] ;
120 -> 121 ;
122 [label=[[ '<gini = 0.0<br/>samples = 3<br/>value = [0, 0, 0, 0, 0, 0, 0, 0, 0, 0, 0, 0, 0, 0, 0<br/>0, 0, 3]<br/>class = Normal>']], fillcolor="#e54739ff"] ;
121 -> 122 ;
123 [label=[[ '<Speed &le; 69.0<br/>gini = 0.5<br/>samples = 2<br/>value = [0, 0, 0, 0, 0, 0, 0, 0, 0, 0, 0, 0, 0, 0, 1<br/>0, 0, 1]<br/>class = Bug>']], fillcolor="#e539d700"] ;
121 -> 123 ;
124 [label=[[ '<gini = 0.0<br/>samples = 1<br/>value = [0, 0, 0, 0, 0, 0, 0, 0, 0, 0, 0, 0, 0, 0, 0<br/>0, 0, 1]<br/>class = Normal>']], fillcolor="#e54739ff"] ;
123 -> 124 ;
125 [label=[[ '<gini = 0.0<br/>samples = 1<br/>value = [0, 0, 0, 0, 0, 0, 0, 0, 0, 0, 0, 0, 0, 0, 1<br/>0, 0, 0]<br/>class = Bug>']], fillcolor="#e539d7ff"] ;
123 -> 125 ;
126 [label=[[ '<gini = 0.0<br/>samples = 1<br/>value = [0, 0, 0, 1, 0, 0, 0, 0, 0, 0, 0, 0, 0, 0, 0<br/>0, 0, 0]<br/>class = Fire>']], fillcolor="#9de539ff"] ;
120 -> 126 ;
127 [label=[[ '<gini = 0.0<br/>samples = 1<br/>value = [1, 0, 0, 0, 0, 0, 0, 0, 0, 0, 0, 0, 0, 0, 0<br/>0, 0, 0]<br/>class = Grass>']], fillcolor="#e58139ff"] ;
117 -> 127 ;
128 [label=[[ '<Speed &le; 68.0<br/>gini = 0.5<br/>samples = 2<br/>value = [0, 1, 0, 0, 0, 0, 0, 0, 1, 0, 0, 0, 0, 0, 0<br/>0, 0, 0]<br/>class = Grass>']], fillcolor="#e5ba3900"] ;
116 -> 128 ;
129 [label=[[ '<gini = 0.0<br/>samples = 1<br/>value = [0, 1, 0, 0, 0, 0, 0, 0, 0, 0, 0, 0, 0, 0, 0<br/>0, 0, 0]<br/>class = Grass>']], fillcolor="#e5ba39ff"] ;
128 -> 129 ;
130 [label=[[ '<gini = 0.0<br/>samples = 1<br/>value = [0, 0, 0, 0, 0, 0, 0, 0, 1, 0, 0, 0, 0, 0, 0<br/>0, 0, 0]<br/>class = Water>']], fillcolor="#39d7e5ff"] ;
128 -> 130 ;
131 [label=[[ '<gini = 0.0<br/>samples = 2<br/>value = [0, 0, 0, 2, 0, 0, 0, 0, 0, 0, 0, 0, 0, 0, 0<br/>0, 0, 0]<br/>class = Fire>']], fillcolor="#9de539ff"] ;
77 -> 131 ;
132 [label=[[ '<Speed &le; 69.0<br/>gini = 0.875<br/>samples = 152<br/>value = [14, 9, 6, 5, 2, 14, 5, 0, 5, 7, 12, 2, 43, 9<br/>0, 5, 2, 12]<br/>class = Bug>']], fillcolor="#8139e536"] ;
2 -> 132 ;
133 [label=[[ '<Attack &le; 62.5<br/>gini = 0.915<br/>samples = 89<br/>value = [9, 6, 5, 3, 2, 8, 3, 0, 5, 4, 7, 2, 15, 7<br/>0, 3, 2, 8]<br/>class = Bug>']], fillcolor="#8139e513"] ;
132 -> 133 ;
134 [label=[[ '<Sp. Attack &le; 36.5<br/>gini = 0.831<br/>samples = 26<br/>value = [2, 3, 0, 1, 0, 1, 1, 0, 0, 2, 1, 0, 8, 5, 0<br/>0, 2, 0]<br/>class = Bug>']], fillcolor="#8139e524"] ;
133 -> 134 ;
135 [label=[[ '<Speed &le; 38.5<br/>gini = 0.562<br/>samples = 8<br/>value = [0, 1, 0, 0, 0, 1, 0, 0, 0, 0, 0, 0, 5, 0, 0<br/>0, 1, 0]<br/>class = Bug>']], fillcolor="#8139e592"] ;
134 -> 135 ;
136 [label=[[ '<Sp. Defense &le; 32.5<br/>gini = 0.75<br/>samples = 4<br/>value = [0, 1, 0, 0, 0, 1, 0, 0, 0, 0, 0, 0, 1, 0, 0<br/>0, 1, 0]<br/>class = Grass>']], fillcolor="#e5ba3900"] ;
135 -> 136 ;
137 [label=[[ '<Sp. Attack &le; 25.0<br/>gini = 0.5<br/>samples = 2<br/>value = [0, 1, 0, 0, 0, 1, 0, 0, 0, 0, 0, 0, 0, 0, 0<br/>0, 0, 0]<br/>class = Grass>']], fillcolor="#e5ba3900"] ;
136 -> 137 ;
138 [label=[[ '<gini = 0.0<br/>samples = 1<br/>value = [0, 0, 0, 0, 0, 1, 0, 0, 0, 0, 0, 0, 0, 0, 0<br/>0, 0, 0]<br/>class = Fire>']], fillcolor="#39e547ff"] ;
137 -> 138 ;
139 [label=[[ '<gini = 0.0<br/>samples = 1<br/>value = [0, 1, 0, 0, 0, 0, 0, 0, 0, 0, 0, 0, 0, 0, 0<br/>0, 0, 0]<br/>class = Grass>']], fillcolor="#e5ba39ff"] ;
137 -> 139 ;
140 [label=[[ '<HP &le; 50.0<br/>gini = 0.5<br/>samples = 2<br/>value = [0, 0, 0, 0, 0, 0, 0, 0, 0, 0, 0, 0, 1, 0, 0<br/>0, 1, 0]<br/>class = Bug>']], fillcolor="#8139e500"] ;
136 -> 140 ;
141 [label=[[ '<gini = 0.0<br/>samples = 1<br/>value = [0, 0, 0, 0, 0, 0, 0, 0, 0, 0, 0, 0, 0, 0, 0<br/>0, 1, 0]<br/>class = Normal>']], fillcolor="#e53964ff"] ;
140 -> 141 ;
142 [label=[[ '<gini = 0.0<br/>samples = 1<br/>value = [0, 0, 0, 0, 0, 0, 0, 0, 0, 0, 0, 0, 1, 0, 0<br/>0, 0, 0]<br/>class = Bug>']], fillcolor="#8139e5ff"] ;
140 -> 142 ;
143 [label=[[ '<gini = 0.0<br/>samples = 4<br/>value = [0, 0, 0, 0, 0, 0, 0, 0, 0, 0, 0, 0, 4, 0, 0<br/>0, 0, 0]<br/>class = Bug>']], fillcolor="#8139e5ff"] ;
135 -> 143 ;
144 [label=[[ '<HP &le; 51.5<br/>gini = 0.846<br/>samples = 18<br/>value = [2, 2, 0, 1, 0, 0, 1, 0, 0, 2, 1, 0, 3, 5, 0<br/>0, 1, 0]<br/>class = Bug>']], fillcolor="#ba39e522"] ;
134 -> 144 ;
145 [label=[[ '<Attack &le; 56.0<br/>gini = 0.688<br/>samples = 8<br/>value = [1, 0, 0, 1, 0, 0, 1, 0, 0, 0, 0, 0, 0, 4, 0<br/>0, 1, 0]<br/>class = Bug>']], fillcolor="#ba39e56d"] ;
144 -> 145 ;
146 [label=[[ '<Defense &le; 55.0<br/>gini = 0.5<br/>samples = 2<br/>value = [0, 0, 0, 1, 0, 0, 0, 0, 0, 0, 0, 0, 0, 0, 0<br/>0, 1, 0]<br/>class = Fire>']], fillcolor="#9de53900"] ;
145 -> 146 ;
147 [label=[[ '<gini = 0.0<br/>samples = 1<br/>value = [0, 0, 0, 1, 0, 0, 0, 0, 0, 0, 0, 0, 0, 0, 0<br/>0, 0, 0]<br/>class = Fire>']], fillcolor="#9de539ff"] ;
146 -> 147 ;
148 [label=[[ '<gini = 0.0<br/>samples = 1<br/>value = [0, 0, 0, 0, 0, 0, 0, 0, 0, 0, 0, 0, 0, 0, 0<br/>0, 1, 0]<br/>class = Normal>']], fillcolor="#e53964ff"] ;
146 -> 148 ;
149 [label=[[ '<Speed &le; 58.0<br/>gini = 0.5<br/>samples = 6<br/>value = [1, 0, 0, 0, 0, 0, 1, 0, 0, 0, 0, 0, 0, 4, 0<br/>0, 0, 0]<br/>class = Bug>']], fillcolor="#ba39e599"] ;
145 -> 149 ;
150 [label=[[ '<Speed &le; 40.0<br/>gini = 0.32<br/>samples = 5<br/>value = [1, 0, 0, 0, 0, 0, 0, 0, 0, 0, 0, 0, 0, 4, 0<br/>0, 0, 0]<br/>class = Bug>']], fillcolor="#ba39e5bf"] ;
149 -> 150 ;
151 [label=[[ '<Sp. Defense &le; 50.0<br/>gini = 0.5<br/>samples = 2<br/>value = [1, 0, 0, 0, 0, 0, 0, 0, 0, 0, 0, 0, 0, 1, 0<br/>0, 0, 0]<br/>class = Grass>']], fillcolor="#e5813900"] ;
150 -> 151 ;
152 [label=[[ '<gini = 0.0<br/>samples = 1<br/>value = [1, 0, 0, 0, 0, 0, 0, 0, 0, 0, 0, 0, 0, 0, 0<br/>0, 0, 0]<br/>class = Grass>']], fillcolor="#e58139ff"] ;
151 -> 152 ;
153 [label=[[ '<gini = 0.0<br/>samples = 1<br/>value = [0, 0, 0, 0, 0, 0, 0, 0, 0, 0, 0, 0, 0, 1, 0<br/>0, 0, 0]<br/>class = Bug>']], fillcolor="#ba39e5ff"] ;
151 -> 153 ;
154 [label=[[ '<gini = 0.0<br/>samples = 3<br/>value = [0, 0, 0, 0, 0, 0, 0, 0, 0, 0, 0, 0, 0, 3, 0<br/>0, 0, 0]<br/>class = Bug>']], fillcolor="#ba39e5ff"] ;
150 -> 154 ;
155 [label=[[ '<gini = 0.0<br/>samples = 1<br/>value = [0, 0, 0, 0, 0, 0, 1, 0, 0, 0, 0, 0, 0, 0, 0<br/>0, 0, 0]<br/>class = Water>']], fillcolor="#39e581ff"] ;
149 -> 155 ;
156 [label=[[ '<Sp. Defense &le; 57.5<br/>gini = 0.8<br/>samples = 10<br/>value = [1, 2, 0, 0, 0, 0, 0, 0, 0, 2, 1, 0, 3, 1, 0<br/>0, 0, 0]<br/>class = Bug>']], fillcolor="#8139e520"] ;
144 -> 156 ;
157 [label=[[ '<Speed &le; 39.0<br/>gini = 0.778<br/>samples = 6<br/>value = [1, 1, 0, 0, 0, 0, 0, 0, 0, 2, 1, 0, 0, 1, 0<br/>0, 0, 0]<br/>class = Bug>']], fillcolor="#399de533"] ;
156 -> 157 ;
158 [label=[[ '<gini = 0.0<br/>samples = 2<br/>value = [0, 0, 0, 0, 0, 0, 0, 0, 0, 2, 0, 0, 0, 0, 0<br/>0, 0, 0]<br/>class = Bug>']], fillcolor="#399de5ff"] ;
157 -> 158 ;
159 [label=[[ '<Defense &le; 51.5<br/>gini = 0.75<br/>samples = 4<br/>value = [1, 1, 0, 0, 0, 0, 0, 0, 0, 0, 1, 0, 0, 1, 0<br/>0, 0, 0]<br/>class = Grass>']], fillcolor="#e5813900"] ;
157 -> 159 ;
160 [label=[[ '<gini = 0.0<br/>samples = 1<br/>value = [1, 0, 0, 0, 0, 0, 0, 0, 0, 0, 0, 0, 0, 0, 0<br/>0, 0, 0]<br/>class = Grass>']], fillcolor="#e58139ff"] ;
159 -> 160 ;
161 [label=[[ '<Defense &le; 56.5<br/>gini = 0.667<br/>samples = 3<br/>value = [0, 1, 0, 0, 0, 0, 0, 0, 0, 0, 1, 0, 0, 1, 0<br/>0, 0, 0]<br/>class = Grass>']], fillcolor="#e5ba3900"] ;
159 -> 161 ;
162 [label=[[ '<gini = 0.0<br/>samples = 1<br/>value = [0, 1, 0, 0, 0, 0, 0, 0, 0, 0, 0, 0, 0, 0, 0<br/>0, 0, 0]<br/>class = Grass>']], fillcolor="#e5ba39ff"] ;
161 -> 162 ;
163 [label=[[ '<Sp. Attack &le; 47.5<br/>gini = 0.5<br/>samples = 2<br/>value = [0, 0, 0, 0, 0, 0, 0, 0, 0, 0, 1, 0, 0, 1, 0<br/>0, 0, 0]<br/>class = Bug>']], fillcolor="#3964e500"] ;
161 -> 163 ;
164 [label=[[ '<gini = 0.0<br/>samples = 1<br/>value = [0, 0, 0, 0, 0, 0, 0, 0, 0, 0, 1, 0, 0, 0, 0<br/>0, 0, 0]<br/>class = Bug>']], fillcolor="#3964e5ff"] ;
163 -> 164 ;
165 [label=[[ '<gini = 0.0<br/>samples = 1<br/>value = [0, 0, 0, 0, 0, 0, 0, 0, 0, 0, 0, 0, 0, 1, 0<br/>0, 0, 0]<br/>class = Bug>']], fillcolor="#ba39e5ff"] ;
163 -> 165 ;
166 [label=[[ '<Speed &le; 57.5<br/>gini = 0.375<br/>samples = 4<br/>value = [0, 1, 0, 0, 0, 0, 0, 0, 0, 0, 0, 0, 3, 0, 0<br/>0, 0, 0]<br/>class = Bug>']], fillcolor="#8139e5aa"] ;
156 -> 166 ;
167 [label=[[ '<gini = 0.0<br/>samples = 2<br/>value = [0, 0, 0, 0, 0, 0, 0, 0, 0, 0, 0, 0, 2, 0, 0<br/>0, 0, 0]<br/>class = Bug>']], fillcolor="#8139e5ff"] ;
166 -> 167 ;
168 [label=[[ '<Sp. Defense &le; 62.5<br/>gini = 0.5<br/>samples = 2<br/>value = [0, 1, 0, 0, 0, 0, 0, 0, 0, 0, 0, 0, 1, 0, 0<br/>0, 0, 0]<br/>class = Grass>']], fillcolor="#e5ba3900"] ;
166 -> 168 ;
169 [label=[[ '<gini = 0.0<br/>samples = 1<br/>value = [0, 0, 0, 0, 0, 0, 0, 0, 0, 0, 0, 0, 1, 0, 0<br/>0, 0, 0]<br/>class = Bug>']], fillcolor="#8139e5ff"] ;
168 -> 169 ;
170 [label=[[ '<gini = 0.0<br/>samples = 1<br/>value = [0, 1, 0, 0, 0, 0, 0, 0, 0, 0, 0, 0, 0, 0, 0<br/>0, 0, 0]<br/>class = Grass>']], fillcolor="#e5ba39ff"] ;
168 -> 170 ;
171 [label=[[ '<Attack &le; 71.0<br/>gini = 0.915<br/>samples = 63<br/>value = [7, 3, 5, 2, 2, 7, 2, 0, 5, 2, 6, 2, 7, 2, 0<br/>3, 0, 8]<br/>class = Normal>']], fillcolor="#e5473905"] ;
133 -> 171 ;
172 [label=[[ '<Defense &le; 67.5<br/>gini = 0.871<br/>samples = 21<br/>value = [1, 1, 2, 1, 0, 1, 1, 0, 5, 2, 0, 1, 1, 0, 0<br/>1, 0, 4]<br/>class = Water>']], fillcolor="#39d7e50f"] ;
171 -> 172 ;
173 [label=[[ '<Defense &le; 57.5<br/>gini = 0.886<br/>samples = 17<br/>value = [1, 1, 2, 1, 0, 1, 1, 0, 1, 2, 0, 1, 1, 0, 0<br/>1, 0, 4]<br/>class = Normal>']], fillcolor="#e5473922"] ;
172 -> 173 ;
174 [label=[[ '<Defense &le; 46.5<br/>gini = 0.911<br/>samples = 13<br/>value = [1, 1, 2, 1, 0, 1, 1, 0, 1, 1, 0, 1, 1, 0, 0<br/>1, 0, 1]<br/>class = Grass>']], fillcolor="#d7e53915"] ;
173 -> 174 ;
175 [label=[[ '<Defense &le; 42.5<br/>gini = 0.816<br/>samples = 7<br/>value = [0, 0, 2, 1, 0, 1, 1, 0, 0, 1, 0, 1, 0, 0, 0<br/>0, 0, 0]<br/>class = Grass>']], fillcolor="#d7e5392a"] ;
174 -> 175 ;
176 [label=[[ '<Sp. Defense &le; 37.0<br/>gini = 0.75<br/>samples = 4<br/>value = [0, 0, 0, 1, 0, 1, 0, 0, 0, 1, 0, 1, 0, 0, 0<br/>0, 0, 0]<br/>class = Fire>']], fillcolor="#9de53900"] ;
175 -> 176 ;
177 [label=[[ '<gini = 0.0<br/>samples = 1<br/>value = [0, 0, 0, 1, 0, 0, 0, 0, 0, 0, 0, 0, 0, 0, 0<br/>0, 0, 0]<br/>class = Fire>']], fillcolor="#9de539ff"] ;
176 -> 177 ;
178 [label=[[ '<HP &le; 47.5<br/>gini = 0.667<br/>samples = 3<br/>value = [0, 0, 0, 0, 0, 1, 0, 0, 0, 1, 0, 1, 0, 0, 0<br/>0, 0, 0]<br/>class = Fire>']], fillcolor="#39e54700"] ;
176 -> 178 ;
179 [label=[[ '<gini = 0.0<br/>samples = 1<br/>value = [0, 0, 0, 0, 0, 1, 0, 0, 0, 0, 0, 0, 0, 0, 0<br/>0, 0, 0]<br/>class = Fire>']], fillcolor="#39e547ff"] ;
178 -> 179 ;
180 [label=[[ '<Speed &le; 50.0<br/>gini = 0.5<br/>samples = 2<br/>value = [0, 0, 0, 0, 0, 0, 0, 0, 0, 1, 0, 1, 0, 0, 0<br/>0, 0, 0]<br/>class = Bug>']], fillcolor="#399de500"] ;
178 -> 180 ;
181 [label=[[ '<gini = 0.0<br/>samples = 1<br/>value = [0, 0, 0, 0, 0, 0, 0, 0, 0, 0, 0, 1, 0, 0, 0<br/>0, 0, 0]<br/>class = Bug>']], fillcolor="#4739e5ff"] ;
180 -> 181 ;
182 [label=[[ '<gini = 0.0<br/>samples = 1<br/>value = [0, 0, 0, 0, 0, 0, 0, 0, 0, 1, 0, 0, 0, 0, 0<br/>0, 0, 0]<br/>class = Bug>']], fillcolor="#399de5ff"] ;
180 -> 182 ;
183 [label=[[ '<HP &le; 61.5<br/>gini = 0.444<br/>samples = 3<br/>value = [0, 0, 2, 0, 0, 0, 1, 0, 0, 0, 0, 0, 0, 0, 0<br/>0, 0, 0]<br/>class = Grass>']], fillcolor="#d7e5397f"] ;
175 -> 183 ;
184 [label=[[ '<gini = 0.0<br/>samples = 2<br/>value = [0, 0, 2, 0, 0, 0, 0, 0, 0, 0, 0, 0, 0, 0, 0<br/>0, 0, 0]<br/>class = Grass>']], fillcolor="#d7e539ff"] ;
183 -> 184 ;
185 [label=[[ '<gini = 0.0<br/>samples = 1<br/>value = [0, 0, 0, 0, 0, 0, 1, 0, 0, 0, 0, 0, 0, 0, 0<br/>0, 0, 0]<br/>class = Water>']], fillcolor="#39e581ff"] ;
183 -> 185 ;
186 [label=[[ '<Sp. Attack &le; 47.5<br/>gini = 0.833<br/>samples = 6<br/>value = [1, 1, 0, 0, 0, 0, 0, 0, 1, 0, 0, 0, 1, 0, 0<br/>1, 0, 1]<br/>class = Grass>']], fillcolor="#e5813900"] ;
174 -> 186 ;
187 [label=[[ '<Speed &le; 31.5<br/>gini = 0.667<br/>samples = 3<br/>value = [1, 1, 0, 0, 0, 0, 0, 0, 0, 0, 0, 0, 0, 0, 0<br/>1, 0, 0]<br/>class = Grass>']], fillcolor="#e5813900"] ;
186 -> 187 ;
188 [label=[[ '<gini = 0.0<br/>samples = 1<br/>value = [1, 0, 0, 0, 0, 0, 0, 0, 0, 0, 0, 0, 0, 0, 0<br/>0, 0, 0]<br/>class = Grass>']], fillcolor="#e58139ff"] ;
187 -> 188 ;
189 [label=[[ '<Attack &le; 64.5<br/>gini = 0.5<br/>samples = 2<br/>value = [0, 1, 0, 0, 0, 0, 0, 0, 0, 0, 0, 0, 0, 0, 0<br/>1, 0, 0]<br/>class = Grass>']], fillcolor="#e5ba3900"] ;
187 -> 189 ;
190 [label=[[ '<gini = 0.0<br/>samples = 1<br/>value = [0, 0, 0, 0, 0, 0, 0, 0, 0, 0, 0, 0, 0, 0, 0<br/>1, 0, 0]<br/>class = Normal>']], fillcolor="#e5399dff"] ;
189 -> 190 ;
191 [label=[[ '<gini = 0.0<br/>samples = 1<br/>value = [0, 1, 0, 0, 0, 0, 0, 0, 0, 0, 0, 0, 0, 0, 0<br/>0, 0, 0]<br/>class = Grass>']], fillcolor="#e5ba39ff"] ;
189 -> 191 ;
192 [label=[[ '<Attack &le; 67.5<br/>gini = 0.667<br/>samples = 3<br/>value = [0, 0, 0, 0, 0, 0, 0, 0, 1, 0, 0, 0, 1, 0, 0<br/>0, 0, 1]<br/>class = Water>']], fillcolor="#39d7e500"] ;
186 -> 192 ;
193 [label=[[ '<gini = 0.0<br/>samples = 1<br/>value = [0, 0, 0, 0, 0, 0, 0, 0, 0, 0, 0, 0, 1, 0, 0<br/>0, 0, 0]<br/>class = Bug>']], fillcolor="#8139e5ff"] ;
192 -> 193 ;
194 [label=[[ '<Speed &le; 39.0<br/>gini = 0.5<br/>samples = 2<br/>value = [0, 0, 0, 0, 0, 0, 0, 0, 1, 0, 0, 0, 0, 0, 0<br/>0, 0, 1]<br/>class = Water>']], fillcolor="#39d7e500"] ;
192 -> 194 ;
195 [label=[[ '<gini = 0.0<br/>samples = 1<br/>value = [0, 0, 0, 0, 0, 0, 0, 0, 1, 0, 0, 0, 0, 0, 0<br/>0, 0, 0]<br/>class = Water>']], fillcolor="#39d7e5ff"] ;
194 -> 195 ;
196 [label=[[ '<gini = 0.0<br/>samples = 1<br/>value = [0, 0, 0, 0, 0, 0, 0, 0, 0, 0, 0, 0, 0, 0, 0<br/>0, 0, 1]<br/>class = Normal>']], fillcolor="#e54739ff"] ;
194 -> 196 ;
197 [label=[[ '<Sp. Attack &le; 44.5<br/>gini = 0.375<br/>samples = 4<br/>value = [0, 0, 0, 0, 0, 0, 0, 0, 0, 1, 0, 0, 0, 0, 0<br/>0, 0, 3]<br/>class = Normal>']], fillcolor="#e54739aa"] ;
173 -> 197 ;
198 [label=[[ '<gini = 0.0<br/>samples = 3<br/>value = [0, 0, 0, 0, 0, 0, 0, 0, 0, 0, 0, 0, 0, 0, 0<br/>0, 0, 3]<br/>class = Normal>']], fillcolor="#e54739ff"] ;
197 -> 198 ;
199 [label=[[ '<gini = 0.0<br/>samples = 1<br/>value = [0, 0, 0, 0, 0, 0, 0, 0, 0, 1, 0, 0, 0, 0, 0<br/>0, 0, 0]<br/>class = Bug>']], fillcolor="#399de5ff"] ;
197 -> 199 ;
200 [label=[[ '<gini = 0.0<br/>samples = 4<br/>value = [0, 0, 0, 0, 0, 0, 0, 0, 4, 0, 0, 0, 0, 0, 0<br/>0, 0, 0]<br/>class = Water>']], fillcolor="#39d7e5ff"] ;
172 -> 200 ;
201 [label=[[ '<Attack &le; 74.5<br/>gini = 0.893<br/>samples = 42<br/>value = [6, 2, 3, 1, 2, 6, 1, 0, 0, 0, 6, 1, 6, 2, 0<br/>2, 0, 4]<br/>class = Grass>']], fillcolor="#e5813900"] ;
171 -> 201 ;
202 [label=[[ '<Sp. Attack &le; 46.5<br/>gini = 0.375<br/>samples = 4<br/>value = [0, 0, 0, 0, 0, 0, 0, 0, 0, 0, 3, 0, 0, 1, 0<br/>0, 0, 0]<br/>class = Bug>']], fillcolor="#3964e5aa"] ;
201 -> 202 ;
203 [label=[[ '<gini = 0.0<br/>samples = 3<br/>value = [0, 0, 0, 0, 0, 0, 0, 0, 0, 0, 3, 0, 0, 0, 0<br/>0, 0, 0]<br/>class = Bug>']], fillcolor="#3964e5ff"] ;
202 -> 203 ;
204 [label=[[ '<gini = 0.0<br/>samples = 1<br/>value = [0, 0, 0, 0, 0, 0, 0, 0, 0, 0, 0, 0, 0, 1, 0<br/>0, 0, 0]<br/>class = Bug>']], fillcolor="#ba39e5ff"] ;
202 -> 204 ;
205 [label=[[ '<Sp. Defense &le; 82.5<br/>gini = 0.891<br/>samples = 38<br/>value = [6, 2, 3, 1, 2, 6, 1, 0, 0, 0, 3, 1, 6, 1, 0<br/>2, 0, 4]<br/>class = Grass>']], fillcolor="#e5813900"] ;
201 -> 205 ;
206 [label=[[ '<Attack &le; 84.0<br/>gini = 0.894<br/>samples = 36<br/>value = [6, 2, 3, 1, 2, 6, 1, 0, 0, 0, 3, 1, 4, 1, 0<br/>2, 0, 4]<br/>class = Grass>']], fillcolor="#e5813900"] ;
205 -> 206 ;
207 [label=[[ '<Defense &le; 63.5<br/>gini = 0.827<br/>samples = 15<br/>value = [1, 1, 1, 0, 1, 3, 0, 0, 0, 0, 0, 0, 4, 1, 0<br/>0, 0, 3]<br/>class = Bug>']], fillcolor="#8139e515"] ;
206 -> 207 ;
208 [label=[[ '<Sp. Attack &le; 36.0<br/>gini = 0.78<br/>samples = 10<br/>value = [1, 0, 1, 0, 1, 3, 0, 0, 0, 0, 0, 0, 3, 1, 0<br/>0, 0, 0]<br/>class = Fire>']], fillcolor="#39e54700"] ;
207 -> 208 ;
209 [label=[[ '<gini = 0.0<br/>samples = 2<br/>value = [0, 0, 0, 0, 0, 2, 0, 0, 0, 0, 0, 0, 0, 0, 0<br/>0, 0, 0]<br/>class = Fire>']], fillcolor="#39e547ff"] ;
208 -> 209 ;
210 [label=[[ '<Attack &le; 76.0<br/>gini = 0.781<br/>samples = 8<br/>value = [1, 0, 1, 0, 1, 1, 0, 0, 0, 0, 0, 0, 3, 1, 0<br/>0, 0, 0]<br/>class = Bug>']], fillcolor="#8139e549"] ;
208 -> 210 ;
211 [label=[[ '<Speed &le; 55.0<br/>gini = 0.5<br/>samples = 2<br/>value = [1, 0, 1, 0, 0, 0, 0, 0, 0, 0, 0, 0, 0, 0, 0<br/>0, 0, 0]<br/>class = Grass>']], fillcolor="#e5813900"] ;
210 -> 211 ;
212 [label=[[ '<gini = 0.0<br/>samples = 1<br/>value = [0, 0, 1, 0, 0, 0, 0, 0, 0, 0, 0, 0, 0, 0, 0<br/>0, 0, 0]<br/>class = Grass>']], fillcolor="#d7e539ff"] ;
211 -> 212 ;
213 [label=[[ '<gini = 0.0<br/>samples = 1<br/>value = [1, 0, 0, 0, 0, 0, 0, 0, 0, 0, 0, 0, 0, 0, 0<br/>0, 0, 0]<br/>class = Grass>']], fillcolor="#e58139ff"] ;
211 -> 213 ;
214 [label=[[ '<Speed &le; 35.0<br/>gini = 0.667<br/>samples = 6<br/>value = [0, 0, 0, 0, 1, 1, 0, 0, 0, 0, 0, 0, 3, 1, 0<br/>0, 0, 0]<br/>class = Bug>']], fillcolor="#8139e566"] ;
210 -> 214 ;
215 [label=[[ '<Speed &le; 27.5<br/>gini = 0.5<br/>samples = 2<br/>value = [0, 0, 0, 0, 1, 0, 0, 0, 0, 0, 0, 0, 0, 1, 0<br/>0, 0, 0]<br/>class = Fire>']], fillcolor="#64e53900"] ;
214 -> 215 ;
216 [label=[[ '<gini = 0.0<br/>samples = 1<br/>value = [0, 0, 0, 0, 0, 0, 0, 0, 0, 0, 0, 0, 0, 1, 0<br/>0, 0, 0]<br/>class = Bug>']], fillcolor="#ba39e5ff"] ;
215 -> 216 ;
217 [label=[[ '<gini = 0.0<br/>samples = 1<br/>value = [0, 0, 0, 0, 1, 0, 0, 0, 0, 0, 0, 0, 0, 0, 0<br/>0, 0, 0]<br/>class = Fire>']], fillcolor="#64e539ff"] ;
215 -> 217 ;
218 [label=[[ '<Sp. Defense &le; 49.0<br/>gini = 0.375<br/>samples = 4<br/>value = [0, 0, 0, 0, 0, 1, 0, 0, 0, 0, 0, 0, 3, 0, 0<br/>0, 0, 0]<br/>class = Bug>']], fillcolor="#8139e5aa"] ;
214 -> 218 ;
219 [label=[[ '<Speed &le; 54.0<br/>gini = 0.5<br/>samples = 2<br/>value = [0, 0, 0, 0, 0, 1, 0, 0, 0, 0, 0, 0, 1, 0, 0<br/>0, 0, 0]<br/>class = Fire>']], fillcolor="#39e54700"] ;
218 -> 219 ;
220 [label=[[ '<gini = 0.0<br/>samples = 1<br/>value = [0, 0, 0, 0, 0, 1, 0, 0, 0, 0, 0, 0, 0, 0, 0<br/>0, 0, 0]<br/>class = Fire>']], fillcolor="#39e547ff"] ;
219 -> 220 ;
221 [label=[[ '<gini = 0.0<br/>samples = 1<br/>value = [0, 0, 0, 0, 0, 0, 0, 0, 0, 0, 0, 0, 1, 0, 0<br/>0, 0, 0]<br/>class = Bug>']], fillcolor="#8139e5ff"] ;
219 -> 221 ;
222 [label=[[ '<gini = 0.0<br/>samples = 2<br/>value = [0, 0, 0, 0, 0, 0, 0, 0, 0, 0, 0, 0, 2, 0, 0<br/>0, 0, 0]<br/>class = Bug>']], fillcolor="#8139e5ff"] ;
218 -> 222 ;
223 [label=[[ '<Sp. Defense &le; 64.0<br/>gini = 0.56<br/>samples = 5<br/>value = [0, 1, 0, 0, 0, 0, 0, 0, 0, 0, 0, 0, 1, 0, 0<br/>0, 0, 3]<br/>class = Normal>']], fillcolor="#e547397f"] ;
207 -> 223 ;
224 [label=[[ '<gini = 0.0<br/>samples = 3<br/>value = [0, 0, 0, 0, 0, 0, 0, 0, 0, 0, 0, 0, 0, 0, 0<br/>0, 0, 3]<br/>class = Normal>']], fillcolor="#e54739ff"] ;
223 -> 224 ;
225 [label=[[ '<Defense &le; 67.5<br/>gini = 0.5<br/>samples = 2<br/>value = [0, 1, 0, 0, 0, 0, 0, 0, 0, 0, 0, 0, 1, 0, 0<br/>0, 0, 0]<br/>class = Grass>']], fillcolor="#e5ba3900"] ;
223 -> 225 ;
226 [label=[[ '<gini = 0.0<br/>samples = 1<br/>value = [0, 0, 0, 0, 0, 0, 0, 0, 0, 0, 0, 0, 1, 0, 0<br/>0, 0, 0]<br/>class = Bug>']], fillcolor="#8139e5ff"] ;
225 -> 226 ;
227 [label=[[ '<gini = 0.0<br/>samples = 1<br/>value = [0, 1, 0, 0, 0, 0, 0, 0, 0, 0, 0, 0, 0, 0, 0<br/>0, 0, 0]<br/>class = Grass>']], fillcolor="#e5ba39ff"] ;
225 -> 227 ;
228 [label=[[ '<Speed &le; 42.5<br/>gini = 0.871<br/>samples = 21<br/>value = [5, 1, 2, 1, 1, 3, 1, 0, 0, 0, 3, 1, 0, 0, 0<br/>2, 0, 1]<br/>class = Grass>']], fillcolor="#e581391c"] ;
206 -> 228 ;
229 [label=[[ '<Attack &le; 97.5<br/>gini = 0.375<br/>samples = 4<br/>value = [3, 0, 0, 0, 0, 0, 0, 0, 0, 0, 1, 0, 0, 0, 0<br/>0, 0, 0]<br/>class = Grass>']], fillcolor="#e58139aa"] ;
228 -> 229 ;
230 [label=[[ '<gini = 0.0<br/>samples = 3<br/>value = [3, 0, 0, 0, 0, 0, 0, 0, 0, 0, 0, 0, 0, 0, 0<br/>0, 0, 0]<br/>class = Grass>']], fillcolor="#e58139ff"] ;
229 -> 230 ;
231 [label=[[ '<gini = 0.0<br/>samples = 1<br/>value = [0, 0, 0, 0, 0, 0, 0, 0, 0, 0, 1, 0, 0, 0, 0<br/>0, 0, 0]<br/>class = Bug>']], fillcolor="#3964e5ff"] ;
229 -> 231 ;
232 [label=[[ '<Sp. Defense &le; 49.5<br/>gini = 0.893<br/>samples = 17<br/>value = [2, 1, 2, 1, 1, 3, 1, 0, 0, 0, 2, 1, 0, 0, 0<br/>2, 0, 1]<br/>class = Fire>']], fillcolor="#39e54711"] ;
228 -> 232 ;
233 [label=[[ '<Attack &le; 88.0<br/>gini = 0.816<br/>samples = 7<br/>value = [0, 1, 1, 1, 0, 0, 1, 0, 0, 0, 1, 0, 0, 0, 0<br/>2, 0, 0]<br/>class = Normal>']], fillcolor="#e5399d2a"] ;
232 -> 233 ;
234 [label=[[ '<Defense &le; 44.5<br/>gini = 0.75<br/>samples = 4<br/>value = [0, 1, 1, 1, 0, 0, 0, 0, 0, 0, 1, 0, 0, 0, 0<br/>0, 0, 0]<br/>class = Grass>']], fillcolor="#e5ba3900"] ;
233 -> 234 ;
235 [label=[[ '<gini = 0.0<br/>samples = 1<br/>value = [0, 0, 0, 0, 0, 0, 0, 0, 0, 0, 1, 0, 0, 0, 0<br/>0, 0, 0]<br/>class = Bug>']], fillcolor="#3964e5ff"] ;
234 -> 235 ;
236 [label=[[ '<Sp. Defense &le; 44.5<br/>gini = 0.667<br/>samples = 3<br/>value = [0, 1, 1, 1, 0, 0, 0, 0, 0, 0, 0, 0, 0, 0, 0<br/>0, 0, 0]<br/>class = Grass>']], fillcolor="#e5ba3900"] ;
234 -> 236 ;
237 [label=[[ '<Speed &le; 58.5<br/>gini = 0.5<br/>samples = 2<br/>value = [0, 1, 1, 0, 0, 0, 0, 0, 0, 0, 0, 0, 0, 0, 0<br/>0, 0, 0]<br/>class = Grass>']], fillcolor="#e5ba3900"] ;
236 -> 237 ;
238 [label=[[ '<gini = 0.0<br/>samples = 1<br/>value = [0, 0, 1, 0, 0, 0, 0, 0, 0, 0, 0, 0, 0, 0, 0<br/>0, 0, 0]<br/>class = Grass>']], fillcolor="#d7e539ff"] ;
237 -> 238 ;
239 [label=[[ '<gini = 0.0<br/>samples = 1<br/>value = [0, 1, 0, 0, 0, 0, 0, 0, 0, 0, 0, 0, 0, 0, 0<br/>0, 0, 0]<br/>class = Grass>']], fillcolor="#e5ba39ff"] ;
237 -> 239 ;
240 [label=[[ '<gini = 0.0<br/>samples = 1<br/>value = [0, 0, 0, 1, 0, 0, 0, 0, 0, 0, 0, 0, 0, 0, 0<br/>0, 0, 0]<br/>class = Fire>']], fillcolor="#9de539ff"] ;
236 -> 240 ;
241 [label=[[ '<HP &le; 68.5<br/>gini = 0.444<br/>samples = 3<br/>value = [0, 0, 0, 0, 0, 0, 1, 0, 0, 0, 0, 0, 0, 0, 0<br/>2, 0, 0]<br/>class = Normal>']], fillcolor="#e5399d7f"] ;
233 -> 241 ;
242 [label=[[ '<gini = 0.0<br/>samples = 2<br/>value = [0, 0, 0, 0, 0, 0, 0, 0, 0, 0, 0, 0, 0, 0, 0<br/>2, 0, 0]<br/>class = Normal>']], fillcolor="#e5399dff"] ;
241 -> 242 ;
243 [label=[[ '<gini = 0.0<br/>samples = 1<br/>value = [0, 0, 0, 0, 0, 0, 1, 0, 0, 0, 0, 0, 0, 0, 0<br/>0, 0, 0]<br/>class = Water>']], fillcolor="#39e581ff"] ;
241 -> 243 ;
244 [label=[[ '<Sp. Attack &le; 57.5<br/>gini = 0.82<br/>samples = 10<br/>value = [2, 0, 1, 0, 1, 3, 0, 0, 0, 0, 1, 1, 0, 0, 0<br/>0, 0, 1]<br/>class = Fire>']], fillcolor="#39e54720"] ;
232 -> 244 ;
245 [label=[[ '<Speed &le; 52.5<br/>gini = 0.694<br/>samples = 7<br/>value = [2, 0, 1, 0, 0, 3, 0, 0, 0, 0, 1, 0, 0, 0, 0<br/>0, 0, 0]<br/>class = Fire>']], fillcolor="#39e54733"] ;
244 -> 245 ;
246 [label=[[ '<gini = 0.0<br/>samples = 2<br/>value = [0, 0, 0, 0, 0, 2, 0, 0, 0, 0, 0, 0, 0, 0, 0<br/>0, 0, 0]<br/>class = Fire>']], fillcolor="#39e547ff"] ;
245 -> 246 ;
247 [label=[[ '<Sp. Defense &le; 50.5<br/>gini = 0.72<br/>samples = 5<br/>value = [2, 0, 1, 0, 0, 1, 0, 0, 0, 0, 1, 0, 0, 0, 0<br/>0, 0, 0]<br/>class = Grass>']], fillcolor="#e5813940"] ;
245 -> 247 ;
248 [label=[[ '<Speed &le; 66.0<br/>gini = 0.5<br/>samples = 2<br/>value = [0, 0, 1, 0, 0, 1, 0, 0, 0, 0, 0, 0, 0, 0, 0<br/>0, 0, 0]<br/>class = Grass>']], fillcolor="#d7e53900"] ;
247 -> 248 ;
249 [label=[[ '<gini = 0.0<br/>samples = 1<br/>value = [0, 0, 0, 0, 0, 1, 0, 0, 0, 0, 0, 0, 0, 0, 0<br/>0, 0, 0]<br/>class = Fire>']], fillcolor="#39e547ff"] ;
248 -> 249 ;
250 [label=[[ '<gini = 0.0<br/>samples = 1<br/>value = [0, 0, 1, 0, 0, 0, 0, 0, 0, 0, 0, 0, 0, 0, 0<br/>0, 0, 0]<br/>class = Grass>']], fillcolor="#d7e539ff"] ;
248 -> 250 ;
251 [label=[[ '<Speed &le; 57.5<br/>gini = 0.444<br/>samples = 3<br/>value = [2, 0, 0, 0, 0, 0, 0, 0, 0, 0, 1, 0, 0, 0, 0<br/>0, 0, 0]<br/>class = Grass>']], fillcolor="#e581397f"] ;
247 -> 251 ;
252 [label=[[ '<gini = 0.0<br/>samples = 1<br/>value = [0, 0, 0, 0, 0, 0, 0, 0, 0, 0, 1, 0, 0, 0, 0<br/>0, 0, 0]<br/>class = Bug>']], fillcolor="#3964e5ff"] ;
251 -> 252 ;
253 [label=[[ '<gini = 0.0<br/>samples = 2<br/>value = [2, 0, 0, 0, 0, 0, 0, 0, 0, 0, 0, 0, 0, 0, 0<br/>0, 0, 0]<br/>class = Grass>']], fillcolor="#e58139ff"] ;
251 -> 253 ;
254 [label=[[ '<HP &le; 80.0<br/>gini = 0.667<br/>samples = 3<br/>value = [0, 0, 0, 0, 1, 0, 0, 0, 0, 0, 0, 1, 0, 0, 0<br/>0, 0, 1]<br/>class = Fire>']], fillcolor="#64e53900"] ;
244 -> 254 ;
255 [label=[[ '<gini = 0.0<br/>samples = 1<br/>value = [0, 0, 0, 0, 0, 0, 0, 0, 0, 0, 0, 0, 0, 0, 0<br/>0, 0, 1]<br/>class = Normal>']], fillcolor="#e54739ff"] ;
254 -> 255 ;
256 [label=[[ '<Defense &le; 77.5<br/>gini = 0.5<br/>samples = 2<br/>value = [0, 0, 0, 0, 1, 0, 0, 0, 0, 0, 0, 1, 0, 0, 0<br/>0, 0, 0]<br/>class = Fire>']], fillcolor="#64e53900"] ;
254 -> 256 ;
257 [label=[[ '<gini = 0.0<br/>samples = 1<br/>value = [0, 0, 0, 0, 1, 0, 0, 0, 0, 0, 0, 0, 0, 0, 0<br/>0, 0, 0]<br/>class = Fire>']], fillcolor="#64e539ff"] ;
256 -> 257 ;
258 [label=[[ '<gini = 0.0<br/>samples = 1<br/>value = [0, 0, 0, 0, 0, 0, 0, 0, 0, 0, 0, 1, 0, 0, 0<br/>0, 0, 0]<br/>class = Bug>']], fillcolor="#4739e5ff"] ;
256 -> 258 ;
259 [label=[[ '<gini = 0.0<br/>samples = 2<br/>value = [0, 0, 0, 0, 0, 0, 0, 0, 0, 0, 0, 0, 2, 0, 0<br/>0, 0, 0]<br/>class = Bug>']], fillcolor="#8139e5ff"] ;
205 -> 259 ;
260 [label=[[ '<Sp. Defense &le; 72.5<br/>gini = 0.768<br/>samples = 63<br/>value = [5, 3, 1, 2, 0, 6, 2, 0, 0, 3, 5, 0, 28, 2<br/>0, 2, 0, 4]<br/>class = Bug>']], fillcolor="#8139e562"] ;
132 -> 260 ;
261 [label=[[ '<Attack &le; 125.0<br/>gini = 0.676<br/>samples = 44<br/>value = [1, 1, 1, 2, 0, 2, 2, 0, 0, 1, 5, 0, 24, 1<br/>0, 1, 0, 3]<br/>class = Bug>']], fillcolor="#8139e57c"] ;
260 -> 261 ;
262 [label=[[ '<HP &le; 71.5<br/>gini = 0.634<br/>samples = 41<br/>value = [1, 1, 1, 2, 0, 2, 1, 0, 0, 0, 4, 0, 24, 1<br/>0, 1, 0, 3]<br/>class = Bug>']], fillcolor="#8139e58a"] ;
261 -> 262 ;
263 [label=[[ '<HP &le; 60.5<br/>gini = 0.729<br/>samples = 33<br/>value = [1, 1, 1, 2, 0, 2, 1, 0, 0, 0, 4, 0, 16, 1<br/>0, 1, 0, 3]<br/>class = Bug>']], fillcolor="#8139e56a"] ;
262 -> 263 ;
264 [label=[[ '<Defense &le; 52.5<br/>gini = 0.603<br/>samples = 22<br/>value = [0, 0, 0, 2, 0, 1, 0, 0, 0, 0, 4, 0, 13, 0<br/>0, 1, 0, 1]<br/>class = Bug>']], fillcolor="#8139e580"] ;
263 -> 264 ;
265 [label=[[ '<Sp. Attack &le; 44.5<br/>gini = 0.699<br/>samples = 17<br/>value = [0, 0, 0, 2, 0, 1, 0, 0, 0, 0, 4, 0, 8, 0, 0<br/>1, 0, 1]<br/>class = Bug>']], fillcolor="#8139e54e"] ;
264 -> 265 ;
266 [label=[[ '<Speed &le; 90.0<br/>gini = 0.446<br/>samples = 11<br/>value = [0, 0, 0, 0, 0, 1, 0, 0, 0, 0, 1, 0, 8, 0, 0<br/>1, 0, 0]<br/>class = Bug>']], fillcolor="#8139e5b3"] ;
265 -> 266 ;
267 [label=[[ '<Attack &le; 90.0<br/>gini = 0.34<br/>samples = 10<br/>value = [0, 0, 0, 0, 0, 1, 0, 0, 0, 0, 0, 0, 8, 0, 0<br/>1, 0, 0]<br/>class = Bug>']], fillcolor="#8139e5c6"] ;
266 -> 267 ;
268 [label=[[ '<Attack &le; 77.5<br/>gini = 0.198<br/>samples = 9<br/>value = [0, 0, 0, 0, 0, 1, 0, 0, 0, 0, 0, 0, 8, 0, 0<br/>0, 0, 0]<br/>class = Bug>']], fillcolor="#8139e5df"] ;
267 -> 268 ;
269 [label=[[ '<gini = 0.0<br/>samples = 7<br/>value = [0, 0, 0, 0, 0, 0, 0, 0, 0, 0, 0, 0, 7, 0, 0<br/>0, 0, 0]<br/>class = Bug>']], fillcolor="#8139e5ff"] ;
268 -> 269 ;
270 [label=[[ '<HP &le; 37.5<br/>gini = 0.5<br/>samples = 2<br/>value = [0, 0, 0, 0, 0, 1, 0, 0, 0, 0, 0, 0, 1, 0, 0<br/>0, 0, 0]<br/>class = Fire>']], fillcolor="#39e54700"] ;
268 -> 270 ;
271 [label=[[ '<gini = 0.0<br/>samples = 1<br/>value = [0, 0, 0, 0, 0, 0, 0, 0, 0, 0, 0, 0, 1, 0, 0<br/>0, 0, 0]<br/>class = Bug>']], fillcolor="#8139e5ff"] ;
270 -> 271 ;
272 [label=[[ '<gini = 0.0<br/>samples = 1<br/>value = [0, 0, 0, 0, 0, 1, 0, 0, 0, 0, 0, 0, 0, 0, 0<br/>0, 0, 0]<br/>class = Fire>']], fillcolor="#39e547ff"] ;
270 -> 272 ;
273 [label=[[ '<gini = 0.0<br/>samples = 1<br/>value = [0, 0, 0, 0, 0, 0, 0, 0, 0, 0, 0, 0, 0, 0, 0<br/>1, 0, 0]<br/>class = Normal>']], fillcolor="#e5399dff"] ;
267 -> 273 ;
274 [label=[[ '<gini = 0.0<br/>samples = 1<br/>value = [0, 0, 0, 0, 0, 0, 0, 0, 0, 0, 1, 0, 0, 0, 0<br/>0, 0, 0]<br/>class = Bug>']], fillcolor="#3964e5ff"] ;
266 -> 274 ;
275 [label=[[ '<Defense &le; 42.5<br/>gini = 0.611<br/>samples = 6<br/>value = [0, 0, 0, 2, 0, 0, 0, 0, 0, 0, 3, 0, 0, 0, 0<br/>0, 0, 1]<br/>class = Bug>']], fillcolor="#3964e540"] ;
265 -> 275 ;
276 [label=[[ '<Sp. Defense &le; 31.0<br/>gini = 0.444<br/>samples = 3<br/>value = [0, 0, 0, 2, 0, 0, 0, 0, 0, 0, 0, 0, 0, 0, 0<br/>0, 0, 1]<br/>class = Fire>']], fillcolor="#9de5397f"] ;
275 -> 276 ;
277 [label=[[ '<gini = 0.0<br/>samples = 1<br/>value = [0, 0, 0, 0, 0, 0, 0, 0, 0, 0, 0, 0, 0, 0, 0<br/>0, 0, 1]<br/>class = Normal>']], fillcolor="#e54739ff"] ;
276 -> 277 ;
278 [label=[[ '<gini = 0.0<br/>samples = 2<br/>value = [0, 0, 0, 2, 0, 0, 0, 0, 0, 0, 0, 0, 0, 0, 0<br/>0, 0, 0]<br/>class = Fire>']], fillcolor="#9de539ff"] ;
276 -> 278 ;
279 [label=[[ '<gini = 0.0<br/>samples = 3<br/>value = [0, 0, 0, 0, 0, 0, 0, 0, 0, 0, 3, 0, 0, 0, 0<br/>0, 0, 0]<br/>class = Bug>']], fillcolor="#3964e5ff"] ;
275 -> 279 ;
280 [label=[[ '<gini = 0.0<br/>samples = 5<br/>value = [0, 0, 0, 0, 0, 0, 0, 0, 0, 0, 0, 0, 5, 0, 0<br/>0, 0, 0]<br/>class = Bug>']], fillcolor="#8139e5ff"] ;
264 -> 280 ;
281 [label=[[ '<Speed &le; 72.5<br/>gini = 0.843<br/>samples = 11<br/>value = [1, 1, 1, 0, 0, 1, 1, 0, 0, 0, 0, 0, 3, 1, 0<br/>0, 0, 2]<br/>class = Bug>']], fillcolor="#8139e51c"] ;
263 -> 281 ;
282 [label=[[ '<Sp. Defense &le; 57.5<br/>gini = 0.444<br/>samples = 3<br/>value = [0, 1, 0, 0, 0, 0, 0, 0, 0, 0, 0, 0, 2, 0, 0<br/>0, 0, 0]<br/>class = Bug>']], fillcolor="#8139e57f"] ;
281 -> 282 ;
283 [label=[[ '<gini = 0.0<br/>samples = 2<br/>value = [0, 0, 0, 0, 0, 0, 0, 0, 0, 0, 0, 0, 2, 0, 0<br/>0, 0, 0]<br/>class = Bug>']], fillcolor="#8139e5ff"] ;
282 -> 283 ;
284 [label=[[ '<gini = 0.0<br/>samples = 1<br/>value = [0, 1, 0, 0, 0, 0, 0, 0, 0, 0, 0, 0, 0, 0, 0<br/>0, 0, 0]<br/>class = Grass>']], fillcolor="#e5ba39ff"] ;
282 -> 284 ;
285 [label=[[ '<Defense &le; 62.5<br/>gini = 0.844<br/>samples = 8<br/>value = [1, 0, 1, 0, 0, 1, 1, 0, 0, 0, 0, 0, 1, 1, 0<br/>0, 0, 2]<br/>class = Normal>']], fillcolor="#e5473924"] ;
281 -> 285 ;
286 [label=[[ '<Sp. Attack &le; 45.5<br/>gini = 0.75<br/>samples = 4<br/>value = [1, 0, 0, 0, 0, 1, 1, 0, 0, 0, 0, 0, 0, 1, 0<br/>0, 0, 0]<br/>class = Grass>']], fillcolor="#e5813900"] ;
285 -> 286 ;
287 [label=[[ '<gini = 0.0<br/>samples = 1<br/>value = [0, 0, 0, 0, 0, 0, 0, 0, 0, 0, 0, 0, 0, 1, 0<br/>0, 0, 0]<br/>class = Bug>']], fillcolor="#ba39e5ff"] ;
286 -> 287 ;
288 [label=[[ '<Speed &le; 89.5<br/>gini = 0.667<br/>samples = 3<br/>value = [1, 0, 0, 0, 0, 1, 1, 0, 0, 0, 0, 0, 0, 0, 0<br/>0, 0, 0]<br/>class = Grass>']], fillcolor="#e5813900"] ;
286 -> 288 ;
289 [label=[[ '<gini = 0.0<br/>samples = 1<br/>value = [0, 0, 0, 0, 0, 0, 1, 0, 0, 0, 0, 0, 0, 0, 0<br/>0, 0, 0]<br/>class = Water>']], fillcolor="#39e581ff"] ;
288 -> 289 ;
290 [label=[[ '<Sp. Defense &le; 60.0<br/>gini = 0.5<br/>samples = 2<br/>value = [1, 0, 0, 0, 0, 1, 0, 0, 0, 0, 0, 0, 0, 0, 0<br/>0, 0, 0]<br/>class = Grass>']], fillcolor="#e5813900"] ;
288 -> 290 ;
291 [label=[[ '<gini = 0.0<br/>samples = 1<br/>value = [1, 0, 0, 0, 0, 0, 0, 0, 0, 0, 0, 0, 0, 0, 0<br/>0, 0, 0]<br/>class = Grass>']], fillcolor="#e58139ff"] ;
290 -> 291 ;
292 [label=[[ '<gini = 0.0<br/>samples = 1<br/>value = [0, 0, 0, 0, 0, 1, 0, 0, 0, 0, 0, 0, 0, 0, 0<br/>0, 0, 0]<br/>class = Fire>']], fillcolor="#39e547ff"] ;
290 -> 292 ;
293 [label=[[ '<Speed &le; 83.5<br/>gini = 0.625<br/>samples = 4<br/>value = [0, 0, 1, 0, 0, 0, 0, 0, 0, 0, 0, 0, 1, 0, 0<br/>0, 0, 2]<br/>class = Normal>']], fillcolor="#e5473955"] ;
285 -> 293 ;
294 [label=[[ '<gini = 0.0<br/>samples = 1<br/>value = [0, 0, 1, 0, 0, 0, 0, 0, 0, 0, 0, 0, 0, 0, 0<br/>0, 0, 0]<br/>class = Grass>']], fillcolor="#d7e539ff"] ;
293 -> 294 ;
295 [label=[[ '<Speed &le; 95.0<br/>gini = 0.444<br/>samples = 3<br/>value = [0, 0, 0, 0, 0, 0, 0, 0, 0, 0, 0, 0, 1, 0, 0<br/>0, 0, 2]<br/>class = Normal>']], fillcolor="#e547397f"] ;
293 -> 295 ;
296 [label=[[ '<gini = 0.0<br/>samples = 2<br/>value = [0, 0, 0, 0, 0, 0, 0, 0, 0, 0, 0, 0, 0, 0, 0<br/>0, 0, 2]<br/>class = Normal>']], fillcolor="#e54739ff"] ;
295 -> 296 ;
297 [label=[[ '<gini = 0.0<br/>samples = 1<br/>value = [0, 0, 0, 0, 0, 0, 0, 0, 0, 0, 0, 0, 1, 0, 0<br/>0, 0, 0]<br/>class = Bug>']], fillcolor="#8139e5ff"] ;
295 -> 297 ;
298 [label=[[ '<gini = 0.0<br/>samples = 8<br/>value = [0, 0, 0, 0, 0, 0, 0, 0, 0, 0, 0, 0, 8, 0, 0<br/>0, 0, 0]<br/>class = Bug>']], fillcolor="#8139e5ff"] ;
262 -> 298 ;
299 [label=[[ '<HP &le; 82.5<br/>gini = 0.667<br/>samples = 3<br/>value = [0, 0, 0, 0, 0, 0, 1, 0, 0, 1, 1, 0, 0, 0, 0<br/>0, 0, 0]<br/>class = Water>']], fillcolor="#39e58100"] ;
261 -> 299 ;
300 [label=[[ '<gini = 0.0<br/>samples = 1<br/>value = [0, 0, 0, 0, 0, 0, 0, 0, 0, 1, 0, 0, 0, 0, 0<br/>0, 0, 0]<br/>class = Bug>']], fillcolor="#399de5ff"] ;
299 -> 300 ;
301 [label=[[ '<HP &le; 107.5<br/>gini = 0.5<br/>samples = 2<br/>value = [0, 0, 0, 0, 0, 0, 1, 0, 0, 0, 1, 0, 0, 0, 0<br/>0, 0, 0]<br/>class = Water>']], fillcolor="#39e58100"] ;
299 -> 301 ;
302 [label=[[ '<gini = 0.0<br/>samples = 1<br/>value = [0, 0, 0, 0, 0, 0, 1, 0, 0, 0, 0, 0, 0, 0, 0<br/>0, 0, 0]<br/>class = Water>']], fillcolor="#39e581ff"] ;
301 -> 302 ;
303 [label=[[ '<gini = 0.0<br/>samples = 1<br/>value = [0, 0, 0, 0, 0, 0, 0, 0, 0, 0, 1, 0, 0, 0, 0<br/>0, 0, 0]<br/>class = Bug>']], fillcolor="#3964e5ff"] ;
301 -> 303 ;
304 [label=[[ '<HP &le; 82.5<br/>gini = 0.837<br/>samples = 19<br/>value = [4, 2, 0, 0, 0, 4, 0, 0, 0, 2, 0, 0, 4, 1, 0<br/>1, 0, 1]<br/>class = Grass>']], fillcolor="#e5813900"] ;
260 -> 304 ;
305 [label=[[ '<Speed &le; 112.5<br/>gini = 0.809<br/>samples = 15<br/>value = [4, 2, 0, 0, 0, 4, 0, 0, 0, 2, 0, 0, 1, 1, 0<br/>1, 0, 0]<br/>class = Grass>']], fillcolor="#e5813900"] ;
304 -> 305 ;
306 [label=[[ '<Sp. Attack &le; 37.5<br/>gini = 0.736<br/>samples = 12<br/>value = [4, 0, 0, 0, 0, 4, 0, 0, 0, 2, 0, 0, 1, 1, 0<br/>0, 0, 0]<br/>class = Grass>']], fillcolor="#e5813900"] ;
305 -> 306 ;
307 [label=[[ '<gini = 0.0<br/>samples = 3<br/>value = [0, 0, 0, 0, 0, 3, 0, 0, 0, 0, 0, 0, 0, 0, 0<br/>0, 0, 0]<br/>class = Fire>']], fillcolor="#39e547ff"] ;
306 -> 307 ;
308 [label=[[ '<Attack &le; 66.5<br/>gini = 0.716<br/>samples = 9<br/>value = [4, 0, 0, 0, 0, 1, 0, 0, 0, 2, 0, 0, 1, 1, 0<br/>0, 0, 0]<br/>class = Grass>']], fillcolor="#e5813949"] ;
306 -> 308 ;
309 [label=[[ '<Speed &le; 81.5<br/>gini = 0.444<br/>samples = 3<br/>value = [0, 0, 0, 0, 0, 1, 0, 0, 0, 2, 0, 0, 0, 0, 0<br/>0, 0, 0]<br/>class = Bug>']], fillcolor="#399de57f"] ;
308 -> 309 ;
310 [label=[[ '<gini = 0.0<br/>samples = 1<br/>value = [0, 0, 0, 0, 0, 1, 0, 0, 0, 0, 0, 0, 0, 0, 0<br/>0, 0, 0]<br/>class = Fire>']], fillcolor="#39e547ff"] ;
309 -> 310 ;
311 [label=[[ '<gini = 0.0<br/>samples = 2<br/>value = [0, 0, 0, 0, 0, 0, 0, 0, 0, 2, 0, 0, 0, 0, 0<br/>0, 0, 0]<br/>class = Bug>']], fillcolor="#399de5ff"] ;
309 -> 311 ;
312 [label=[[ '<Defense &le; 81.0<br/>gini = 0.5<br/>samples = 6<br/>value = [4, 0, 0, 0, 0, 0, 0, 0, 0, 0, 0, 0, 1, 1, 0<br/>0, 0, 0]<br/>class = Grass>']], fillcolor="#e5813999"] ;
308 -> 312 ;
313 [label=[[ '<gini = 0.0<br/>samples = 4<br/>value = [4, 0, 0, 0, 0, 0, 0, 0, 0, 0, 0, 0, 0, 0, 0<br/>0, 0, 0]<br/>class = Grass>']], fillcolor="#e58139ff"] ;
312 -> 313 ;
314 [label=[[ '<Speed &le; 90.0<br/>gini = 0.5<br/>samples = 2<br/>value = [0, 0, 0, 0, 0, 0, 0, 0, 0, 0, 0, 0, 1, 1, 0<br/>0, 0, 0]<br/>class = Bug>']], fillcolor="#8139e500"] ;
312 -> 314 ;
315 [label=[[ '<gini = 0.0<br/>samples = 1<br/>value = [0, 0, 0, 0, 0, 0, 0, 0, 0, 0, 0, 0, 0, 1, 0<br/>0, 0, 0]<br/>class = Bug>']], fillcolor="#ba39e5ff"] ;
314 -> 315 ;
316 [label=[[ '<gini = 0.0<br/>samples = 1<br/>value = [0, 0, 0, 0, 0, 0, 0, 0, 0, 0, 0, 0, 1, 0, 0<br/>0, 0, 0]<br/>class = Bug>']], fillcolor="#8139e5ff"] ;
314 -> 316 ;
317 [label=[[ '<HP &le; 75.0<br/>gini = 0.444<br/>samples = 3<br/>value = [0, 2, 0, 0, 0, 0, 0, 0, 0, 0, 0, 0, 0, 0, 0<br/>1, 0, 0]<br/>class = Grass>']], fillcolor="#e5ba397f"] ;
305 -> 317 ;
318 [label=[[ '<gini = 0.0<br/>samples = 2<br/>value = [0, 2, 0, 0, 0, 0, 0, 0, 0, 0, 0, 0, 0, 0, 0<br/>0, 0, 0]<br/>class = Grass>']], fillcolor="#e5ba39ff"] ;
317 -> 318 ;
319 [label=[[ '<gini = 0.0<br/>samples = 1<br/>value = [0, 0, 0, 0, 0, 0, 0, 0, 0, 0, 0, 0, 0, 0, 0<br/>1, 0, 0]<br/>class = Normal>']], fillcolor="#e5399dff"] ;
317 -> 319 ;
320 [label=[[ '<Sp. Defense &le; 90.0<br/>gini = 0.375<br/>samples = 4<br/>value = [0, 0, 0, 0, 0, 0, 0, 0, 0, 0, 0, 0, 3, 0, 0<br/>0, 0, 1]<br/>class = Bug>']], fillcolor="#8139e5aa"] ;
304 -> 320 ;
321 [label=[[ '<gini = 0.0<br/>samples = 3<br/>value = [0, 0, 0, 0, 0, 0, 0, 0, 0, 0, 0, 0, 3, 0, 0<br/>0, 0, 0]<br/>class = Bug>']], fillcolor="#8139e5ff"] ;
320 -> 321 ;
322 [label=[[ '<gini = 0.0<br/>samples = 1<br/>value = [0, 0, 0, 0, 0, 0, 0, 0, 0, 0, 0, 0, 0, 0, 0<br/>0, 0, 1]<br/>class = Normal>']], fillcolor="#e54739ff"] ;
320 -> 322 ;
323 [label=[[ '<Defense &le; 133.0<br/>gini = 0.891<br/>samples = 90<br/>value = [14, 4, 3, 0, 0, 4, 0, 0, 7, 5, 10, 2, 5, 3<br/>0, 17, 11, 5]<br/>class = Normal>']], fillcolor="#e5399d0a"] ;
1 -> 323 ;
324 [label=[[ '<HP &le; 74.5<br/>gini = 0.898<br/>samples = 76<br/>value = [12, 4, 3, 0, 0, 4, 0, 0, 7, 5, 10, 1, 5, 3<br/>0, 12, 5, 5]<br/>class = Grass>']], fillcolor="#e5813900"] ;
323 -> 324 ;
325 [label=[[ '<Defense &le; 120.0<br/>gini = 0.868<br/>samples = 52<br/>value = [12, 2, 1, 0, 0, 1, 0, 0, 5, 4, 4, 1, 0, 3<br/>0, 10, 5, 4]<br/>class = Grass>']], fillcolor="#e581390c"] ;
324 -> 325 ;
326 [label=[[ '<Defense &le; 113.5<br/>gini = 0.853<br/>samples = 47<br/>value = [12, 2, 1, 0, 0, 1, 0, 0, 2, 2, 4, 1, 0, 3<br/>0, 10, 5, 4]<br/>class = Grass>']], fillcolor="#e581390e"] ;
325 -> 326 ;
327 [label=[[ '<Attack &le; 107.0<br/>gini = 0.851<br/>samples = 41<br/>value = [12, 1, 1, 0, 0, 1, 0, 0, 2, 2, 4, 1, 0, 3<br/>0, 6, 5, 3]<br/>class = Grass>']], fillcolor="#e581392c"] ;
326 -> 327 ;
328 [label=[[ '<Speed &le; 21.0<br/>gini = 0.869<br/>samples = 36<br/>value = [8, 0, 1, 0, 0, 1, 0, 0, 2, 2, 4, 1, 0, 3, 0<br/>6, 5, 3]<br/>class = Grass>']], fillcolor="#e5813911"] ;
327 -> 328 ;
329 [label=[[ '<Attack &le; 70.0<br/>gini = 0.5<br/>samples = 6<br/>value = [1, 0, 0, 0, 0, 0, 0, 0, 0, 1, 0, 0, 0, 0, 0<br/>4, 0, 0]<br/>class = Normal>']], fillcolor="#e5399d99"] ;
328 -> 329 ;
330 [label=[[ '<Sp. Attack &le; 29.5<br/>gini = 0.5<br/>samples = 2<br/>value = [1, 0, 0, 0, 0, 0, 0, 0, 0, 1, 0, 0, 0, 0, 0<br/>0, 0, 0]<br/>class = Grass>']], fillcolor="#e5813900"] ;
329 -> 330 ;
331 [label=[[ '<gini = 0.0<br/>samples = 1<br/>value = [0, 0, 0, 0, 0, 0, 0, 0, 0, 1, 0, 0, 0, 0, 0<br/>0, 0, 0]<br/>class = Bug>']], fillcolor="#399de5ff"] ;
330 -> 331 ;
332 [label=[[ '<gini = 0.0<br/>samples = 1<br/>value = [1, 0, 0, 0, 0, 0, 0, 0, 0, 0, 0, 0, 0, 0, 0<br/>0, 0, 0]<br/>class = Grass>']], fillcolor="#e58139ff"] ;
330 -> 332 ;
333 [label=[[ '<gini = 0.0<br/>samples = 4<br/>value = [0, 0, 0, 0, 0, 0, 0, 0, 0, 0, 0, 0, 0, 0, 0<br/>4, 0, 0]<br/>class = Normal>']], fillcolor="#e5399dff"] ;
329 -> 333 ;
334 [label=[[ '<Sp. Defense &le; 27.5<br/>gini = 0.867<br/>samples = 30<br/>value = [7, 0, 1, 0, 0, 1, 0, 0, 2, 1, 4, 1, 0, 3, 0<br/>2, 5, 3]<br/>class = Grass>']], fillcolor="#e5813914"] ;
328 -> 334 ;
335 [label=[[ '<gini = 0.0<br/>samples = 2<br/>value = [0, 0, 0, 0, 0, 0, 0, 0, 0, 0, 0, 0, 0, 0, 0<br/>0, 0, 2]<br/>class = Normal>']], fillcolor="#e54739ff"] ;
334 -> 335 ;
336 [label=[[ '<Sp. Attack &le; 59.5<br/>gini = 0.857<br/>samples = 28<br/>value = [7, 0, 1, 0, 0, 1, 0, 0, 2, 1, 4, 1, 0, 3, 0<br/>2, 5, 1]<br/>class = Grass>']], fillcolor="#e5813916"] ;
334 -> 336 ;
337 [label=[[ '<Speed &le; 32.5<br/>gini = 0.835<br/>samples = 25<br/>value = [7, 0, 0, 0, 0, 1, 0, 0, 2, 1, 4, 1, 0, 1, 0<br/>2, 5, 1]<br/>class = Grass>']], fillcolor="#e581391a"] ;
336 -> 337 ;
338 [label=[[ '<HP &le; 41.5<br/>gini = 0.75<br/>samples = 8<br/>value = [1, 0, 0, 0, 0, 0, 0, 0, 2, 0, 0, 1, 0, 0, 0<br/>0, 3, 1]<br/>class = Normal>']], fillcolor="#e539642a"] ;
337 -> 338 ;
339 [label=[[ '<gini = 0.0<br/>samples = 2<br/>value = [0, 0, 0, 0, 0, 0, 0, 0, 2, 0, 0, 0, 0, 0, 0<br/>0, 0, 0]<br/>class = Water>']], fillcolor="#39d7e5ff"] ;
338 -> 339 ;
340 [label=[[ '<Defense &le; 85.5<br/>gini = 0.667<br/>samples = 6<br/>value = [1, 0, 0, 0, 0, 0, 0, 0, 0, 0, 0, 1, 0, 0, 0<br/>0, 3, 1]<br/>class = Normal>']], fillcolor="#e5396466"] ;
338 -> 340 ;
341 [label=[[ '<Sp. Attack &le; 36.0<br/>gini = 0.5<br/>samples = 2<br/>value = [1, 0, 0, 0, 0, 0, 0, 0, 0, 0, 0, 1, 0, 0, 0<br/>0, 0, 0]<br/>class = Grass>']], fillcolor="#e5813900"] ;
340 -> 341 ;
342 [label=[[ '<gini = 0.0<br/>samples = 1<br/>value = [0, 0, 0, 0, 0, 0, 0, 0, 0, 0, 0, 1, 0, 0, 0<br/>0, 0, 0]<br/>class = Bug>']], fillcolor="#4739e5ff"] ;
341 -> 342 ;
343 [label=[[ '<gini = 0.0<br/>samples = 1<br/>value = [1, 0, 0, 0, 0, 0, 0, 0, 0, 0, 0, 0, 0, 0, 0<br/>0, 0, 0]<br/>class = Grass>']], fillcolor="#e58139ff"] ;
341 -> 343 ;
344 [label=[[ '<Defense &le; 101.5<br/>gini = 0.375<br/>samples = 4<br/>value = [0, 0, 0, 0, 0, 0, 0, 0, 0, 0, 0, 0, 0, 0, 0<br/>0, 3, 1]<br/>class = Normal>']], fillcolor="#e53964aa"] ;
340 -> 344 ;
345 [label=[[ '<gini = 0.0<br/>samples = 3<br/>value = [0, 0, 0, 0, 0, 0, 0, 0, 0, 0, 0, 0, 0, 0, 0<br/>0, 3, 0]<br/>class = Normal>']], fillcolor="#e53964ff"] ;
344 -> 345 ;
346 [label=[[ '<gini = 0.0<br/>samples = 1<br/>value = [0, 0, 0, 0, 0, 0, 0, 0, 0, 0, 0, 0, 0, 0, 0<br/>0, 0, 1]<br/>class = Normal>']], fillcolor="#e54739ff"] ;
344 -> 346 ;
347 [label=[[ '<Sp. Attack &le; 52.5<br/>gini = 0.782<br/>samples = 17<br/>value = [6, 0, 0, 0, 0, 1, 0, 0, 0, 1, 4, 0, 0, 1, 0<br/>2, 2, 0]<br/>class = Grass>']], fillcolor="#e5813927"] ;
337 -> 347 ;
348 [label=[[ '<Attack &le; 70.0<br/>gini = 0.66<br/>samples = 10<br/>value = [4, 0, 0, 0, 0, 1, 0, 0, 0, 0, 4, 0, 0, 1, 0<br/>0, 0, 0]<br/>class = Grass>']], fillcolor="#e5813900"] ;
347 -> 348 ;
349 [label=[[ '<Speed &le; 37.5<br/>gini = 0.5<br/>samples = 6<br/>value = [4, 0, 0, 0, 0, 0, 0, 0, 0, 0, 1, 0, 0, 1, 0<br/>0, 0, 0]<br/>class = Grass>']], fillcolor="#e5813999"] ;
348 -> 349 ;
350 [label=[[ '<gini = 0.0<br/>samples = 1<br/>value = [0, 0, 0, 0, 0, 0, 0, 0, 0, 0, 1, 0, 0, 0, 0<br/>0, 0, 0]<br/>class = Bug>']], fillcolor="#3964e5ff"] ;
349 -> 350 ;
351 [label=[[ '<Speed &le; 60.0<br/>gini = 0.32<br/>samples = 5<br/>value = [4, 0, 0, 0, 0, 0, 0, 0, 0, 0, 0, 0, 0, 1, 0<br/>0, 0, 0]<br/>class = Grass>']], fillcolor="#e58139bf"] ;
349 -> 351 ;
352 [label=[[ '<gini = 0.0<br/>samples = 4<br/>value = [4, 0, 0, 0, 0, 0, 0, 0, 0, 0, 0, 0, 0, 0, 0<br/>0, 0, 0]<br/>class = Grass>']], fillcolor="#e58139ff"] ;
351 -> 352 ;
353 [label=[[ '<gini = 0.0<br/>samples = 1<br/>value = [0, 0, 0, 0, 0, 0, 0, 0, 0, 0, 0, 0, 0, 1, 0<br/>0, 0, 0]<br/>class = Bug>']], fillcolor="#ba39e5ff"] ;
351 -> 353 ;
354 [label=[[ '<Sp. Defense &le; 95.0<br/>gini = 0.375<br/>samples = 4<br/>value = [0, 0, 0, 0, 0, 1, 0, 0, 0, 0, 3, 0, 0, 0, 0<br/>0, 0, 0]<br/>class = Bug>']], fillcolor="#3964e5aa"] ;
348 -> 354 ;
355 [label=[[ '<gini = 0.0<br/>samples = 3<br/>value = [0, 0, 0, 0, 0, 0, 0, 0, 0, 0, 3, 0, 0, 0, 0<br/>0, 0, 0]<br/>class = Bug>']], fillcolor="#3964e5ff"] ;
354 -> 355 ;
356 [label=[[ '<gini = 0.0<br/>samples = 1<br/>value = [0, 0, 0, 0, 0, 1, 0, 0, 0, 0, 0, 0, 0, 0, 0<br/>0, 0, 0]<br/>class = Fire>']], fillcolor="#39e547ff"] ;
354 -> 356 ;
357 [label=[[ '<Speed &le; 52.5<br/>gini = 0.735<br/>samples = 7<br/>value = [2, 0, 0, 0, 0, 0, 0, 0, 0, 1, 0, 0, 0, 0, 0<br/>2, 2, 0]<br/>class = Grass>']], fillcolor="#e5813900"] ;
347 -> 357 ;
358 [label=[[ '<Defense &le; 102.5<br/>gini = 0.444<br/>samples = 3<br/>value = [1, 0, 0, 0, 0, 0, 0, 0, 0, 0, 0, 0, 0, 0, 0<br/>0, 2, 0]<br/>class = Normal>']], fillcolor="#e539647f"] ;
357 -> 358 ;
359 [label=[[ '<gini = 0.0<br/>samples = 2<br/>value = [0, 0, 0, 0, 0, 0, 0, 0, 0, 0, 0, 0, 0, 0, 0<br/>0, 2, 0]<br/>class = Normal>']], fillcolor="#e53964ff"] ;
358 -> 359 ;
360 [label=[[ '<gini = 0.0<br/>samples = 1<br/>value = [1, 0, 0, 0, 0, 0, 0, 0, 0, 0, 0, 0, 0, 0, 0<br/>0, 0, 0]<br/>class = Grass>']], fillcolor="#e58139ff"] ;
358 -> 360 ;
361 [label=[[ '<Attack &le; 79.0<br/>gini = 0.625<br/>samples = 4<br/>value = [1, 0, 0, 0, 0, 0, 0, 0, 0, 1, 0, 0, 0, 0, 0<br/>2, 0, 0]<br/>class = Normal>']], fillcolor="#e5399d55"] ;
357 -> 361 ;
362 [label=[[ '<gini = 0.0<br/>samples = 1<br/>value = [0, 0, 0, 0, 0, 0, 0, 0, 0, 1, 0, 0, 0, 0, 0<br/>0, 0, 0]<br/>class = Bug>']], fillcolor="#399de5ff"] ;
361 -> 362 ;
363 [label=[[ '<Attack &le; 97.5<br/>gini = 0.444<br/>samples = 3<br/>value = [1, 0, 0, 0, 0, 0, 0, 0, 0, 0, 0, 0, 0, 0, 0<br/>2, 0, 0]<br/>class = Normal>']], fillcolor="#e5399d7f"] ;
361 -> 363 ;
364 [label=[[ '<gini = 0.0<br/>samples = 2<br/>value = [0, 0, 0, 0, 0, 0, 0, 0, 0, 0, 0, 0, 0, 0, 0<br/>2, 0, 0]<br/>class = Normal>']], fillcolor="#e5399dff"] ;
363 -> 364 ;
365 [label=[[ '<gini = 0.0<br/>samples = 1<br/>value = [1, 0, 0, 0, 0, 0, 0, 0, 0, 0, 0, 0, 0, 0, 0<br/>0, 0, 0]<br/>class = Grass>']], fillcolor="#e58139ff"] ;
363 -> 365 ;
366 [label=[[ '<Attack &le; 92.5<br/>gini = 0.444<br/>samples = 3<br/>value = [0, 0, 1, 0, 0, 0, 0, 0, 0, 0, 0, 0, 0, 2, 0<br/>0, 0, 0]<br/>class = Bug>']], fillcolor="#ba39e57f"] ;
336 -> 366 ;
367 [label=[[ '<gini = 0.0<br/>samples = 2<br/>value = [0, 0, 0, 0, 0, 0, 0, 0, 0, 0, 0, 0, 0, 2, 0<br/>0, 0, 0]<br/>class = Bug>']], fillcolor="#ba39e5ff"] ;
366 -> 367 ;
368 [label=[[ '<gini = 0.0<br/>samples = 1<br/>value = [0, 0, 1, 0, 0, 0, 0, 0, 0, 0, 0, 0, 0, 0, 0<br/>0, 0, 0]<br/>class = Grass>']], fillcolor="#d7e539ff"] ;
366 -> 368 ;
369 [label=[[ '<Sp. Attack &le; 57.5<br/>gini = 0.32<br/>samples = 5<br/>value = [4, 1, 0, 0, 0, 0, 0, 0, 0, 0, 0, 0, 0, 0, 0<br/>0, 0, 0]<br/>class = Grass>']], fillcolor="#e58139bf"] ;
327 -> 369 ;
370 [label=[[ '<gini = 0.0<br/>samples = 3<br/>value = [3, 0, 0, 0, 0, 0, 0, 0, 0, 0, 0, 0, 0, 0, 0<br/>0, 0, 0]<br/>class = Grass>']], fillcolor="#e58139ff"] ;
369 -> 370 ;
371 [label=[[ '<Defense &le; 102.5<br/>gini = 0.5<br/>samples = 2<br/>value = [1, 1, 0, 0, 0, 0, 0, 0, 0, 0, 0, 0, 0, 0, 0<br/>0, 0, 0]<br/>class = Grass>']], fillcolor="#e5813900"] ;
369 -> 371 ;
372 [label=[[ '<gini = 0.0<br/>samples = 1<br/>value = [0, 1, 0, 0, 0, 0, 0, 0, 0, 0, 0, 0, 0, 0, 0<br/>0, 0, 0]<br/>class = Grass>']], fillcolor="#e5ba39ff"] ;
371 -> 372 ;
373 [label=[[ '<gini = 0.0<br/>samples = 1<br/>value = [1, 0, 0, 0, 0, 0, 0, 0, 0, 0, 0, 0, 0, 0, 0<br/>0, 0, 0]<br/>class = Grass>']], fillcolor="#e58139ff"] ;
371 -> 373 ;
374 [label=[[ '<Sp. Defense &le; 101.5<br/>gini = 0.5<br/>samples = 6<br/>value = [0, 1, 0, 0, 0, 0, 0, 0, 0, 0, 0, 0, 0, 0, 0<br/>4, 0, 1]<br/>class = Normal>']], fillcolor="#e5399d99"] ;
326 -> 374 ;
375 [label=[[ '<Speed &le; 71.5<br/>gini = 0.32<br/>samples = 5<br/>value = [0, 0, 0, 0, 0, 0, 0, 0, 0, 0, 0, 0, 0, 0, 0<br/>4, 0, 1]<br/>class = Normal>']], fillcolor="#e5399dbf"] ;
374 -> 375 ;
376 [label=[[ '<gini = 0.0<br/>samples = 4<br/>value = [0, 0, 0, 0, 0, 0, 0, 0, 0, 0, 0, 0, 0, 0, 0<br/>4, 0, 0]<br/>class = Normal>']], fillcolor="#e5399dff"] ;
375 -> 376 ;
377 [label=[[ '<gini = 0.0<br/>samples = 1<br/>value = [0, 0, 0, 0, 0, 0, 0, 0, 0, 0, 0, 0, 0, 0, 0<br/>0, 0, 1]<br/>class = Normal>']], fillcolor="#e54739ff"] ;
375 -> 377 ;
378 [label=[[ '<gini = 0.0<br/>samples = 1<br/>value = [0, 1, 0, 0, 0, 0, 0, 0, 0, 0, 0, 0, 0, 0, 0<br/>0, 0, 0]<br/>class = Grass>']], fillcolor="#e5ba39ff"] ;
374 -> 378 ;
379 [label=[[ '<Attack &le; 92.0<br/>gini = 0.48<br/>samples = 5<br/>value = [0, 0, 0, 0, 0, 0, 0, 0, 3, 2, 0, 0, 0, 0, 0<br/>0, 0, 0]<br/>class = Water>']], fillcolor="#39d7e555"] ;
325 -> 379 ;
380 [label=[[ '<gini = 0.0<br/>samples = 3<br/>value = [0, 0, 0, 0, 0, 0, 0, 0, 3, 0, 0, 0, 0, 0, 0<br/>0, 0, 0]<br/>class = Water>']], fillcolor="#39d7e5ff"] ;
379 -> 380 ;
381 [label=[[ '<gini = 0.0<br/>samples = 2<br/>value = [0, 0, 0, 0, 0, 0, 0, 0, 0, 2, 0, 0, 0, 0, 0<br/>0, 0, 0]<br/>class = Bug>']], fillcolor="#399de5ff"] ;
379 -> 381 ;
382 [label=[[ '<Sp. Defense &le; 62.5<br/>gini = 0.847<br/>samples = 24<br/>value = [0, 2, 2, 0, 0, 3, 0, 0, 2, 1, 6, 0, 5, 0, 0<br/>2, 0, 1]<br/>class = Bug>']], fillcolor="#3964e50d"] ;
324 -> 382 ;
383 [label=[[ '<Defense &le; 90.0<br/>gini = 0.278<br/>samples = 6<br/>value = [0, 0, 0, 0, 0, 1, 0, 0, 0, 0, 5, 0, 0, 0, 0<br/>0, 0, 0]<br/>class = Bug>']], fillcolor="#3964e5cc"] ;
382 -> 383 ;
384 [label=[[ '<gini = 0.0<br/>samples = 1<br/>value = [0, 0, 0, 0, 0, 1, 0, 0, 0, 0, 0, 0, 0, 0, 0<br/>0, 0, 0]<br/>class = Fire>']], fillcolor="#39e547ff"] ;
383 -> 384 ;
385 [label=[[ '<gini = 0.0<br/>samples = 5<br/>value = [0, 0, 0, 0, 0, 0, 0, 0, 0, 0, 5, 0, 0, 0, 0<br/>0, 0, 0]<br/>class = Bug>']], fillcolor="#3964e5ff"] ;
383 -> 385 ;
386 [label=[[ '<Defense &le; 116.0<br/>gini = 0.852<br/>samples = 18<br/>value = [0, 2, 2, 0, 0, 2, 0, 0, 2, 1, 1, 0, 5, 0, 0<br/>2, 0, 1]<br/>class = Bug>']], fillcolor="#8139e530"] ;
382 -> 386 ;
387 [label=[[ '<Speed &le; 46.5<br/>gini = 0.736<br/>samples = 12<br/>value = [0, 2, 2, 0, 0, 2, 0, 0, 0, 1, 0, 0, 5, 0, 0<br/>0, 0, 0]<br/>class = Bug>']], fillcolor="#8139e54c"] ;
386 -> 387 ;
388 [label=[[ '<HP &le; 90.0<br/>gini = 0.444<br/>samples = 3<br/>value = [0, 0, 0, 0, 0, 2, 0, 0, 0, 1, 0, 0, 0, 0, 0<br/>0, 0, 0]<br/>class = Fire>']], fillcolor="#39e5477f"] ;
387 -> 388 ;
389 [label=[[ '<gini = 0.0<br/>samples = 1<br/>value = [0, 0, 0, 0, 0, 0, 0, 0, 0, 1, 0, 0, 0, 0, 0<br/>0, 0, 0]<br/>class = Bug>']], fillcolor="#399de5ff"] ;
388 -> 389 ;
390 [label=[[ '<gini = 0.0<br/>samples = 2<br/>value = [0, 0, 0, 0, 0, 2, 0, 0, 0, 0, 0, 0, 0, 0, 0<br/>0, 0, 0]<br/>class = Fire>']], fillcolor="#39e547ff"] ;
388 -> 390 ;
391 [label=[[ '<Attack &le; 115.0<br/>gini = 0.593<br/>samples = 9<br/>value = [0, 2, 2, 0, 0, 0, 0, 0, 0, 0, 0, 0, 5, 0, 0<br/>0, 0, 0]<br/>class = Bug>']], fillcolor="#8139e56d"] ;
387 -> 391 ;
392 [label=[[ '<Defense &le; 100.0<br/>gini = 0.408<br/>samples = 7<br/>value = [0, 2, 0, 0, 0, 0, 0, 0, 0, 0, 0, 0, 5, 0, 0<br/>0, 0, 0]<br/>class = Bug>']], fillcolor="#8139e599"] ;
391 -> 392 ;
393 [label=[[ '<gini = 0.0<br/>samples = 4<br/>value = [0, 0, 0, 0, 0, 0, 0, 0, 0, 0, 0, 0, 4, 0, 0<br/>0, 0, 0]<br/>class = Bug>']], fillcolor="#8139e5ff"] ;
392 -> 393 ;
394 [label=[[ '<Sp. Attack &le; 47.5<br/>gini = 0.444<br/>samples = 3<br/>value = [0, 2, 0, 0, 0, 0, 0, 0, 0, 0, 0, 0, 1, 0, 0<br/>0, 0, 0]<br/>class = Grass>']], fillcolor="#e5ba397f"] ;
392 -> 394 ;
395 [label=[[ '<gini = 0.0<br/>samples = 1<br/>value = [0, 0, 0, 0, 0, 0, 0, 0, 0, 0, 0, 0, 1, 0, 0<br/>0, 0, 0]<br/>class = Bug>']], fillcolor="#8139e5ff"] ;
394 -> 395 ;
396 [label=[[ '<gini = 0.0<br/>samples = 2<br/>value = [0, 2, 0, 0, 0, 0, 0, 0, 0, 0, 0, 0, 0, 0, 0<br/>0, 0, 0]<br/>class = Grass>']], fillcolor="#e5ba39ff"] ;
394 -> 396 ;
397 [label=[[ '<gini = 0.0<br/>samples = 2<br/>value = [0, 0, 2, 0, 0, 0, 0, 0, 0, 0, 0, 0, 0, 0, 0<br/>0, 0, 0]<br/>class = Grass>']], fillcolor="#d7e539ff"] ;
391 -> 397 ;
398 [label=[[ '<Attack &le; 110.0<br/>gini = 0.722<br/>samples = 6<br/>value = [0, 0, 0, 0, 0, 0, 0, 0, 2, 0, 1, 0, 0, 0, 0<br/>2, 0, 1]<br/>class = Water>']], fillcolor="#39d7e500"] ;
386 -> 398 ;
399 [label=[[ '<Defense &le; 123.5<br/>gini = 0.625<br/>samples = 4<br/>value = [0, 0, 0, 0, 0, 0, 0, 0, 2, 0, 1, 0, 0, 0, 0<br/>0, 0, 1]<br/>class = Water>']], fillcolor="#39d7e555"] ;
398 -> 399 ;
400 [label=[[ '<gini = 0.0<br/>samples = 2<br/>value = [0, 0, 0, 0, 0, 0, 0, 0, 2, 0, 0, 0, 0, 0, 0<br/>0, 0, 0]<br/>class = Water>']], fillcolor="#39d7e5ff"] ;
399 -> 400 ;
401 [label=[[ '<Attack &le; 92.5<br/>gini = 0.5<br/>samples = 2<br/>value = [0, 0, 0, 0, 0, 0, 0, 0, 0, 0, 1, 0, 0, 0, 0<br/>0, 0, 1]<br/>class = Bug>']], fillcolor="#3964e500"] ;
399 -> 401 ;
402 [label=[[ '<gini = 0.0<br/>samples = 1<br/>value = [0, 0, 0, 0, 0, 0, 0, 0, 0, 0, 0, 0, 0, 0, 0<br/>0, 0, 1]<br/>class = Normal>']], fillcolor="#e54739ff"] ;
401 -> 402 ;
403 [label=[[ '<gini = 0.0<br/>samples = 1<br/>value = [0, 0, 0, 0, 0, 0, 0, 0, 0, 0, 1, 0, 0, 0, 0<br/>0, 0, 0]<br/>class = Bug>']], fillcolor="#3964e5ff"] ;
401 -> 403 ;
404 [label=[[ '<gini = 0.0<br/>samples = 2<br/>value = [0, 0, 0, 0, 0, 0, 0, 0, 0, 0, 0, 0, 0, 0, 0<br/>2, 0, 0]<br/>class = Normal>']], fillcolor="#e5399dff"] ;
398 -> 404 ;
405 [label=[[ '<HP &le; 54.5<br/>gini = 0.663<br/>samples = 14<br/>value = [2, 0, 0, 0, 0, 0, 0, 0, 0, 0, 0, 1, 0, 0, 0<br/>5, 6, 0]<br/>class = Normal>']], fillcolor="#e539641c"] ;
323 -> 405 ;
406 [label=[[ '<Attack &le; 27.5<br/>gini = 0.375<br/>samples = 4<br/>value = [1, 0, 0, 0, 0, 0, 0, 0, 0, 0, 0, 0, 0, 0, 0<br/>3, 0, 0]<br/>class = Normal>']], fillcolor="#e5399daa"] ;
405 -> 406 ;
407 [label=[[ '<gini = 0.0<br/>samples = 1<br/>value = [1, 0, 0, 0, 0, 0, 0, 0, 0, 0, 0, 0, 0, 0, 0<br/>0, 0, 0]<br/>class = Grass>']], fillcolor="#e58139ff"] ;
406 -> 407 ;
408 [label=[[ '<gini = 0.0<br/>samples = 3<br/>value = [0, 0, 0, 0, 0, 0, 0, 0, 0, 0, 0, 0, 0, 0, 0<br/>3, 0, 0]<br/>class = Normal>']], fillcolor="#e5399dff"] ;
406 -> 408 ;
409 [label=[[ '<HP &le; 77.5<br/>gini = 0.58<br/>samples = 10<br/>value = [1, 0, 0, 0, 0, 0, 0, 0, 0, 0, 0, 1, 0, 0, 0<br/>2, 6, 0]<br/>class = Normal>']], fillcolor="#e539647f"] ;
405 -> 409 ;
410 [label=[[ '<Speed &le; 32.5<br/>gini = 0.406<br/>samples = 8<br/>value = [1, 0, 0, 0, 0, 0, 0, 0, 0, 0, 0, 0, 0, 0, 0<br/>1, 6, 0]<br/>class = Normal>']], fillcolor="#e53964b6"] ;
409 -> 410 ;
411 [label=[[ '<Defense &le; 184.0<br/>gini = 0.5<br/>samples = 2<br/>value = [0, 0, 0, 0, 0, 0, 0, 0, 0, 0, 0, 0, 0, 0, 0<br/>1, 1, 0]<br/>class = Normal>']], fillcolor="#e5399d00"] ;
410 -> 411 ;
412 [label=[[ '<gini = 0.0<br/>samples = 1<br/>value = [0, 0, 0, 0, 0, 0, 0, 0, 0, 0, 0, 0, 0, 0, 0<br/>1, 0, 0]<br/>class = Normal>']], fillcolor="#e5399dff"] ;
411 -> 412 ;
413 [label=[[ '<gini = 0.0<br/>samples = 1<br/>value = [0, 0, 0, 0, 0, 0, 0, 0, 0, 0, 0, 0, 0, 0, 0<br/>0, 1, 0]<br/>class = Normal>']], fillcolor="#e53964ff"] ;
411 -> 413 ;
414 [label=[[ '<HP &le; 72.5<br/>gini = 0.278<br/>samples = 6<br/>value = [1, 0, 0, 0, 0, 0, 0, 0, 0, 0, 0, 0, 0, 0, 0<br/>0, 5, 0]<br/>class = Normal>']], fillcolor="#e53964cc"] ;
410 -> 414 ;
415 [label=[[ '<gini = 0.0<br/>samples = 5<br/>value = [0, 0, 0, 0, 0, 0, 0, 0, 0, 0, 0, 0, 0, 0, 0<br/>0, 5, 0]<br/>class = Normal>']], fillcolor="#e53964ff"] ;
414 -> 415 ;
416 [label=[[ '<gini = 0.0<br/>samples = 1<br/>value = [1, 0, 0, 0, 0, 0, 0, 0, 0, 0, 0, 0, 0, 0, 0<br/>0, 0, 0]<br/>class = Grass>']], fillcolor="#e58139ff"] ;
414 -> 416 ;
417 [label=[[ '<Speed &le; 39.0<br/>gini = 0.5<br/>samples = 2<br/>value = [0, 0, 0, 0, 0, 0, 0, 0, 0, 0, 0, 1, 0, 0, 0<br/>1, 0, 0]<br/>class = Bug>']], fillcolor="#4739e500"] ;
409 -> 417 ;
418 [label=[[ '<gini = 0.0<br/>samples = 1<br/>value = [0, 0, 0, 0, 0, 0, 0, 0, 0, 0, 0, 1, 0, 0, 0<br/>0, 0, 0]<br/>class = Bug>']], fillcolor="#4739e5ff"] ;
417 -> 418 ;
419 [label=[[ '<gini = 0.0<br/>samples = 1<br/>value = [0, 0, 0, 0, 0, 0, 0, 0, 0, 0, 0, 0, 0, 0, 0<br/>1, 0, 0]<br/>class = Normal>']], fillcolor="#e5399dff"] ;
417 -> 419 ;
420 [label=[[ '<Attack &le; 58.5<br/>gini = 0.914<br/>samples = 403<br/>value = [18, 14, 16, 33, 10, 5, 39, 3, 17, 44, 9, 16, 27<br/>12, 46, 17, 10, 67]<br/>class = Normal>']], fillcolor="#e547390f"] ;
0 -> 420 [labeldistance=2.5, labelangle=-45, headlabel="False"] ;
421 [label=[[ '<Speed &le; 89.5<br/>gini = 0.852<br/>samples = 78<br/>value = [3, 0, 0, 10, 4, 0, 5, 0, 6, 6, 0, 6, 2, 0<br/>23, 3, 0, 10]<br/>class = Bug>']], fillcolor="#e539d731"] ;
420 -> 421 ;
422 [label=[[ '<Attack &le; 55.5<br/>gini = 0.871<br/>samples = 61<br/>value = [3, 0, 0, 4, 4, 0, 5, 0, 5, 6, 0, 4, 2, 0<br/>15, 3, 0, 10]<br/>class = Bug>']], fillcolor="#e539d719"] ;
421 -> 422 ;
423 [label=[[ '<Speed &le; 82.5<br/>gini = 0.872<br/>samples = 59<br/>value = [3, 0, 0, 4, 4, 0, 5, 0, 5, 6, 0, 4, 2, 0<br/>15, 3, 0, 8]<br/>class = Bug>']], fillcolor="#e539d723"] ;
422 -> 423 ;
424 [label=[[ '<Attack &le; 27.5<br/>gini = 0.865<br/>samples = 56<br/>value = [1, 0, 0, 4, 4, 0, 5, 0, 5, 6, 0, 4, 2, 0<br/>15, 3, 0, 7]<br/>class = Bug>']], fillcolor="#e539d72a"] ;
423 -> 424 ;
425 [label=[[ '<Attack &le; 17.5<br/>gini = 0.375<br/>samples = 4<br/>value = [0, 0, 0, 0, 0, 0, 0, 0, 0, 0, 0, 0, 1, 0, 3<br/>0, 0, 0]<br/>class = Bug>']], fillcolor="#e539d7aa"] ;
424 -> 425 ;
426 [label=[[ '<gini = 0.0<br/>samples = 1<br/>value = [0, 0, 0, 0, 0, 0, 0, 0, 0, 0, 0, 0, 1, 0, 0<br/>0, 0, 0]<br/>class = Bug>']], fillcolor="#8139e5ff"] ;
425 -> 426 ;
427 [label=[[ '<gini = 0.0<br/>samples = 3<br/>value = [0, 0, 0, 0, 0, 0, 0, 0, 0, 0, 0, 0, 0, 0, 3<br/>0, 0, 0]<br/>class = Bug>']], fillcolor="#e539d7ff"] ;
425 -> 427 ;
428 [label=[[ '<Sp. Attack &le; 87.5<br/>gini = 0.875<br/>samples = 52<br/>value = [1, 0, 0, 4, 4, 0, 5, 0, 5, 6, 0, 4, 1, 0<br/>12, 3, 0, 7]<br/>class = Bug>']], fillcolor="#e539d71c"] ;
424 -> 428 ;
429 [label=[[ '<HP &le; 47.5<br/>gini = 0.865<br/>samples = 34<br/>value = [0, 0, 0, 3, 3, 0, 4, 0, 1, 5, 0, 3, 1, 0, 6<br/>1, 0, 7]<br/>class = Normal>']], fillcolor="#e5473909"] ;
428 -> 429 ;
430 [label=[[ '<Speed &le; 39.5<br/>gini = 0.782<br/>samples = 15<br/>value = [0, 0, 0, 1, 0, 0, 2, 0, 0, 5, 0, 3, 0, 0, 3<br/>0, 0, 1]<br/>class = Bug>']], fillcolor="#399de52a"] ;
429 -> 430 ;
431 [label=[[ '<Speed &le; 25.0<br/>gini = 0.375<br/>samples = 4<br/>value = [0, 0, 0, 0, 0, 0, 1, 0, 0, 3, 0, 0, 0, 0, 0<br/>0, 0, 0]<br/>class = Bug>']], fillcolor="#399de5aa"] ;
430 -> 431 ;
432 [label=[[ '<gini = 0.0<br/>samples = 1<br/>value = [0, 0, 0, 0, 0, 0, 1, 0, 0, 0, 0, 0, 0, 0, 0<br/>0, 0, 0]<br/>class = Water>']], fillcolor="#39e581ff"] ;
431 -> 432 ;
433 [label=[[ '<gini = 0.0<br/>samples = 3<br/>value = [0, 0, 0, 0, 0, 0, 0, 0, 0, 3, 0, 0, 0, 0, 0<br/>0, 0, 0]<br/>class = Bug>']], fillcolor="#399de5ff"] ;
431 -> 433 ;
434 [label=[[ '<Sp. Defense &le; 42.5<br/>gini = 0.793<br/>samples = 11<br/>value = [0, 0, 0, 1, 0, 0, 1, 0, 0, 2, 0, 3, 0, 0, 3<br/>0, 0, 1]<br/>class = Bug>']], fillcolor="#4739e500"] ;
430 -> 434 ;
435 [label=[[ '<Sp. Defense &le; 32.5<br/>gini = 0.5<br/>samples = 2<br/>value = [0, 0, 0, 1, 0, 0, 0, 0, 0, 0, 0, 0, 0, 0, 0<br/>0, 0, 1]<br/>class = Fire>']], fillcolor="#9de53900"] ;
434 -> 435 ;
436 [label=[[ '<gini = 0.0<br/>samples = 1<br/>value = [0, 0, 0, 0, 0, 0, 0, 0, 0, 0, 0, 0, 0, 0, 0<br/>0, 0, 1]<br/>class = Normal>']], fillcolor="#e54739ff"] ;
435 -> 436 ;
437 [label=[[ '<gini = 0.0<br/>samples = 1<br/>value = [0, 0, 0, 1, 0, 0, 0, 0, 0, 0, 0, 0, 0, 0, 0<br/>0, 0, 0]<br/>class = Fire>']], fillcolor="#9de539ff"] ;
435 -> 437 ;
438 [label=[[ '<Sp. Attack &le; 63.5<br/>gini = 0.716<br/>samples = 9<br/>value = [0, 0, 0, 0, 0, 0, 1, 0, 0, 2, 0, 3, 0, 0, 3<br/>0, 0, 0]<br/>class = Bug>']], fillcolor="#4739e500"] ;
434 -> 438 ;
439 [label=[[ '<gini = 0.0<br/>samples = 1<br/>value = [0, 0, 0, 0, 0, 0, 1, 0, 0, 0, 0, 0, 0, 0, 0<br/>0, 0, 0]<br/>class = Water>']], fillcolor="#39e581ff"] ;
438 -> 439 ;
440 [label=[[ '<Sp. Defense &le; 57.5<br/>gini = 0.656<br/>samples = 8<br/>value = [0, 0, 0, 0, 0, 0, 0, 0, 0, 2, 0, 3, 0, 0, 3<br/>0, 0, 0]<br/>class = Bug>']], fillcolor="#4739e500"] ;
438 -> 440 ;
441 [label=[[ '<Speed &le; 72.5<br/>gini = 0.56<br/>samples = 5<br/>value = [0, 0, 0, 0, 0, 0, 0, 0, 0, 1, 0, 1, 0, 0, 3<br/>0, 0, 0]<br/>class = Bug>']], fillcolor="#e539d77f"] ;
440 -> 441 ;
442 [label=[[ '<Defense &le; 40.0<br/>gini = 0.375<br/>samples = 4<br/>value = [0, 0, 0, 0, 0, 0, 0, 0, 0, 1, 0, 0, 0, 0, 3<br/>0, 0, 0]<br/>class = Bug>']], fillcolor="#e539d7aa"] ;
441 -> 442 ;
443 [label=[[ '<Speed &le; 60.0<br/>gini = 0.5<br/>samples = 2<br/>value = [0, 0, 0, 0, 0, 0, 0, 0, 0, 1, 0, 0, 0, 0, 1<br/>0, 0, 0]<br/>class = Bug>']], fillcolor="#399de500"] ;
442 -> 443 ;
444 [label=[[ '<gini = 0.0<br/>samples = 1<br/>value = [0, 0, 0, 0, 0, 0, 0, 0, 0, 0, 0, 0, 0, 0, 1<br/>0, 0, 0]<br/>class = Bug>']], fillcolor="#e539d7ff"] ;
443 -> 444 ;
445 [label=[[ '<gini = 0.0<br/>samples = 1<br/>value = [0, 0, 0, 0, 0, 0, 0, 0, 0, 1, 0, 0, 0, 0, 0<br/>0, 0, 0]<br/>class = Bug>']], fillcolor="#399de5ff"] ;
443 -> 445 ;
446 [label=[[ '<gini = 0.0<br/>samples = 2<br/>value = [0, 0, 0, 0, 0, 0, 0, 0, 0, 0, 0, 0, 0, 0, 2<br/>0, 0, 0]<br/>class = Bug>']], fillcolor="#e539d7ff"] ;
442 -> 446 ;
447 [label=[[ '<gini = 0.0<br/>samples = 1<br/>value = [0, 0, 0, 0, 0, 0, 0, 0, 0, 0, 0, 1, 0, 0, 0<br/>0, 0, 0]<br/>class = Bug>']], fillcolor="#4739e5ff"] ;
441 -> 447 ;
448 [label=[[ '<Sp. Attack &le; 75.0<br/>gini = 0.444<br/>samples = 3<br/>value = [0, 0, 0, 0, 0, 0, 0, 0, 0, 1, 0, 2, 0, 0, 0<br/>0, 0, 0]<br/>class = Bug>']], fillcolor="#4739e57f"] ;
440 -> 448 ;
449 [label=[[ '<Speed &le; 44.5<br/>gini = 0.5<br/>samples = 2<br/>value = [0, 0, 0, 0, 0, 0, 0, 0, 0, 1, 0, 1, 0, 0, 0<br/>0, 0, 0]<br/>class = Bug>']], fillcolor="#399de500"] ;
448 -> 449 ;
450 [label=[[ '<gini = 0.0<br/>samples = 1<br/>value = [0, 0, 0, 0, 0, 0, 0, 0, 0, 0, 0, 1, 0, 0, 0<br/>0, 0, 0]<br/>class = Bug>']], fillcolor="#4739e5ff"] ;
449 -> 450 ;
451 [label=[[ '<gini = 0.0<br/>samples = 1<br/>value = [0, 0, 0, 0, 0, 0, 0, 0, 0, 1, 0, 0, 0, 0, 0<br/>0, 0, 0]<br/>class = Bug>']], fillcolor="#399de5ff"] ;
449 -> 451 ;
452 [label=[[ '<gini = 0.0<br/>samples = 1<br/>value = [0, 0, 0, 0, 0, 0, 0, 0, 0, 0, 0, 1, 0, 0, 0<br/>0, 0, 0]<br/>class = Bug>']], fillcolor="#4739e5ff"] ;
448 -> 452 ;
453 [label=[[ '<Defense &le; 110.0<br/>gini = 0.82<br/>samples = 19<br/>value = [0, 0, 0, 2, 3, 0, 2, 0, 1, 0, 0, 0, 1, 0, 3<br/>1, 0, 6]<br/>class = Normal>']], fillcolor="#e5473930"] ;
429 -> 453 ;
454 [label=[[ '<Speed &le; 21.5<br/>gini = 0.789<br/>samples = 17<br/>value = [0, 0, 0, 2, 3, 0, 1, 0, 1, 0, 0, 0, 1, 0, 3<br/>0, 0, 6]<br/>class = Normal>']], fillcolor="#e5473937"] ;
453 -> 454 ;
455 [label=[[ '<gini = 0.0<br/>samples = 1<br/>value = [0, 0, 0, 0, 0, 0, 0, 0, 1, 0, 0, 0, 0, 0, 0<br/>0, 0, 0]<br/>class = Water>']], fillcolor="#39d7e5ff"] ;
454 -> 455 ;
456 [label=[[ '<Speed &le; 71.0<br/>gini = 0.766<br/>samples = 16<br/>value = [0, 0, 0, 2, 3, 0, 1, 0, 0, 0, 0, 0, 1, 0, 3<br/>0, 0, 6]<br/>class = Normal>']], fillcolor="#e547393b"] ;
454 -> 456 ;
457 [label=[[ '<HP &le; 67.5<br/>gini = 0.738<br/>samples = 15<br/>value = [0, 0, 0, 2, 3, 0, 0, 0, 0, 0, 0, 0, 1, 0, 3<br/>0, 0, 6]<br/>class = Normal>']], fillcolor="#e5473940"] ;
456 -> 457 ;
458 [label=[[ '<Sp. Defense &le; 91.5<br/>gini = 0.653<br/>samples = 12<br/>value = [0, 0, 0, 1, 2, 0, 0, 0, 0, 0, 0, 0, 0, 0, 3<br/>0, 0, 6]<br/>class = Normal>']], fillcolor="#e5473955"] ;
457 -> 458 ;
459 [label=[[ '<Defense &le; 42.5<br/>gini = 0.568<br/>samples = 9<br/>value = [0, 0, 0, 1, 0, 0, 0, 0, 0, 0, 0, 0, 0, 0, 3<br/>0, 0, 5]<br/>class = Normal>']], fillcolor="#e5473955"] ;
458 -> 459 ;
460 [label=[[ '<gini = 0.0<br/>samples = 1<br/>value = [0, 0, 0, 1, 0, 0, 0, 0, 0, 0, 0, 0, 0, 0, 0<br/>0, 0, 0]<br/>class = Fire>']], fillcolor="#9de539ff"] ;
459 -> 460 ;
461 [label=[[ '<Defense &le; 52.0<br/>gini = 0.469<br/>samples = 8<br/>value = [0, 0, 0, 0, 0, 0, 0, 0, 0, 0, 0, 0, 0, 0, 3<br/>0, 0, 5]<br/>class = Normal>']], fillcolor="#e5473966"] ;
459 -> 461 ;
462 [label=[[ '<gini = 0.0<br/>samples = 3<br/>value = [0, 0, 0, 0, 0, 0, 0, 0, 0, 0, 0, 0, 0, 0, 0<br/>0, 0, 3]<br/>class = Normal>']], fillcolor="#e54739ff"] ;
461 -> 462 ;
463 [label=[[ '<Defense &le; 77.5<br/>gini = 0.48<br/>samples = 5<br/>value = [0, 0, 0, 0, 0, 0, 0, 0, 0, 0, 0, 0, 0, 0, 3<br/>0, 0, 2]<br/>class = Bug>']], fillcolor="#e539d755"] ;
461 -> 463 ;
464 [label=[[ '<gini = 0.0<br/>samples = 3<br/>value = [0, 0, 0, 0, 0, 0, 0, 0, 0, 0, 0, 0, 0, 0, 3<br/>0, 0, 0]<br/>class = Bug>']], fillcolor="#e539d7ff"] ;
463 -> 464 ;
465 [label=[[ '<gini = 0.0<br/>samples = 2<br/>value = [0, 0, 0, 0, 0, 0, 0, 0, 0, 0, 0, 0, 0, 0, 0<br/>0, 0, 2]<br/>class = Normal>']], fillcolor="#e54739ff"] ;
463 -> 465 ;
466 [label=[[ '<HP &le; 60.0<br/>gini = 0.444<br/>samples = 3<br/>value = [0, 0, 0, 0, 2, 0, 0, 0, 0, 0, 0, 0, 0, 0, 0<br/>0, 0, 1]<br/>class = Fire>']], fillcolor="#64e5397f"] ;
458 -> 466 ;
467 [label=[[ '<gini = 0.0<br/>samples = 2<br/>value = [0, 0, 0, 0, 2, 0, 0, 0, 0, 0, 0, 0, 0, 0, 0<br/>0, 0, 0]<br/>class = Fire>']], fillcolor="#64e539ff"] ;
466 -> 467 ;
468 [label=[[ '<gini = 0.0<br/>samples = 1<br/>value = [0, 0, 0, 0, 0, 0, 0, 0, 0, 0, 0, 0, 0, 0, 0<br/>0, 0, 1]<br/>class = Normal>']], fillcolor="#e54739ff"] ;
466 -> 468 ;
469 [label=[[ '<Speed &le; 34.0<br/>gini = 0.667<br/>samples = 3<br/>value = [0, 0, 0, 1, 1, 0, 0, 0, 0, 0, 0, 0, 1, 0, 0<br/>0, 0, 0]<br/>class = Fire>']], fillcolor="#9de53900"] ;
457 -> 469 ;
470 [label=[[ '<gini = 0.0<br/>samples = 1<br/>value = [0, 0, 0, 0, 1, 0, 0, 0, 0, 0, 0, 0, 0, 0, 0<br/>0, 0, 0]<br/>class = Fire>']], fillcolor="#64e539ff"] ;
469 -> 470 ;
471 [label=[[ '<Sp. Defense &le; 78.0<br/>gini = 0.5<br/>samples = 2<br/>value = [0, 0, 0, 1, 0, 0, 0, 0, 0, 0, 0, 0, 1, 0, 0<br/>0, 0, 0]<br/>class = Fire>']], fillcolor="#9de53900"] ;
469 -> 471 ;
472 [label=[[ '<gini = 0.0<br/>samples = 1<br/>value = [0, 0, 0, 1, 0, 0, 0, 0, 0, 0, 0, 0, 0, 0, 0<br/>0, 0, 0]<br/>class = Fire>']], fillcolor="#9de539ff"] ;
471 -> 472 ;
473 [label=[[ '<gini = 0.0<br/>samples = 1<br/>value = [0, 0, 0, 0, 0, 0, 0, 0, 0, 0, 0, 0, 1, 0, 0<br/>0, 0, 0]<br/>class = Bug>']], fillcolor="#8139e5ff"] ;
471 -> 473 ;
474 [label=[[ '<gini = 0.0<br/>samples = 1<br/>value = [0, 0, 0, 0, 0, 0, 1, 0, 0, 0, 0, 0, 0, 0, 0<br/>0, 0, 0]<br/>class = Water>']], fillcolor="#39e581ff"] ;
456 -> 474 ;
475 [label=[[ '<Sp. Defense &le; 115.0<br/>gini = 0.5<br/>samples = 2<br/>value = [0, 0, 0, 0, 0, 0, 1, 0, 0, 0, 0, 0, 0, 0, 0<br/>1, 0, 0]<br/>class = Water>']], fillcolor="#39e58100"] ;
453 -> 475 ;
476 [label=[[ '<gini = 0.0<br/>samples = 1<br/>value = [0, 0, 0, 0, 0, 0, 1, 0, 0, 0, 0, 0, 0, 0, 0<br/>0, 0, 0]<br/>class = Water>']], fillcolor="#39e581ff"] ;
475 -> 476 ;
477 [label=[[ '<gini = 0.0<br/>samples = 1<br/>value = [0, 0, 0, 0, 0, 0, 0, 0, 0, 0, 0, 0, 0, 0, 0<br/>1, 0, 0]<br/>class = Normal>']], fillcolor="#e5399dff"] ;
475 -> 477 ;
478 [label=[[ '<HP &le; 62.5<br/>gini = 0.809<br/>samples = 18<br/>value = [1, 0, 0, 1, 1, 0, 1, 0, 4, 1, 0, 1, 0, 0, 6<br/>2, 0, 0]<br/>class = Bug>']], fillcolor="#e539d724"] ;
428 -> 478 ;
479 [label=[[ '<Sp. Attack &le; 92.5<br/>gini = 0.688<br/>samples = 8<br/>value = [1, 0, 0, 1, 0, 0, 0, 0, 4, 0, 0, 0, 0, 0, 1<br/>1, 0, 0]<br/>class = Water>']], fillcolor="#39d7e56d"] ;
478 -> 479 ;
480 [label=[[ '<Attack &le; 42.5<br/>gini = 0.5<br/>samples = 2<br/>value = [1, 0, 0, 0, 0, 0, 0, 0, 0, 0, 0, 0, 0, 0, 0<br/>1, 0, 0]<br/>class = Grass>']], fillcolor="#e5813900"] ;
479 -> 480 ;
481 [label=[[ '<gini = 0.0<br/>samples = 1<br/>value = [0, 0, 0, 0, 0, 0, 0, 0, 0, 0, 0, 0, 0, 0, 0<br/>1, 0, 0]<br/>class = Normal>']], fillcolor="#e5399dff"] ;
480 -> 481 ;
482 [label=[[ '<gini = 0.0<br/>samples = 1<br/>value = [1, 0, 0, 0, 0, 0, 0, 0, 0, 0, 0, 0, 0, 0, 0<br/>0, 0, 0]<br/>class = Grass>']], fillcolor="#e58139ff"] ;
480 -> 482 ;
483 [label=[[ '<Attack &le; 32.5<br/>gini = 0.5<br/>samples = 6<br/>value = [0, 0, 0, 1, 0, 0, 0, 0, 4, 0, 0, 0, 0, 0, 1<br/>0, 0, 0]<br/>class = Water>']], fillcolor="#39d7e599"] ;
479 -> 483 ;
484 [label=[[ '<gini = 0.0<br/>samples = 1<br/>value = [0, 0, 0, 0, 0, 0, 0, 0, 0, 0, 0, 0, 0, 0, 1<br/>0, 0, 0]<br/>class = Bug>']], fillcolor="#e539d7ff"] ;
483 -> 484 ;
485 [label=[[ '<HP &le; 27.5<br/>gini = 0.32<br/>samples = 5<br/>value = [0, 0, 0, 1, 0, 0, 0, 0, 4, 0, 0, 0, 0, 0, 0<br/>0, 0, 0]<br/>class = Water>']], fillcolor="#39d7e5bf"] ;
483 -> 485 ;
486 [label=[[ '<gini = 0.0<br/>samples = 1<br/>value = [0, 0, 0, 1, 0, 0, 0, 0, 0, 0, 0, 0, 0, 0, 0<br/>0, 0, 0]<br/>class = Fire>']], fillcolor="#9de539ff"] ;
485 -> 486 ;
487 [label=[[ '<gini = 0.0<br/>samples = 4<br/>value = [0, 0, 0, 0, 0, 0, 0, 0, 4, 0, 0, 0, 0, 0, 0<br/>0, 0, 0]<br/>class = Water>']], fillcolor="#39d7e5ff"] ;
485 -> 487 ;
488 [label=[[ '<Defense &le; 97.5<br/>gini = 0.7<br/>samples = 10<br/>value = [0, 0, 0, 0, 1, 0, 1, 0, 0, 1, 0, 1, 0, 0, 5<br/>1, 0, 0]<br/>class = Bug>']], fillcolor="#e539d771"] ;
478 -> 488 ;
489 [label=[[ '<Sp. Defense &le; 112.5<br/>gini = 0.449<br/>samples = 7<br/>value = [0, 0, 0, 0, 1, 0, 0, 0, 0, 0, 0, 0, 0, 0, 5<br/>1, 0, 0]<br/>class = Bug>']], fillcolor="#e539d7aa"] ;
488 -> 489 ;
490 [label=[[ '<Speed &le; 67.5<br/>gini = 0.278<br/>samples = 6<br/>value = [0, 0, 0, 0, 0, 0, 0, 0, 0, 0, 0, 0, 0, 0, 5<br/>1, 0, 0]<br/>class = Bug>']], fillcolor="#e539d7cc"] ;
489 -> 490 ;
491 [label=[[ '<gini = 0.0<br/>samples = 4<br/>value = [0, 0, 0, 0, 0, 0, 0, 0, 0, 0, 0, 0, 0, 0, 4<br/>0, 0, 0]<br/>class = Bug>']], fillcolor="#e539d7ff"] ;
490 -> 491 ;
492 [label=[[ '<Sp. Attack &le; 92.5<br/>gini = 0.5<br/>samples = 2<br/>value = [0, 0, 0, 0, 0, 0, 0, 0, 0, 0, 0, 0, 0, 0, 1<br/>1, 0, 0]<br/>class = Bug>']], fillcolor="#e539d700"] ;
490 -> 492 ;
493 [label=[[ '<gini = 0.0<br/>samples = 1<br/>value = [0, 0, 0, 0, 0, 0, 0, 0, 0, 0, 0, 0, 0, 0, 1<br/>0, 0, 0]<br/>class = Bug>']], fillcolor="#e539d7ff"] ;
492 -> 493 ;
494 [label=[[ '<gini = 0.0<br/>samples = 1<br/>value = [0, 0, 0, 0, 0, 0, 0, 0, 0, 0, 0, 0, 0, 0, 0<br/>1, 0, 0]<br/>class = Normal>']], fillcolor="#e5399dff"] ;
492 -> 494 ;
495 [label=[[ '<gini = 0.0<br/>samples = 1<br/>value = [0, 0, 0, 0, 1, 0, 0, 0, 0, 0, 0, 0, 0, 0, 0<br/>0, 0, 0]<br/>class = Fire>']], fillcolor="#64e539ff"] ;
489 -> 495 ;
496 [label=[[ '<Defense &le; 102.5<br/>gini = 0.667<br/>samples = 3<br/>value = [0, 0, 0, 0, 0, 0, 1, 0, 0, 1, 0, 1, 0, 0, 0<br/>0, 0, 0]<br/>class = Water>']], fillcolor="#39e58100"] ;
488 -> 496 ;
497 [label=[[ '<gini = 0.0<br/>samples = 1<br/>value = [0, 0, 0, 0, 0, 0, 0, 0, 0, 0, 0, 1, 0, 0, 0<br/>0, 0, 0]<br/>class = Bug>']], fillcolor="#4739e5ff"] ;
496 -> 497 ;
498 [label=[[ '<Attack &le; 42.5<br/>gini = 0.5<br/>samples = 2<br/>value = [0, 0, 0, 0, 0, 0, 1, 0, 0, 1, 0, 0, 0, 0, 0<br/>0, 0, 0]<br/>class = Water>']], fillcolor="#39e58100"] ;
496 -> 498 ;
499 [label=[[ '<gini = 0.0<br/>samples = 1<br/>value = [0, 0, 0, 0, 0, 0, 1, 0, 0, 0, 0, 0, 0, 0, 0<br/>0, 0, 0]<br/>class = Water>']], fillcolor="#39e581ff"] ;
498 -> 499 ;
500 [label=[[ '<gini = 0.0<br/>samples = 1<br/>value = [0, 0, 0, 0, 0, 0, 0, 0, 0, 1, 0, 0, 0, 0, 0<br/>0, 0, 0]<br/>class = Bug>']], fillcolor="#399de5ff"] ;
498 -> 500 ;
501 [label=[[ '<Sp. Attack &le; 71.5<br/>gini = 0.444<br/>samples = 3<br/>value = [2, 0, 0, 0, 0, 0, 0, 0, 0, 0, 0, 0, 0, 0, 0<br/>0, 0, 1]<br/>class = Grass>']], fillcolor="#e581397f"] ;
423 -> 501 ;
502 [label=[[ '<gini = 0.0<br/>samples = 1<br/>value = [0, 0, 0, 0, 0, 0, 0, 0, 0, 0, 0, 0, 0, 0, 0<br/>0, 0, 1]<br/>class = Normal>']], fillcolor="#e54739ff"] ;
501 -> 502 ;
503 [label=[[ '<gini = 0.0<br/>samples = 2<br/>value = [2, 0, 0, 0, 0, 0, 0, 0, 0, 0, 0, 0, 0, 0, 0<br/>0, 0, 0]<br/>class = Grass>']], fillcolor="#e58139ff"] ;
501 -> 503 ;
504 [label=[[ '<gini = 0.0<br/>samples = 2<br/>value = [0, 0, 0, 0, 0, 0, 0, 0, 0, 0, 0, 0, 0, 0, 0<br/>0, 0, 2]<br/>class = Normal>']], fillcolor="#e54739ff"] ;
422 -> 504 ;
505 [label=[[ '<Attack &le; 49.0<br/>gini = 0.637<br/>samples = 17<br/>value = [0, 0, 0, 6, 0, 0, 0, 0, 1, 0, 0, 2, 0, 0, 8<br/>0, 0, 0]<br/>class = Bug>']], fillcolor="#e539d72e"] ;
421 -> 505 ;
506 [label=[[ '<Sp. Attack &le; 79.0<br/>gini = 0.278<br/>samples = 6<br/>value = [0, 0, 0, 1, 0, 0, 0, 0, 0, 0, 0, 0, 0, 0, 5<br/>0, 0, 0]<br/>class = Bug>']], fillcolor="#e539d7cc"] ;
505 -> 506 ;
507 [label=[[ '<gini = 0.0<br/>samples = 1<br/>value = [0, 0, 0, 1, 0, 0, 0, 0, 0, 0, 0, 0, 0, 0, 0<br/>0, 0, 0]<br/>class = Fire>']], fillcolor="#9de539ff"] ;
506 -> 507 ;
508 [label=[[ '<gini = 0.0<br/>samples = 5<br/>value = [0, 0, 0, 0, 0, 0, 0, 0, 0, 0, 0, 0, 0, 0, 5<br/>0, 0, 0]<br/>class = Bug>']], fillcolor="#e539d7ff"] ;
506 -> 508 ;
509 [label=[[ '<Defense &le; 37.5<br/>gini = 0.678<br/>samples = 11<br/>value = [0, 0, 0, 5, 0, 0, 0, 0, 1, 0, 0, 2, 0, 0, 3<br/>0, 0, 0]<br/>class = Fire>']], fillcolor="#9de53940"] ;
505 -> 509 ;
510 [label=[[ '<gini = 0.0<br/>samples = 2<br/>value = [0, 0, 0, 0, 0, 0, 0, 0, 0, 0, 0, 2, 0, 0, 0<br/>0, 0, 0]<br/>class = Bug>']], fillcolor="#4739e5ff"] ;
509 -> 510 ;
511 [label=[[ '<HP &le; 47.5<br/>gini = 0.568<br/>samples = 9<br/>value = [0, 0, 0, 5, 0, 0, 0, 0, 1, 0, 0, 0, 0, 0, 3<br/>0, 0, 0]<br/>class = Fire>']], fillcolor="#9de53955"] ;
509 -> 511 ;
512 [label=[[ '<gini = 0.0<br/>samples = 1<br/>value = [0, 0, 0, 0, 0, 0, 0, 0, 1, 0, 0, 0, 0, 0, 0<br/>0, 0, 0]<br/>class = Water>']], fillcolor="#39d7e5ff"] ;
511 -> 512 ;
513 [label=[[ '<Sp. Attack &le; 78.5<br/>gini = 0.469<br/>samples = 8<br/>value = [0, 0, 0, 5, 0, 0, 0, 0, 0, 0, 0, 0, 0, 0, 3<br/>0, 0, 0]<br/>class = Fire>']], fillcolor="#9de53966"] ;
511 -> 513 ;
514 [label=[[ '<gini = 0.0<br/>samples = 1<br/>value = [0, 0, 0, 0, 0, 0, 0, 0, 0, 0, 0, 0, 0, 0, 1<br/>0, 0, 0]<br/>class = Bug>']], fillcolor="#e539d7ff"] ;
513 -> 514 ;
515 [label=[[ '<Sp. Attack &le; 99.0<br/>gini = 0.408<br/>samples = 7<br/>value = [0, 0, 0, 5, 0, 0, 0, 0, 0, 0, 0, 0, 0, 0, 2<br/>0, 0, 0]<br/>class = Fire>']], fillcolor="#9de53999"] ;
513 -> 515 ;
516 [label=[[ '<gini = 0.0<br/>samples = 4<br/>value = [0, 0, 0, 4, 0, 0, 0, 0, 0, 0, 0, 0, 0, 0, 0<br/>0, 0, 0]<br/>class = Fire>']], fillcolor="#9de539ff"] ;
515 -> 516 ;
517 [label=[[ '<HP &le; 58.5<br/>gini = 0.444<br/>samples = 3<br/>value = [0, 0, 0, 1, 0, 0, 0, 0, 0, 0, 0, 0, 0, 0, 2<br/>0, 0, 0]<br/>class = Bug>']], fillcolor="#e539d77f"] ;
515 -> 517 ;
518 [label=[[ '<gini = 0.0<br/>samples = 1<br/>value = [0, 0, 0, 0, 0, 0, 0, 0, 0, 0, 0, 0, 0, 0, 1<br/>0, 0, 0]<br/>class = Bug>']], fillcolor="#e539d7ff"] ;
517 -> 518 ;
519 [label=[[ '<Attack &le; 56.5<br/>gini = 0.5<br/>samples = 2<br/>value = [0, 0, 0, 1, 0, 0, 0, 0, 0, 0, 0, 0, 0, 0, 1<br/>0, 0, 0]<br/>class = Fire>']], fillcolor="#9de53900"] ;
517 -> 519 ;
520 [label=[[ '<gini = 0.0<br/>samples = 1<br/>value = [0, 0, 0, 1, 0, 0, 0, 0, 0, 0, 0, 0, 0, 0, 0<br/>0, 0, 0]<br/>class = Fire>']], fillcolor="#9de539ff"] ;
519 -> 520 ;
521 [label=[[ '<gini = 0.0<br/>samples = 1<br/>value = [0, 0, 0, 0, 0, 0, 0, 0, 0, 0, 0, 0, 0, 0, 1<br/>0, 0, 0]<br/>class = Bug>']], fillcolor="#e539d7ff"] ;
519 -> 521 ;
522 [label=[[ '<Attack &le; 123.5<br/>gini = 0.915<br/>samples = 325<br/>value = [15, 14, 16, 23, 6, 5, 34, 3, 11, 38, 9, 10, 25<br/>12, 23, 14, 10, 57]<br/>class = Normal>']], fillcolor="#e5473911"] ;
420 -> 522 ;
523 [label=[[ '<Sp. Defense &le; 88.0<br/>gini = 0.904<br/>samples = 287<br/>value = [15, 11, 9, 23, 5, 2, 32, 3, 11, 38, 5, 9, 21<br/>12, 18, 9, 8, 56]<br/>class = Normal>']], fillcolor="#e5473912"] ;
522 -> 523 ;
524 [label=[[ '<Speed &le; 64.5<br/>gini = 0.889<br/>samples = 182<br/>value = [10, 9, 1, 13, 1, 2, 27, 2, 6, 30, 3, 5, 15<br/>10, 3, 6, 4, 35]<br/>class = Normal>']], fillcolor="#e5473908"] ;
523 -> 524 ;
525 [label=[[ '<Attack &le; 61.0<br/>gini = 0.836<br/>samples = 65<br/>value = [2, 2, 0, 2, 0, 0, 7, 0, 2, 19, 1, 3, 4, 2<br/>2, 3, 1, 15]<br/>class = Bug>']], fillcolor="#399de514"] ;
524 -> 525 ;
526 [label=[[ '<Sp. Defense &le; 56.5<br/>gini = 0.776<br/>samples = 7<br/>value = [1, 0, 0, 0, 0, 0, 2, 0, 0, 0, 0, 1, 1, 0, 0<br/>2, 0, 0]<br/>class = Water>']], fillcolor="#39e58100"] ;
525 -> 526 ;
527 [label=[[ '<gini = 0.0<br/>samples = 2<br/>value = [0, 0, 0, 0, 0, 0, 2, 0, 0, 0, 0, 0, 0, 0, 0<br/>0, 0, 0]<br/>class = Water>']], fillcolor="#39e581ff"] ;
526 -> 527 ;
528 [label=[[ '<Speed &le; 45.5<br/>gini = 0.72<br/>samples = 5<br/>value = [1, 0, 0, 0, 0, 0, 0, 0, 0, 0, 0, 1, 1, 0, 0<br/>2, 0, 0]<br/>class = Normal>']], fillcolor="#e5399d40"] ;
526 -> 528 ;
529 [label=[[ '<Sp. Defense &le; 72.5<br/>gini = 0.5<br/>samples = 2<br/>value = [0, 0, 0, 0, 0, 0, 0, 0, 0, 0, 0, 1, 1, 0, 0<br/>0, 0, 0]<br/>class = Bug>']], fillcolor="#4739e500"] ;
528 -> 529 ;
530 [label=[[ '<gini = 0.0<br/>samples = 1<br/>value = [0, 0, 0, 0, 0, 0, 0, 0, 0, 0, 0, 1, 0, 0, 0<br/>0, 0, 0]<br/>class = Bug>']], fillcolor="#4739e5ff"] ;
529 -> 530 ;
531 [label=[[ '<gini = 0.0<br/>samples = 1<br/>value = [0, 0, 0, 0, 0, 0, 0, 0, 0, 0, 0, 0, 1, 0, 0<br/>0, 0, 0]<br/>class = Bug>']], fillcolor="#8139e5ff"] ;
529 -> 531 ;
532 [label=[[ '<Speed &le; 57.5<br/>gini = 0.444<br/>samples = 3<br/>value = [1, 0, 0, 0, 0, 0, 0, 0, 0, 0, 0, 0, 0, 0, 0<br/>2, 0, 0]<br/>class = Normal>']], fillcolor="#e5399d7f"] ;
528 -> 532 ;
533 [label=[[ '<gini = 0.0<br/>samples = 2<br/>value = [0, 0, 0, 0, 0, 0, 0, 0, 0, 0, 0, 0, 0, 0, 0<br/>2, 0, 0]<br/>class = Normal>']], fillcolor="#e5399dff"] ;
532 -> 533 ;
534 [label=[[ '<gini = 0.0<br/>samples = 1<br/>value = [1, 0, 0, 0, 0, 0, 0, 0, 0, 0, 0, 0, 0, 0, 0<br/>0, 0, 0]<br/>class = Grass>']], fillcolor="#e58139ff"] ;
532 -> 534 ;
535 [label=[[ '<Attack &le; 62.5<br/>gini = 0.807<br/>samples = 58<br/>value = [1, 2, 0, 2, 0, 0, 5, 0, 2, 19, 1, 2, 3, 2<br/>2, 1, 1, 15]<br/>class = Bug>']], fillcolor="#399de518"] ;
525 -> 535 ;
536 [label=[[ '<gini = 0.0<br/>samples = 3<br/>value = [0, 0, 0, 0, 0, 0, 0, 0, 0, 3, 0, 0, 0, 0, 0<br/>0, 0, 0]<br/>class = Bug>']], fillcolor="#399de5ff"] ;
535 -> 536 ;
537 [label=[[ '<Sp. Defense &le; 84.0<br/>gini = 0.82<br/>samples = 55<br/>value = [1, 2, 0, 2, 0, 0, 5, 0, 2, 16, 1, 2, 3, 2<br/>2, 1, 1, 15]<br/>class = Bug>']], fillcolor="#399de506"] ;
535 -> 537 ;
538 [label=[[ '<Sp. Attack &le; 105.5<br/>gini = 0.822<br/>samples = 49<br/>value = [1, 2, 0, 2, 0, 0, 5, 0, 2, 12, 1, 2, 3, 2<br/>1, 1, 0, 15]<br/>class = Normal>']], fillcolor="#e5473915"] ;
537 -> 538 ;
